network "unnamedBN" {
// written by aGrUM 1.15.1
}

variable extract_claims_p {
   type discrete[11] {18, 19, 20, 21, 22, 23, 24, 25, 26, 27, 28};
}

variable extract_claims_c {
   type discrete[15] {1, 2, 3, 4, 5, 6, 7, 8, 9, 10, 11, 12, 13, 14, 15};
}

variable generate_queries_p {
   type discrete[3] {25, 26, 27};
}

variable generate_queries_c {
   type discrete[3] {2, 3, 4};
}

probability (extract_claims_p) {
   table 0.117117 0.198198 0.261261 0.153153 0.117117 0.036036 0.036036 0.036036 0.00900901 0.018018 0.018018;
}
probability (extract_claims_c | extract_claims_p) {
   (18) 0.0740741 0.148148 0.259259 0.111111 0.037037 0.037037 0.037037 0.037037 0.037037 0.037037 0.037037 0.037037 0.037037 0.037037 0.037037;
   (19) 0.111111 0.0555556 0.388889 0.0555556 0.111111 0.0277778 0.0277778 0.0277778 0.0277778 0.0277778 0.0277778 0.0277778 0.0277778 0.0277778 0.0277778;
   (20) 0.0232558 0.0465116 0.232558 0.162791 0.116279 0.162791 0.0697674 0.0232558 0.0232558 0.0232558 0.0232558 0.0232558 0.0232558 0.0232558 0.0232558;
   (21) 0.0322581 0.0322581 0.16129 0.193548 0.0645161 0.16129 0.0967742 0.0322581 0.0322581 0.0322581 0.0322581 0.0322581 0.0322581 0.0322581 0.0322581;
   (22) 0.0740741 0.037037 0.148148 0.037037 0.111111 0.0740741 0.148148 0.0740741 0.0740741 0.037037 0.037037 0.037037 0.037037 0.037037 0.037037;
   (23) 0.111111 0.0555556 0.0555556 0.0555556 0.0555556 0.0555556 0.111111 0.0555556 0.111111 0.0555556 0.0555556 0.0555556 0.0555556 0.0555556 0.0555556;
   (24) 0.166667 0.0555556 0.0555556 0.0555556 0.0555556 0.0555556 0.0555556 0.0555556 0.0555556 0.0555556 0.0555556 0.0555556 0.0555556 0.111111 0.0555556;
   (25) 0.0555556 0.0555556 0.111111 0.0555556 0.0555556 0.0555556 0.0555556 0.0555556 0.0555556 0.111111 0.0555556 0.111111 0.0555556 0.0555556 0.0555556;
   (26) 0.0666667 0.0666667 0.0666667 0.0666667 0.0666667 0.0666667 0.0666667 0.0666667 0.0666667 0.0666667 0.0666667 0.0666667 0.0666667 0.0666667 0.0666667;
   (27) 0.0625 0.0625 0.0625 0.125 0.0625 0.0625 0.0625 0.0625 0.0625 0.0625 0.0625 0.0625 0.0625 0.0625 0.0625;
   (28) 0.0625 0.0625 0.0625 0.0625 0.0625 0.0625 0.0625 0.0625 0.0625 0.0625 0.0625 0.0625 0.0625 0.0625 0.125;
}
probability (generate_queries_p | extract_claims_c, extract_claims_p) {
   (1, 18) 0.25 0.5 0.25;
   (2, 18) 0.666667 0.166667 0.166667;
   (3, 18) 0.111111 0.666667 0.222222;
   (4, 18) 0.4 0.4 0.2;
   (5, 18) 0.333333 0.333333 0.333333;
   (6, 18) 0.333333 0.333333 0.333333;
   (7, 18) 0.333333 0.333333 0.333333;
   (8, 18) 0.333333 0.333333 0.333333;
   (9, 18) 0.333333 0.333333 0.333333;
   (10, 18) 0.333333 0.333333 0.333333;
   (11, 18) 0.333333 0.333333 0.333333;
   (12, 18) 0.333333 0.333333 0.333333;
   (13, 18) 0.333333 0.333333 0.333333;
   (14, 18) 0.333333 0.333333 0.333333;
   (15, 18) 0.333333 0.333333 0.333333;
   (1, 19) 0.5 0.333333 0.166667;
   (2, 19) 0.25 0.5 0.25;
   (3, 19) 0.1875 0.5 0.3125;
   (4, 19) 0.25 0.5 0.25;
   (5, 19) 0.333333 0.333333 0.333333;
   (6, 19) 0.333333 0.333333 0.333333;
   (7, 19) 0.333333 0.333333 0.333333;
   (8, 19) 0.333333 0.333333 0.333333;
   (9, 19) 0.333333 0.333333 0.333333;
   (10, 19) 0.333333 0.333333 0.333333;
   (11, 19) 0.333333 0.333333 0.333333;
   (12, 19) 0.333333 0.333333 0.333333;
   (13, 19) 0.333333 0.333333 0.333333;
   (14, 19) 0.333333 0.333333 0.333333;
   (15, 19) 0.333333 0.333333 0.333333;
   (1, 20) 0.333333 0.333333 0.333333;
   (2, 20) 0.5 0.25 0.25;
   (3, 20) 0.25 0.416667 0.333333;
   (4, 20) 0.111111 0.777778 0.111111;
   (5, 20) 0.142857 0.428571 0.428571;
   (6, 20) 0.111111 0.333333 0.555556;
   (7, 20) 0.2 0.4 0.4;
   (8, 20) 0.333333 0.333333 0.333333;
   (9, 20) 0.333333 0.333333 0.333333;
   (10, 20) 0.333333 0.333333 0.333333;
   (11, 20) 0.333333 0.333333 0.333333;
   (12, 20) 0.333333 0.333333 0.333333;
   (13, 20) 0.333333 0.333333 0.333333;
   (14, 20) 0.333333 0.333333 0.333333;
   (15, 20) 0.333333 0.333333 0.333333;
   (1, 21) 0.333333 0.333333 0.333333;
   (2, 21) 0.333333 0.333333 0.333333;
   (3, 21) 0.285714 0.428571 0.285714;
   (4, 21) 0.25 0.5 0.25;
   (5, 21) 0.25 0.5 0.25;
   (6, 21) 0.142857 0.285714 0.571429;
   (7, 21) 0.2 0.6 0.2;
   (8, 21) 0.333333 0.333333 0.333333;
   (9, 21) 0.333333 0.333333 0.333333;
   (10, 21) 0.333333 0.333333 0.333333;
   (11, 21) 0.333333 0.333333 0.333333;
   (12, 21) 0.333333 0.333333 0.333333;
   (13, 21) 0.333333 0.333333 0.333333;
   (14, 21) 0.333333 0.333333 0.333333;
   (15, 21) 0.333333 0.333333 0.333333;
   (1, 22) 0.25 0.5 0.25;
   (2, 22) 0.333333 0.333333 0.333333;
   (3, 22) 0.166667 0.666667 0.166667;
   (4, 22) 0.333333 0.333333 0.333333;
   (5, 22) 0.2 0.2 0.6;
   (6, 22) 0.25 0.5 0.25;
   (7, 22) 0.166667 0.166667 0.666667;
   (8, 22) 0.25 0.5 0.25;
   (9, 22) 0.25 0.25 0.5;
   (10, 22) 0.333333 0.333333 0.333333;
   (11, 22) 0.333333 0.333333 0.333333;
   (12, 22) 0.333333 0.333333 0.333333;
   (13, 22) 0.333333 0.333333 0.333333;
   (14, 22) 0.333333 0.333333 0.333333;
   (15, 22) 0.333333 0.333333 0.333333;
   (1, 23) 0.5 0.25 0.25;
   (2, 23) 0.333333 0.333333 0.333333;
   (3, 23) 0.333333 0.333333 0.333333;
   (4, 23) 0.333333 0.333333 0.333333;
   (5, 23) 0.333333 0.333333 0.333333;
   (6, 23) 0.333333 0.333333 0.333333;
   (7, 23) 0.5 0.25 0.25;
   (8, 23) 0.333333 0.333333 0.333333;
   (9, 23) 0.25 0.25 0.5;
   (10, 23) 0.333333 0.333333 0.333333;
   (11, 23) 0.333333 0.333333 0.333333;
   (12, 23) 0.333333 0.333333 0.333333;
   (13, 23) 0.333333 0.333333 0.333333;
   (14, 23) 0.333333 0.333333 0.333333;
   (15, 23) 0.333333 0.333333 0.333333;
   (1, 24) 0.4 0.4 0.2;
   (2, 24) 0.333333 0.333333 0.333333;
   (3, 24) 0.333333 0.333333 0.333333;
   (4, 24) 0.333333 0.333333 0.333333;
   (5, 24) 0.333333 0.333333 0.333333;
   (6, 24) 0.333333 0.333333 0.333333;
   (7, 24) 0.333333 0.333333 0.333333;
   (8, 24) 0.333333 0.333333 0.333333;
   (9, 24) 0.333333 0.333333 0.333333;
   (10, 24) 0.333333 0.333333 0.333333;
   (11, 24) 0.333333 0.333333 0.333333;
   (12, 24) 0.333333 0.333333 0.333333;
   (13, 24) 0.333333 0.333333 0.333333;
   (14, 24) 0.25 0.25 0.5;
   (15, 24) 0.333333 0.333333 0.333333;
   (1, 25) 0.333333 0.333333 0.333333;
   (2, 25) 0.333333 0.333333 0.333333;
   (3, 25) 0.25 0.5 0.25;
   (4, 25) 0.333333 0.333333 0.333333;
   (5, 25) 0.333333 0.333333 0.333333;
   (6, 25) 0.333333 0.333333 0.333333;
   (7, 25) 0.333333 0.333333 0.333333;
   (8, 25) 0.333333 0.333333 0.333333;
   (9, 25) 0.333333 0.333333 0.333333;
   (10, 25) 0.25 0.25 0.5;
   (11, 25) 0.333333 0.333333 0.333333;
   (12, 25) 0.25 0.25 0.5;
   (13, 25) 0.333333 0.333333 0.333333;
   (14, 25) 0.333333 0.333333 0.333333;
   (15, 25) 0.333333 0.333333 0.333333;
   (1, 26) 0.333333 0.333333 0.333333;
   (2, 26) 0.333333 0.333333 0.333333;
   (3, 26) 0.333333 0.333333 0.333333;
   (4, 26) 0.333333 0.333333 0.333333;
   (5, 26) 0.333333 0.333333 0.333333;
   (6, 26) 0.333333 0.333333 0.333333;
   (7, 26) 0.333333 0.333333 0.333333;
   (8, 26) 0.333333 0.333333 0.333333;
   (9, 26) 0.333333 0.333333 0.333333;
   (10, 26) 0.333333 0.333333 0.333333;
   (11, 26) 0.333333 0.333333 0.333333;
   (12, 26) 0.333333 0.333333 0.333333;
   (13, 26) 0.333333 0.333333 0.333333;
   (14, 26) 0.333333 0.333333 0.333333;
   (15, 26) 0.333333 0.333333 0.333333;
   (1, 27) 0.333333 0.333333 0.333333;
   (2, 27) 0.333333 0.333333 0.333333;
   (3, 27) 0.333333 0.333333 0.333333;
   (4, 27) 0.25 0.25 0.5;
   (5, 27) 0.333333 0.333333 0.333333;
   (6, 27) 0.333333 0.333333 0.333333;
   (7, 27) 0.333333 0.333333 0.333333;
   (8, 27) 0.333333 0.333333 0.333333;
   (9, 27) 0.333333 0.333333 0.333333;
   (10, 27) 0.333333 0.333333 0.333333;
   (11, 27) 0.333333 0.333333 0.333333;
   (12, 27) 0.333333 0.333333 0.333333;
   (13, 27) 0.333333 0.333333 0.333333;
   (14, 27) 0.333333 0.333333 0.333333;
   (15, 27) 0.333333 0.333333 0.333333;
   (1, 28) 0.333333 0.333333 0.333333;
   (2, 28) 0.333333 0.333333 0.333333;
   (3, 28) 0.333333 0.333333 0.333333;
   (4, 28) 0.333333 0.333333 0.333333;
   (5, 28) 0.333333 0.333333 0.333333;
   (6, 28) 0.333333 0.333333 0.333333;
   (7, 28) 0.333333 0.333333 0.333333;
   (8, 28) 0.333333 0.333333 0.333333;
   (9, 28) 0.333333 0.333333 0.333333;
   (10, 28) 0.333333 0.333333 0.333333;
   (11, 28) 0.333333 0.333333 0.333333;
   (12, 28) 0.333333 0.333333 0.333333;
   (13, 28) 0.333333 0.333333 0.333333;
   (14, 28) 0.333333 0.333333 0.333333;
   (15, 28) 0.25 0.5 0.25;
}
probability (generate_queries_c | generate_queries_p, extract_claims_c) {
   (25, 1) 0.714286 0.142857 0.142857;
   (26, 1) 0.142857 0.571429 0.285714;
   (27, 1) 0.333333 0.333333 0.333333;
   (25, 2) 0.714286 0.142857 0.142857;
   (26, 2) 0.5 0.25 0.25;
   (27, 2) 0.333333 0.333333 0.333333;
   (25, 3) 0.75 0.125 0.125;
   (26, 3) 0.2 0.76 0.04;
   (27, 3) 0.0833333 0.75 0.166667;
   (25, 4) 0.6 0.2 0.2;
   (26, 4) 0.428571 0.5 0.0714286;
   (27, 4) 0.2 0.6 0.2;
   (25, 5) 0.25 0.5 0.25;
   (26, 5) 0.142857 0.571429 0.285714;
   (27, 5) 0.125 0.75 0.125;
   (25, 6) 0.333333 0.333333 0.333333;
   (26, 6) 0.428571 0.428571 0.142857;
   (27, 6) 0.1 0.7 0.2;
   (25, 7) 0.5 0.25 0.25;
   (26, 7) 0.5 0.333333 0.166667;
   (27, 7) 0.285714 0.571429 0.142857;
   (25, 8) 0.333333 0.333333 0.333333;
   (26, 8) 0.5 0.25 0.25;
   (27, 8) 0.333333 0.333333 0.333333;
   (25, 9) 0.333333 0.333333 0.333333;
   (26, 9) 0.333333 0.333333 0.333333;
   (27, 9) 0.2 0.6 0.2;
   (25, 10) 0.333333 0.333333 0.333333;
   (26, 10) 0.333333 0.333333 0.333333;
   (27, 10) 0.5 0.25 0.25;
   (25, 11) 0.333333 0.333333 0.333333;
   (26, 11) 0.333333 0.333333 0.333333;
   (27, 11) 0.333333 0.333333 0.333333;
   (25, 12) 0.333333 0.333333 0.333333;
   (26, 12) 0.333333 0.333333 0.333333;
   (27, 12) 0.25 0.25 0.5;
   (25, 13) 0.333333 0.333333 0.333333;
   (26, 13) 0.333333 0.333333 0.333333;
   (27, 13) 0.333333 0.333333 0.333333;
   (25, 14) 0.333333 0.333333 0.333333;
   (26, 14) 0.333333 0.333333 0.333333;
   (27, 14) 0.5 0.25 0.25;
   (25, 15) 0.333333 0.333333 0.333333;
   (26, 15) 0.25 0.5 0.25;
   (27, 15) 0.333333 0.333333 0.333333;
}

