network "unnamedBN" {
// written by aGrUM 1.15.1
}

variable generate1_p {
   type discrete[14] {10, 11, 12, 13, 14, 15, 16, 17, 18, 19, 20, 21, 22, 23};
}

variable generate1_c {
   type discrete[14] {4, 5, 6, 7, 8, 9, 10, 11, 12, 13, 14, 15, 16, 17};
}

variable score1_p {
   type discrete[30] {18, 19, 20, 21, 22, 23, 24, 25, 26, 27, 28, 29, 30, 31, 32, 33, 34, 35, 36, 37, 38, 39, 40, 41, 42, 43, 44, 45, 46, 47};
}

variable score1_c {
   type discrete[6] {2, 3, 4, 5, 6, 7};
}

variable aggregate_p {
   type discrete[29] {23, 24, 25, 26, 27, 28, 29, 30, 31, 32, 33, 34, 35, 36, 37, 38, 39, 40, 41, 42, 43, 44, 45, 46, 47, 48, 49, 50, 51};
}

variable aggregate_c {
   type discrete[20] {4, 5, 6, 7, 8, 9, 10, 11, 12, 13, 14, 15, 16, 17, 18, 19, 20, 21, 22, 23};
}

variable score2_p {
   type discrete[30] {18, 19, 20, 21, 22, 23, 24, 25, 26, 27, 28, 29, 30, 31, 32, 33, 34, 35, 36, 37, 38, 39, 40, 41, 42, 43, 44, 45, 46, 47};
}

variable score2_c {
   type discrete[7] {2, 3, 4, 5, 6, 7, 8};
}

variable generate2_p {
   type discrete[17] {17, 18, 19, 20, 21, 22, 23, 24, 25, 26, 27, 28, 29, 30, 31, 32, 33};
}

variable generate2_c {
   type discrete[14] {4, 5, 6, 7, 8, 9, 10, 11, 12, 13, 14, 15, 16, 17};
}

variable score3_p {
   type discrete[18] {18, 19, 20, 21, 22, 23, 24, 25, 26, 27, 28, 29, 30, 31, 32, 33, 34, 35};
}

variable score3_c {
   type discrete[6] {2, 3, 4, 5, 6, 7};
}

probability (generate1_p) {
   table 0.0350877 0.0526316 0.0614035 0.149123 0.105263 0.149123 0.157895 0.131579 0.0526316 0.0438596 0.0175439 0.00877193 0.0175439 0.0175439;
}
probability (generate1_c | generate1_p) {
   (10) 0.0588235 0.0588235 0.117647 0.117647 0.0588235 0.0588235 0.117647 0.0588235 0.0588235 0.0588235 0.0588235 0.0588235 0.0588235 0.0588235;
   (11) 0.0526316 0.0526316 0.0526316 0.210526 0.0526316 0.0526316 0.157895 0.0526316 0.0526316 0.0526316 0.0526316 0.0526316 0.0526316 0.0526316;
   (12) 0.05 0.1 0.1 0.1 0.1 0.05 0.05 0.1 0.1 0.05 0.05 0.05 0.05 0.05;
   (13) 0.0333333 0.1 0.2 0.133333 0.133333 0.1 0.0333333 0.0333333 0.0666667 0.0333333 0.0333333 0.0333333 0.0333333 0.0333333;
   (14) 0.04 0.08 0.04 0.04 0.04 0.16 0.2 0.12 0.04 0.04 0.08 0.04 0.04 0.04;
   (15) 0.0666667 0.0666667 0.0666667 0.0333333 0.133333 0.1 0.1 0.0666667 0.0666667 0.1 0.0666667 0.0666667 0.0333333 0.0333333;
   (16) 0.0322581 0.0645161 0.0967742 0.0322581 0.0967742 0.193548 0.16129 0.0967742 0.0322581 0.0322581 0.0645161 0.0322581 0.0322581 0.0322581;
   (17) 0.0357143 0.0714286 0.0357143 0.0714286 0.142857 0.0714286 0.142857 0.0714286 0.0714286 0.0357143 0.107143 0.0357143 0.0357143 0.0714286;
   (18) 0.0526316 0.0526316 0.157895 0.105263 0.0526316 0.0526316 0.105263 0.0526316 0.0526316 0.0526316 0.105263 0.0526316 0.0526316 0.0526316;
   (19) 0.0555556 0.0555556 0.0555556 0.111111 0.0555556 0.111111 0.0555556 0.111111 0.0555556 0.111111 0.0555556 0.0555556 0.0555556 0.0555556;
   (20) 0.0666667 0.0666667 0.0666667 0.0666667 0.0666667 0.0666667 0.133333 0.0666667 0.0666667 0.0666667 0.0666667 0.0666667 0.0666667 0.0666667;
   (21) 0.0714286 0.0714286 0.0714286 0.0714286 0.0714286 0.0714286 0.0714286 0.0714286 0.0714286 0.0714286 0.0714286 0.0714286 0.0714286 0.0714286;
   (22) 0.0666667 0.133333 0.0666667 0.0666667 0.0666667 0.0666667 0.0666667 0.0666667 0.0666667 0.0666667 0.0666667 0.0666667 0.0666667 0.0666667;
   (23) 0.0666667 0.0666667 0.0666667 0.0666667 0.0666667 0.0666667 0.0666667 0.0666667 0.0666667 0.0666667 0.133333 0.0666667 0.0666667 0.0666667;
}
probability (score1_p | generate1_c, generate1_p) {
   (4, 10) 0.0333333 0.0333333 0.0333333 0.0333333 0.0333333 0.0333333 0.0333333 0.0333333 0.0333333 0.0333333 0.0333333 0.0333333 0.0333333 0.0333333 0.0333333 0.0333333 0.0333333 0.0333333 0.0333333 0.0333333 0.0333333 0.0333333 0.0333333 0.0333333 0.0333333 0.0333333 0.0333333 0.0333333 0.0333333 0.0333333;
   (5, 10) 0.0333333 0.0333333 0.0333333 0.0333333 0.0333333 0.0333333 0.0333333 0.0333333 0.0333333 0.0333333 0.0333333 0.0333333 0.0333333 0.0333333 0.0333333 0.0333333 0.0333333 0.0333333 0.0333333 0.0333333 0.0333333 0.0333333 0.0333333 0.0333333 0.0333333 0.0333333 0.0333333 0.0333333 0.0333333 0.0333333;
   (6, 10) 0.0645161 0.0322581 0.0322581 0.0322581 0.0322581 0.0322581 0.0322581 0.0322581 0.0322581 0.0322581 0.0322581 0.0322581 0.0322581 0.0322581 0.0322581 0.0322581 0.0322581 0.0322581 0.0322581 0.0322581 0.0322581 0.0322581 0.0322581 0.0322581 0.0322581 0.0322581 0.0322581 0.0322581 0.0322581 0.0322581;
   (7, 10) 0.0322581 0.0645161 0.0322581 0.0322581 0.0322581 0.0322581 0.0322581 0.0322581 0.0322581 0.0322581 0.0322581 0.0322581 0.0322581 0.0322581 0.0322581 0.0322581 0.0322581 0.0322581 0.0322581 0.0322581 0.0322581 0.0322581 0.0322581 0.0322581 0.0322581 0.0322581 0.0322581 0.0322581 0.0322581 0.0322581;
   (8, 10) 0.0333333 0.0333333 0.0333333 0.0333333 0.0333333 0.0333333 0.0333333 0.0333333 0.0333333 0.0333333 0.0333333 0.0333333 0.0333333 0.0333333 0.0333333 0.0333333 0.0333333 0.0333333 0.0333333 0.0333333 0.0333333 0.0333333 0.0333333 0.0333333 0.0333333 0.0333333 0.0333333 0.0333333 0.0333333 0.0333333;
   (9, 10) 0.0333333 0.0333333 0.0333333 0.0333333 0.0333333 0.0333333 0.0333333 0.0333333 0.0333333 0.0333333 0.0333333 0.0333333 0.0333333 0.0333333 0.0333333 0.0333333 0.0333333 0.0333333 0.0333333 0.0333333 0.0333333 0.0333333 0.0333333 0.0333333 0.0333333 0.0333333 0.0333333 0.0333333 0.0333333 0.0333333;
   (10, 10) 0.0322581 0.0322581 0.0322581 0.0322581 0.0645161 0.0322581 0.0322581 0.0322581 0.0322581 0.0322581 0.0322581 0.0322581 0.0322581 0.0322581 0.0322581 0.0322581 0.0322581 0.0322581 0.0322581 0.0322581 0.0322581 0.0322581 0.0322581 0.0322581 0.0322581 0.0322581 0.0322581 0.0322581 0.0322581 0.0322581;
   (11, 10) 0.0333333 0.0333333 0.0333333 0.0333333 0.0333333 0.0333333 0.0333333 0.0333333 0.0333333 0.0333333 0.0333333 0.0333333 0.0333333 0.0333333 0.0333333 0.0333333 0.0333333 0.0333333 0.0333333 0.0333333 0.0333333 0.0333333 0.0333333 0.0333333 0.0333333 0.0333333 0.0333333 0.0333333 0.0333333 0.0333333;
   (12, 10) 0.0333333 0.0333333 0.0333333 0.0333333 0.0333333 0.0333333 0.0333333 0.0333333 0.0333333 0.0333333 0.0333333 0.0333333 0.0333333 0.0333333 0.0333333 0.0333333 0.0333333 0.0333333 0.0333333 0.0333333 0.0333333 0.0333333 0.0333333 0.0333333 0.0333333 0.0333333 0.0333333 0.0333333 0.0333333 0.0333333;
   (13, 10) 0.0333333 0.0333333 0.0333333 0.0333333 0.0333333 0.0333333 0.0333333 0.0333333 0.0333333 0.0333333 0.0333333 0.0333333 0.0333333 0.0333333 0.0333333 0.0333333 0.0333333 0.0333333 0.0333333 0.0333333 0.0333333 0.0333333 0.0333333 0.0333333 0.0333333 0.0333333 0.0333333 0.0333333 0.0333333 0.0333333;
   (14, 10) 0.0333333 0.0333333 0.0333333 0.0333333 0.0333333 0.0333333 0.0333333 0.0333333 0.0333333 0.0333333 0.0333333 0.0333333 0.0333333 0.0333333 0.0333333 0.0333333 0.0333333 0.0333333 0.0333333 0.0333333 0.0333333 0.0333333 0.0333333 0.0333333 0.0333333 0.0333333 0.0333333 0.0333333 0.0333333 0.0333333;
   (15, 10) 0.0333333 0.0333333 0.0333333 0.0333333 0.0333333 0.0333333 0.0333333 0.0333333 0.0333333 0.0333333 0.0333333 0.0333333 0.0333333 0.0333333 0.0333333 0.0333333 0.0333333 0.0333333 0.0333333 0.0333333 0.0333333 0.0333333 0.0333333 0.0333333 0.0333333 0.0333333 0.0333333 0.0333333 0.0333333 0.0333333;
   (16, 10) 0.0333333 0.0333333 0.0333333 0.0333333 0.0333333 0.0333333 0.0333333 0.0333333 0.0333333 0.0333333 0.0333333 0.0333333 0.0333333 0.0333333 0.0333333 0.0333333 0.0333333 0.0333333 0.0333333 0.0333333 0.0333333 0.0333333 0.0333333 0.0333333 0.0333333 0.0333333 0.0333333 0.0333333 0.0333333 0.0333333;
   (17, 10) 0.0333333 0.0333333 0.0333333 0.0333333 0.0333333 0.0333333 0.0333333 0.0333333 0.0333333 0.0333333 0.0333333 0.0333333 0.0333333 0.0333333 0.0333333 0.0333333 0.0333333 0.0333333 0.0333333 0.0333333 0.0333333 0.0333333 0.0333333 0.0333333 0.0333333 0.0333333 0.0333333 0.0333333 0.0333333 0.0333333;
   (4, 11) 0.0333333 0.0333333 0.0333333 0.0333333 0.0333333 0.0333333 0.0333333 0.0333333 0.0333333 0.0333333 0.0333333 0.0333333 0.0333333 0.0333333 0.0333333 0.0333333 0.0333333 0.0333333 0.0333333 0.0333333 0.0333333 0.0333333 0.0333333 0.0333333 0.0333333 0.0333333 0.0333333 0.0333333 0.0333333 0.0333333;
   (5, 11) 0.0333333 0.0333333 0.0333333 0.0333333 0.0333333 0.0333333 0.0333333 0.0333333 0.0333333 0.0333333 0.0333333 0.0333333 0.0333333 0.0333333 0.0333333 0.0333333 0.0333333 0.0333333 0.0333333 0.0333333 0.0333333 0.0333333 0.0333333 0.0333333 0.0333333 0.0333333 0.0333333 0.0333333 0.0333333 0.0333333;
   (6, 11) 0.0333333 0.0333333 0.0333333 0.0333333 0.0333333 0.0333333 0.0333333 0.0333333 0.0333333 0.0333333 0.0333333 0.0333333 0.0333333 0.0333333 0.0333333 0.0333333 0.0333333 0.0333333 0.0333333 0.0333333 0.0333333 0.0333333 0.0333333 0.0333333 0.0333333 0.0333333 0.0333333 0.0333333 0.0333333 0.0333333;
   (7, 11) 0.0606061 0.0606061 0.030303 0.0606061 0.030303 0.030303 0.030303 0.030303 0.030303 0.030303 0.030303 0.030303 0.030303 0.030303 0.030303 0.030303 0.030303 0.030303 0.030303 0.030303 0.030303 0.030303 0.030303 0.030303 0.030303 0.030303 0.030303 0.030303 0.030303 0.030303;
   (8, 11) 0.0333333 0.0333333 0.0333333 0.0333333 0.0333333 0.0333333 0.0333333 0.0333333 0.0333333 0.0333333 0.0333333 0.0333333 0.0333333 0.0333333 0.0333333 0.0333333 0.0333333 0.0333333 0.0333333 0.0333333 0.0333333 0.0333333 0.0333333 0.0333333 0.0333333 0.0333333 0.0333333 0.0333333 0.0333333 0.0333333;
   (9, 11) 0.0333333 0.0333333 0.0333333 0.0333333 0.0333333 0.0333333 0.0333333 0.0333333 0.0333333 0.0333333 0.0333333 0.0333333 0.0333333 0.0333333 0.0333333 0.0333333 0.0333333 0.0333333 0.0333333 0.0333333 0.0333333 0.0333333 0.0333333 0.0333333 0.0333333 0.0333333 0.0333333 0.0333333 0.0333333 0.0333333;
   (10, 11) 0.03125 0.03125 0.03125 0.03125 0.0625 0.03125 0.0625 0.03125 0.03125 0.03125 0.03125 0.03125 0.03125 0.03125 0.03125 0.03125 0.03125 0.03125 0.03125 0.03125 0.03125 0.03125 0.03125 0.03125 0.03125 0.03125 0.03125 0.03125 0.03125 0.03125;
   (11, 11) 0.0333333 0.0333333 0.0333333 0.0333333 0.0333333 0.0333333 0.0333333 0.0333333 0.0333333 0.0333333 0.0333333 0.0333333 0.0333333 0.0333333 0.0333333 0.0333333 0.0333333 0.0333333 0.0333333 0.0333333 0.0333333 0.0333333 0.0333333 0.0333333 0.0333333 0.0333333 0.0333333 0.0333333 0.0333333 0.0333333;
   (12, 11) 0.0333333 0.0333333 0.0333333 0.0333333 0.0333333 0.0333333 0.0333333 0.0333333 0.0333333 0.0333333 0.0333333 0.0333333 0.0333333 0.0333333 0.0333333 0.0333333 0.0333333 0.0333333 0.0333333 0.0333333 0.0333333 0.0333333 0.0333333 0.0333333 0.0333333 0.0333333 0.0333333 0.0333333 0.0333333 0.0333333;
   (13, 11) 0.0333333 0.0333333 0.0333333 0.0333333 0.0333333 0.0333333 0.0333333 0.0333333 0.0333333 0.0333333 0.0333333 0.0333333 0.0333333 0.0333333 0.0333333 0.0333333 0.0333333 0.0333333 0.0333333 0.0333333 0.0333333 0.0333333 0.0333333 0.0333333 0.0333333 0.0333333 0.0333333 0.0333333 0.0333333 0.0333333;
   (14, 11) 0.0333333 0.0333333 0.0333333 0.0333333 0.0333333 0.0333333 0.0333333 0.0333333 0.0333333 0.0333333 0.0333333 0.0333333 0.0333333 0.0333333 0.0333333 0.0333333 0.0333333 0.0333333 0.0333333 0.0333333 0.0333333 0.0333333 0.0333333 0.0333333 0.0333333 0.0333333 0.0333333 0.0333333 0.0333333 0.0333333;
   (15, 11) 0.0333333 0.0333333 0.0333333 0.0333333 0.0333333 0.0333333 0.0333333 0.0333333 0.0333333 0.0333333 0.0333333 0.0333333 0.0333333 0.0333333 0.0333333 0.0333333 0.0333333 0.0333333 0.0333333 0.0333333 0.0333333 0.0333333 0.0333333 0.0333333 0.0333333 0.0333333 0.0333333 0.0333333 0.0333333 0.0333333;
   (16, 11) 0.0333333 0.0333333 0.0333333 0.0333333 0.0333333 0.0333333 0.0333333 0.0333333 0.0333333 0.0333333 0.0333333 0.0333333 0.0333333 0.0333333 0.0333333 0.0333333 0.0333333 0.0333333 0.0333333 0.0333333 0.0333333 0.0333333 0.0333333 0.0333333 0.0333333 0.0333333 0.0333333 0.0333333 0.0333333 0.0333333;
   (17, 11) 0.0333333 0.0333333 0.0333333 0.0333333 0.0333333 0.0333333 0.0333333 0.0333333 0.0333333 0.0333333 0.0333333 0.0333333 0.0333333 0.0333333 0.0333333 0.0333333 0.0333333 0.0333333 0.0333333 0.0333333 0.0333333 0.0333333 0.0333333 0.0333333 0.0333333 0.0333333 0.0333333 0.0333333 0.0333333 0.0333333;
   (4, 12) 0.0333333 0.0333333 0.0333333 0.0333333 0.0333333 0.0333333 0.0333333 0.0333333 0.0333333 0.0333333 0.0333333 0.0333333 0.0333333 0.0333333 0.0333333 0.0333333 0.0333333 0.0333333 0.0333333 0.0333333 0.0333333 0.0333333 0.0333333 0.0333333 0.0333333 0.0333333 0.0333333 0.0333333 0.0333333 0.0333333;
   (5, 12) 0.0322581 0.0645161 0.0322581 0.0322581 0.0322581 0.0322581 0.0322581 0.0322581 0.0322581 0.0322581 0.0322581 0.0322581 0.0322581 0.0322581 0.0322581 0.0322581 0.0322581 0.0322581 0.0322581 0.0322581 0.0322581 0.0322581 0.0322581 0.0322581 0.0322581 0.0322581 0.0322581 0.0322581 0.0322581 0.0322581;
   (6, 12) 0.0322581 0.0322581 0.0322581 0.0645161 0.0322581 0.0322581 0.0322581 0.0322581 0.0322581 0.0322581 0.0322581 0.0322581 0.0322581 0.0322581 0.0322581 0.0322581 0.0322581 0.0322581 0.0322581 0.0322581 0.0322581 0.0322581 0.0322581 0.0322581 0.0322581 0.0322581 0.0322581 0.0322581 0.0322581 0.0322581;
   (7, 12) 0.0322581 0.0322581 0.0322581 0.0645161 0.0322581 0.0322581 0.0322581 0.0322581 0.0322581 0.0322581 0.0322581 0.0322581 0.0322581 0.0322581 0.0322581 0.0322581 0.0322581 0.0322581 0.0322581 0.0322581 0.0322581 0.0322581 0.0322581 0.0322581 0.0322581 0.0322581 0.0322581 0.0322581 0.0322581 0.0322581;
   (8, 12) 0.0322581 0.0322581 0.0322581 0.0322581 0.0645161 0.0322581 0.0322581 0.0322581 0.0322581 0.0322581 0.0322581 0.0322581 0.0322581 0.0322581 0.0322581 0.0322581 0.0322581 0.0322581 0.0322581 0.0322581 0.0322581 0.0322581 0.0322581 0.0322581 0.0322581 0.0322581 0.0322581 0.0322581 0.0322581 0.0322581;
   (9, 12) 0.0333333 0.0333333 0.0333333 0.0333333 0.0333333 0.0333333 0.0333333 0.0333333 0.0333333 0.0333333 0.0333333 0.0333333 0.0333333 0.0333333 0.0333333 0.0333333 0.0333333 0.0333333 0.0333333 0.0333333 0.0333333 0.0333333 0.0333333 0.0333333 0.0333333 0.0333333 0.0333333 0.0333333 0.0333333 0.0333333;
   (10, 12) 0.0333333 0.0333333 0.0333333 0.0333333 0.0333333 0.0333333 0.0333333 0.0333333 0.0333333 0.0333333 0.0333333 0.0333333 0.0333333 0.0333333 0.0333333 0.0333333 0.0333333 0.0333333 0.0333333 0.0333333 0.0333333 0.0333333 0.0333333 0.0333333 0.0333333 0.0333333 0.0333333 0.0333333 0.0333333 0.0333333;
   (11, 12) 0.0322581 0.0322581 0.0322581 0.0322581 0.0322581 0.0322581 0.0322581 0.0645161 0.0322581 0.0322581 0.0322581 0.0322581 0.0322581 0.0322581 0.0322581 0.0322581 0.0322581 0.0322581 0.0322581 0.0322581 0.0322581 0.0322581 0.0322581 0.0322581 0.0322581 0.0322581 0.0322581 0.0322581 0.0322581 0.0322581;
   (12, 12) 0.0322581 0.0322581 0.0322581 0.0322581 0.0322581 0.0322581 0.0322581 0.0645161 0.0322581 0.0322581 0.0322581 0.0322581 0.0322581 0.0322581 0.0322581 0.0322581 0.0322581 0.0322581 0.0322581 0.0322581 0.0322581 0.0322581 0.0322581 0.0322581 0.0322581 0.0322581 0.0322581 0.0322581 0.0322581 0.0322581;
   (13, 12) 0.0333333 0.0333333 0.0333333 0.0333333 0.0333333 0.0333333 0.0333333 0.0333333 0.0333333 0.0333333 0.0333333 0.0333333 0.0333333 0.0333333 0.0333333 0.0333333 0.0333333 0.0333333 0.0333333 0.0333333 0.0333333 0.0333333 0.0333333 0.0333333 0.0333333 0.0333333 0.0333333 0.0333333 0.0333333 0.0333333;
   (14, 12) 0.0333333 0.0333333 0.0333333 0.0333333 0.0333333 0.0333333 0.0333333 0.0333333 0.0333333 0.0333333 0.0333333 0.0333333 0.0333333 0.0333333 0.0333333 0.0333333 0.0333333 0.0333333 0.0333333 0.0333333 0.0333333 0.0333333 0.0333333 0.0333333 0.0333333 0.0333333 0.0333333 0.0333333 0.0333333 0.0333333;
   (15, 12) 0.0333333 0.0333333 0.0333333 0.0333333 0.0333333 0.0333333 0.0333333 0.0333333 0.0333333 0.0333333 0.0333333 0.0333333 0.0333333 0.0333333 0.0333333 0.0333333 0.0333333 0.0333333 0.0333333 0.0333333 0.0333333 0.0333333 0.0333333 0.0333333 0.0333333 0.0333333 0.0333333 0.0333333 0.0333333 0.0333333;
   (16, 12) 0.0333333 0.0333333 0.0333333 0.0333333 0.0333333 0.0333333 0.0333333 0.0333333 0.0333333 0.0333333 0.0333333 0.0333333 0.0333333 0.0333333 0.0333333 0.0333333 0.0333333 0.0333333 0.0333333 0.0333333 0.0333333 0.0333333 0.0333333 0.0333333 0.0333333 0.0333333 0.0333333 0.0333333 0.0333333 0.0333333;
   (17, 12) 0.0333333 0.0333333 0.0333333 0.0333333 0.0333333 0.0333333 0.0333333 0.0333333 0.0333333 0.0333333 0.0333333 0.0333333 0.0333333 0.0333333 0.0333333 0.0333333 0.0333333 0.0333333 0.0333333 0.0333333 0.0333333 0.0333333 0.0333333 0.0333333 0.0333333 0.0333333 0.0333333 0.0333333 0.0333333 0.0333333;
   (4, 13) 0.0333333 0.0333333 0.0333333 0.0333333 0.0333333 0.0333333 0.0333333 0.0333333 0.0333333 0.0333333 0.0333333 0.0333333 0.0333333 0.0333333 0.0333333 0.0333333 0.0333333 0.0333333 0.0333333 0.0333333 0.0333333 0.0333333 0.0333333 0.0333333 0.0333333 0.0333333 0.0333333 0.0333333 0.0333333 0.0333333;
   (5, 13) 0.03125 0.03125 0.09375 0.03125 0.03125 0.03125 0.03125 0.03125 0.03125 0.03125 0.03125 0.03125 0.03125 0.03125 0.03125 0.03125 0.03125 0.03125 0.03125 0.03125 0.03125 0.03125 0.03125 0.03125 0.03125 0.03125 0.03125 0.03125 0.03125 0.03125;
   (6, 13) 0.0285714 0.0285714 0.0571429 0.142857 0.0285714 0.0285714 0.0285714 0.0285714 0.0285714 0.0285714 0.0285714 0.0285714 0.0285714 0.0285714 0.0285714 0.0285714 0.0285714 0.0285714 0.0285714 0.0285714 0.0285714 0.0285714 0.0285714 0.0285714 0.0285714 0.0285714 0.0285714 0.0285714 0.0285714 0.0285714;
   (7, 13) 0.0606061 0.030303 0.030303 0.0606061 0.0606061 0.030303 0.030303 0.030303 0.030303 0.030303 0.030303 0.030303 0.030303 0.030303 0.030303 0.030303 0.030303 0.030303 0.030303 0.030303 0.030303 0.030303 0.030303 0.030303 0.030303 0.030303 0.030303 0.030303 0.030303 0.030303;
   (8, 13) 0.030303 0.030303 0.030303 0.030303 0.0909091 0.0606061 0.030303 0.030303 0.030303 0.030303 0.030303 0.030303 0.030303 0.030303 0.030303 0.030303 0.030303 0.030303 0.030303 0.030303 0.030303 0.030303 0.030303 0.030303 0.030303 0.030303 0.030303 0.030303 0.030303 0.030303;
   (9, 13) 0.03125 0.03125 0.03125 0.03125 0.03125 0.03125 0.09375 0.03125 0.03125 0.03125 0.03125 0.03125 0.03125 0.03125 0.03125 0.03125 0.03125 0.03125 0.03125 0.03125 0.03125 0.03125 0.03125 0.03125 0.03125 0.03125 0.03125 0.03125 0.03125 0.03125;
   (10, 13) 0.0333333 0.0333333 0.0333333 0.0333333 0.0333333 0.0333333 0.0333333 0.0333333 0.0333333 0.0333333 0.0333333 0.0333333 0.0333333 0.0333333 0.0333333 0.0333333 0.0333333 0.0333333 0.0333333 0.0333333 0.0333333 0.0333333 0.0333333 0.0333333 0.0333333 0.0333333 0.0333333 0.0333333 0.0333333 0.0333333;
   (11, 13) 0.0333333 0.0333333 0.0333333 0.0333333 0.0333333 0.0333333 0.0333333 0.0333333 0.0333333 0.0333333 0.0333333 0.0333333 0.0333333 0.0333333 0.0333333 0.0333333 0.0333333 0.0333333 0.0333333 0.0333333 0.0333333 0.0333333 0.0333333 0.0333333 0.0333333 0.0333333 0.0333333 0.0333333 0.0333333 0.0333333;
   (12, 13) 0.0322581 0.0322581 0.0322581 0.0322581 0.0322581 0.0322581 0.0322581 0.0322581 0.0322581 0.0645161 0.0322581 0.0322581 0.0322581 0.0322581 0.0322581 0.0322581 0.0322581 0.0322581 0.0322581 0.0322581 0.0322581 0.0322581 0.0322581 0.0322581 0.0322581 0.0322581 0.0322581 0.0322581 0.0322581 0.0322581;
   (13, 13) 0.0333333 0.0333333 0.0333333 0.0333333 0.0333333 0.0333333 0.0333333 0.0333333 0.0333333 0.0333333 0.0333333 0.0333333 0.0333333 0.0333333 0.0333333 0.0333333 0.0333333 0.0333333 0.0333333 0.0333333 0.0333333 0.0333333 0.0333333 0.0333333 0.0333333 0.0333333 0.0333333 0.0333333 0.0333333 0.0333333;
   (14, 13) 0.0333333 0.0333333 0.0333333 0.0333333 0.0333333 0.0333333 0.0333333 0.0333333 0.0333333 0.0333333 0.0333333 0.0333333 0.0333333 0.0333333 0.0333333 0.0333333 0.0333333 0.0333333 0.0333333 0.0333333 0.0333333 0.0333333 0.0333333 0.0333333 0.0333333 0.0333333 0.0333333 0.0333333 0.0333333 0.0333333;
   (15, 13) 0.0333333 0.0333333 0.0333333 0.0333333 0.0333333 0.0333333 0.0333333 0.0333333 0.0333333 0.0333333 0.0333333 0.0333333 0.0333333 0.0333333 0.0333333 0.0333333 0.0333333 0.0333333 0.0333333 0.0333333 0.0333333 0.0333333 0.0333333 0.0333333 0.0333333 0.0333333 0.0333333 0.0333333 0.0333333 0.0333333;
   (16, 13) 0.0333333 0.0333333 0.0333333 0.0333333 0.0333333 0.0333333 0.0333333 0.0333333 0.0333333 0.0333333 0.0333333 0.0333333 0.0333333 0.0333333 0.0333333 0.0333333 0.0333333 0.0333333 0.0333333 0.0333333 0.0333333 0.0333333 0.0333333 0.0333333 0.0333333 0.0333333 0.0333333 0.0333333 0.0333333 0.0333333;
   (17, 13) 0.0333333 0.0333333 0.0333333 0.0333333 0.0333333 0.0333333 0.0333333 0.0333333 0.0333333 0.0333333 0.0333333 0.0333333 0.0333333 0.0333333 0.0333333 0.0333333 0.0333333 0.0333333 0.0333333 0.0333333 0.0333333 0.0333333 0.0333333 0.0333333 0.0333333 0.0333333 0.0333333 0.0333333 0.0333333 0.0333333;
   (4, 14) 0.0333333 0.0333333 0.0333333 0.0333333 0.0333333 0.0333333 0.0333333 0.0333333 0.0333333 0.0333333 0.0333333 0.0333333 0.0333333 0.0333333 0.0333333 0.0333333 0.0333333 0.0333333 0.0333333 0.0333333 0.0333333 0.0333333 0.0333333 0.0333333 0.0333333 0.0333333 0.0333333 0.0333333 0.0333333 0.0333333;
   (5, 14) 0.0322581 0.0322581 0.0645161 0.0322581 0.0322581 0.0322581 0.0322581 0.0322581 0.0322581 0.0322581 0.0322581 0.0322581 0.0322581 0.0322581 0.0322581 0.0322581 0.0322581 0.0322581 0.0322581 0.0322581 0.0322581 0.0322581 0.0322581 0.0322581 0.0322581 0.0322581 0.0322581 0.0322581 0.0322581 0.0322581;
   (6, 14) 0.0333333 0.0333333 0.0333333 0.0333333 0.0333333 0.0333333 0.0333333 0.0333333 0.0333333 0.0333333 0.0333333 0.0333333 0.0333333 0.0333333 0.0333333 0.0333333 0.0333333 0.0333333 0.0333333 0.0333333 0.0333333 0.0333333 0.0333333 0.0333333 0.0333333 0.0333333 0.0333333 0.0333333 0.0333333 0.0333333;
   (7, 14) 0.0333333 0.0333333 0.0333333 0.0333333 0.0333333 0.0333333 0.0333333 0.0333333 0.0333333 0.0333333 0.0333333 0.0333333 0.0333333 0.0333333 0.0333333 0.0333333 0.0333333 0.0333333 0.0333333 0.0333333 0.0333333 0.0333333 0.0333333 0.0333333 0.0333333 0.0333333 0.0333333 0.0333333 0.0333333 0.0333333;
   (8, 14) 0.0333333 0.0333333 0.0333333 0.0333333 0.0333333 0.0333333 0.0333333 0.0333333 0.0333333 0.0333333 0.0333333 0.0333333 0.0333333 0.0333333 0.0333333 0.0333333 0.0333333 0.0333333 0.0333333 0.0333333 0.0333333 0.0333333 0.0333333 0.0333333 0.0333333 0.0333333 0.0333333 0.0333333 0.0333333 0.0333333;
   (9, 14) 0.030303 0.030303 0.030303 0.030303 0.030303 0.030303 0.030303 0.0909091 0.030303 0.030303 0.030303 0.0606061 0.030303 0.030303 0.030303 0.030303 0.030303 0.030303 0.030303 0.030303 0.030303 0.030303 0.030303 0.030303 0.030303 0.030303 0.030303 0.030303 0.030303 0.030303;
   (10, 14) 0.0294118 0.0294118 0.0294118 0.0294118 0.0294118 0.0294118 0.0294118 0.0588235 0.0882353 0.0294118 0.0588235 0.0294118 0.0294118 0.0294118 0.0294118 0.0294118 0.0294118 0.0294118 0.0294118 0.0294118 0.0294118 0.0294118 0.0294118 0.0294118 0.0294118 0.0294118 0.0294118 0.0294118 0.0294118 0.0294118;
   (11, 14) 0.03125 0.03125 0.03125 0.03125 0.03125 0.03125 0.03125 0.03125 0.0625 0.03125 0.03125 0.03125 0.0625 0.03125 0.03125 0.03125 0.03125 0.03125 0.03125 0.03125 0.03125 0.03125 0.03125 0.03125 0.03125 0.03125 0.03125 0.03125 0.03125 0.03125;
   (12, 14) 0.0333333 0.0333333 0.0333333 0.0333333 0.0333333 0.0333333 0.0333333 0.0333333 0.0333333 0.0333333 0.0333333 0.0333333 0.0333333 0.0333333 0.0333333 0.0333333 0.0333333 0.0333333 0.0333333 0.0333333 0.0333333 0.0333333 0.0333333 0.0333333 0.0333333 0.0333333 0.0333333 0.0333333 0.0333333 0.0333333;
   (13, 14) 0.0333333 0.0333333 0.0333333 0.0333333 0.0333333 0.0333333 0.0333333 0.0333333 0.0333333 0.0333333 0.0333333 0.0333333 0.0333333 0.0333333 0.0333333 0.0333333 0.0333333 0.0333333 0.0333333 0.0333333 0.0333333 0.0333333 0.0333333 0.0333333 0.0333333 0.0333333 0.0333333 0.0333333 0.0333333 0.0333333;
   (14, 14) 0.0322581 0.0322581 0.0322581 0.0322581 0.0322581 0.0322581 0.0322581 0.0322581 0.0322581 0.0322581 0.0322581 0.0322581 0.0645161 0.0322581 0.0322581 0.0322581 0.0322581 0.0322581 0.0322581 0.0322581 0.0322581 0.0322581 0.0322581 0.0322581 0.0322581 0.0322581 0.0322581 0.0322581 0.0322581 0.0322581;
   (15, 14) 0.0333333 0.0333333 0.0333333 0.0333333 0.0333333 0.0333333 0.0333333 0.0333333 0.0333333 0.0333333 0.0333333 0.0333333 0.0333333 0.0333333 0.0333333 0.0333333 0.0333333 0.0333333 0.0333333 0.0333333 0.0333333 0.0333333 0.0333333 0.0333333 0.0333333 0.0333333 0.0333333 0.0333333 0.0333333 0.0333333;
   (16, 14) 0.0333333 0.0333333 0.0333333 0.0333333 0.0333333 0.0333333 0.0333333 0.0333333 0.0333333 0.0333333 0.0333333 0.0333333 0.0333333 0.0333333 0.0333333 0.0333333 0.0333333 0.0333333 0.0333333 0.0333333 0.0333333 0.0333333 0.0333333 0.0333333 0.0333333 0.0333333 0.0333333 0.0333333 0.0333333 0.0333333;
   (17, 14) 0.0333333 0.0333333 0.0333333 0.0333333 0.0333333 0.0333333 0.0333333 0.0333333 0.0333333 0.0333333 0.0333333 0.0333333 0.0333333 0.0333333 0.0333333 0.0333333 0.0333333 0.0333333 0.0333333 0.0333333 0.0333333 0.0333333 0.0333333 0.0333333 0.0333333 0.0333333 0.0333333 0.0333333 0.0333333 0.0333333;
   (4, 15) 0.0322581 0.0322581 0.0322581 0.0645161 0.0322581 0.0322581 0.0322581 0.0322581 0.0322581 0.0322581 0.0322581 0.0322581 0.0322581 0.0322581 0.0322581 0.0322581 0.0322581 0.0322581 0.0322581 0.0322581 0.0322581 0.0322581 0.0322581 0.0322581 0.0322581 0.0322581 0.0322581 0.0322581 0.0322581 0.0322581;
   (5, 15) 0.0322581 0.0322581 0.0322581 0.0645161 0.0322581 0.0322581 0.0322581 0.0322581 0.0322581 0.0322581 0.0322581 0.0322581 0.0322581 0.0322581 0.0322581 0.0322581 0.0322581 0.0322581 0.0322581 0.0322581 0.0322581 0.0322581 0.0322581 0.0322581 0.0322581 0.0322581 0.0322581 0.0322581 0.0322581 0.0322581;
   (6, 15) 0.0322581 0.0322581 0.0322581 0.0322581 0.0322581 0.0645161 0.0322581 0.0322581 0.0322581 0.0322581 0.0322581 0.0322581 0.0322581 0.0322581 0.0322581 0.0322581 0.0322581 0.0322581 0.0322581 0.0322581 0.0322581 0.0322581 0.0322581 0.0322581 0.0322581 0.0322581 0.0322581 0.0322581 0.0322581 0.0322581;
   (7, 15) 0.0333333 0.0333333 0.0333333 0.0333333 0.0333333 0.0333333 0.0333333 0.0333333 0.0333333 0.0333333 0.0333333 0.0333333 0.0333333 0.0333333 0.0333333 0.0333333 0.0333333 0.0333333 0.0333333 0.0333333 0.0333333 0.0333333 0.0333333 0.0333333 0.0333333 0.0333333 0.0333333 0.0333333 0.0333333 0.0333333;
   (8, 15) 0.030303 0.030303 0.030303 0.030303 0.030303 0.030303 0.030303 0.121212 0.030303 0.030303 0.030303 0.030303 0.030303 0.030303 0.030303 0.030303 0.030303 0.030303 0.030303 0.030303 0.030303 0.030303 0.030303 0.030303 0.030303 0.030303 0.030303 0.030303 0.030303 0.030303;
   (9, 15) 0.03125 0.03125 0.03125 0.03125 0.03125 0.03125 0.0625 0.0625 0.03125 0.03125 0.03125 0.03125 0.03125 0.03125 0.03125 0.03125 0.03125 0.03125 0.03125 0.03125 0.03125 0.03125 0.03125 0.03125 0.03125 0.03125 0.03125 0.03125 0.03125 0.03125;
   (10, 15) 0.03125 0.03125 0.03125 0.03125 0.03125 0.03125 0.03125 0.03125 0.0625 0.0625 0.03125 0.03125 0.03125 0.03125 0.03125 0.03125 0.03125 0.03125 0.03125 0.03125 0.03125 0.03125 0.03125 0.03125 0.03125 0.03125 0.03125 0.03125 0.03125 0.03125;
   (11, 15) 0.0322581 0.0322581 0.0322581 0.0322581 0.0322581 0.0322581 0.0322581 0.0322581 0.0322581 0.0322581 0.0322581 0.0645161 0.0322581 0.0322581 0.0322581 0.0322581 0.0322581 0.0322581 0.0322581 0.0322581 0.0322581 0.0322581 0.0322581 0.0322581 0.0322581 0.0322581 0.0322581 0.0322581 0.0322581 0.0322581;
   (12, 15) 0.0322581 0.0322581 0.0322581 0.0322581 0.0322581 0.0322581 0.0322581 0.0322581 0.0322581 0.0322581 0.0322581 0.0322581 0.0322581 0.0645161 0.0322581 0.0322581 0.0322581 0.0322581 0.0322581 0.0322581 0.0322581 0.0322581 0.0322581 0.0322581 0.0322581 0.0322581 0.0322581 0.0322581 0.0322581 0.0322581;
   (13, 15) 0.03125 0.03125 0.03125 0.03125 0.03125 0.03125 0.03125 0.03125 0.03125 0.03125 0.03125 0.0625 0.0625 0.03125 0.03125 0.03125 0.03125 0.03125 0.03125 0.03125 0.03125 0.03125 0.03125 0.03125 0.03125 0.03125 0.03125 0.03125 0.03125 0.03125;
   (14, 15) 0.0322581 0.0322581 0.0322581 0.0322581 0.0322581 0.0322581 0.0322581 0.0322581 0.0322581 0.0322581 0.0322581 0.0322581 0.0322581 0.0645161 0.0322581 0.0322581 0.0322581 0.0322581 0.0322581 0.0322581 0.0322581 0.0322581 0.0322581 0.0322581 0.0322581 0.0322581 0.0322581 0.0322581 0.0322581 0.0322581;
   (15, 15) 0.0322581 0.0322581 0.0322581 0.0322581 0.0322581 0.0322581 0.0322581 0.0322581 0.0322581 0.0322581 0.0322581 0.0322581 0.0322581 0.0322581 0.0645161 0.0322581 0.0322581 0.0322581 0.0322581 0.0322581 0.0322581 0.0322581 0.0322581 0.0322581 0.0322581 0.0322581 0.0322581 0.0322581 0.0322581 0.0322581;
   (16, 15) 0.0333333 0.0333333 0.0333333 0.0333333 0.0333333 0.0333333 0.0333333 0.0333333 0.0333333 0.0333333 0.0333333 0.0333333 0.0333333 0.0333333 0.0333333 0.0333333 0.0333333 0.0333333 0.0333333 0.0333333 0.0333333 0.0333333 0.0333333 0.0333333 0.0333333 0.0333333 0.0333333 0.0333333 0.0333333 0.0333333;
   (17, 15) 0.0333333 0.0333333 0.0333333 0.0333333 0.0333333 0.0333333 0.0333333 0.0333333 0.0333333 0.0333333 0.0333333 0.0333333 0.0333333 0.0333333 0.0333333 0.0333333 0.0333333 0.0333333 0.0333333 0.0333333 0.0333333 0.0333333 0.0333333 0.0333333 0.0333333 0.0333333 0.0333333 0.0333333 0.0333333 0.0333333;
   (4, 16) 0.0333333 0.0333333 0.0333333 0.0333333 0.0333333 0.0333333 0.0333333 0.0333333 0.0333333 0.0333333 0.0333333 0.0333333 0.0333333 0.0333333 0.0333333 0.0333333 0.0333333 0.0333333 0.0333333 0.0333333 0.0333333 0.0333333 0.0333333 0.0333333 0.0333333 0.0333333 0.0333333 0.0333333 0.0333333 0.0333333;
   (5, 16) 0.0322581 0.0322581 0.0322581 0.0322581 0.0322581 0.0645161 0.0322581 0.0322581 0.0322581 0.0322581 0.0322581 0.0322581 0.0322581 0.0322581 0.0322581 0.0322581 0.0322581 0.0322581 0.0322581 0.0322581 0.0322581 0.0322581 0.0322581 0.0322581 0.0322581 0.0322581 0.0322581 0.0322581 0.0322581 0.0322581;
   (6, 16) 0.03125 0.03125 0.03125 0.03125 0.03125 0.03125 0.0625 0.0625 0.03125 0.03125 0.03125 0.03125 0.03125 0.03125 0.03125 0.03125 0.03125 0.03125 0.03125 0.03125 0.03125 0.03125 0.03125 0.03125 0.03125 0.03125 0.03125 0.03125 0.03125 0.03125;
   (7, 16) 0.0333333 0.0333333 0.0333333 0.0333333 0.0333333 0.0333333 0.0333333 0.0333333 0.0333333 0.0333333 0.0333333 0.0333333 0.0333333 0.0333333 0.0333333 0.0333333 0.0333333 0.0333333 0.0333333 0.0333333 0.0333333 0.0333333 0.0333333 0.0333333 0.0333333 0.0333333 0.0333333 0.0333333 0.0333333 0.0333333;
   (8, 16) 0.03125 0.03125 0.03125 0.03125 0.03125 0.03125 0.03125 0.03125 0.09375 0.03125 0.03125 0.03125 0.03125 0.03125 0.03125 0.03125 0.03125 0.03125 0.03125 0.03125 0.03125 0.03125 0.03125 0.03125 0.03125 0.03125 0.03125 0.03125 0.03125 0.03125;
   (9, 16) 0.0285714 0.0285714 0.0285714 0.0285714 0.0285714 0.0285714 0.0285714 0.0285714 0.0571429 0.114286 0.0571429 0.0285714 0.0285714 0.0285714 0.0285714 0.0285714 0.0285714 0.0285714 0.0285714 0.0285714 0.0285714 0.0285714 0.0285714 0.0285714 0.0285714 0.0285714 0.0285714 0.0285714 0.0285714 0.0285714;
   (10, 16) 0.0294118 0.0294118 0.0294118 0.0294118 0.0294118 0.0294118 0.0294118 0.0294118 0.0294118 0.0588235 0.0588235 0.0588235 0.0588235 0.0294118 0.0294118 0.0294118 0.0294118 0.0294118 0.0294118 0.0294118 0.0294118 0.0294118 0.0294118 0.0294118 0.0294118 0.0294118 0.0294118 0.0294118 0.0294118 0.0294118;
   (11, 16) 0.03125 0.03125 0.03125 0.03125 0.03125 0.03125 0.03125 0.03125 0.03125 0.03125 0.09375 0.03125 0.03125 0.03125 0.03125 0.03125 0.03125 0.03125 0.03125 0.03125 0.03125 0.03125 0.03125 0.03125 0.03125 0.03125 0.03125 0.03125 0.03125 0.03125;
   (12, 16) 0.0333333 0.0333333 0.0333333 0.0333333 0.0333333 0.0333333 0.0333333 0.0333333 0.0333333 0.0333333 0.0333333 0.0333333 0.0333333 0.0333333 0.0333333 0.0333333 0.0333333 0.0333333 0.0333333 0.0333333 0.0333333 0.0333333 0.0333333 0.0333333 0.0333333 0.0333333 0.0333333 0.0333333 0.0333333 0.0333333;
   (13, 16) 0.0333333 0.0333333 0.0333333 0.0333333 0.0333333 0.0333333 0.0333333 0.0333333 0.0333333 0.0333333 0.0333333 0.0333333 0.0333333 0.0333333 0.0333333 0.0333333 0.0333333 0.0333333 0.0333333 0.0333333 0.0333333 0.0333333 0.0333333 0.0333333 0.0333333 0.0333333 0.0333333 0.0333333 0.0333333 0.0333333;
   (14, 16) 0.0322581 0.0322581 0.0322581 0.0322581 0.0322581 0.0322581 0.0322581 0.0322581 0.0322581 0.0322581 0.0322581 0.0322581 0.0322581 0.0645161 0.0322581 0.0322581 0.0322581 0.0322581 0.0322581 0.0322581 0.0322581 0.0322581 0.0322581 0.0322581 0.0322581 0.0322581 0.0322581 0.0322581 0.0322581 0.0322581;
   (15, 16) 0.0333333 0.0333333 0.0333333 0.0333333 0.0333333 0.0333333 0.0333333 0.0333333 0.0333333 0.0333333 0.0333333 0.0333333 0.0333333 0.0333333 0.0333333 0.0333333 0.0333333 0.0333333 0.0333333 0.0333333 0.0333333 0.0333333 0.0333333 0.0333333 0.0333333 0.0333333 0.0333333 0.0333333 0.0333333 0.0333333;
   (16, 16) 0.0333333 0.0333333 0.0333333 0.0333333 0.0333333 0.0333333 0.0333333 0.0333333 0.0333333 0.0333333 0.0333333 0.0333333 0.0333333 0.0333333 0.0333333 0.0333333 0.0333333 0.0333333 0.0333333 0.0333333 0.0333333 0.0333333 0.0333333 0.0333333 0.0333333 0.0333333 0.0333333 0.0333333 0.0333333 0.0333333;
   (17, 16) 0.0333333 0.0333333 0.0333333 0.0333333 0.0333333 0.0333333 0.0333333 0.0333333 0.0333333 0.0333333 0.0333333 0.0333333 0.0333333 0.0333333 0.0333333 0.0333333 0.0333333 0.0333333 0.0333333 0.0333333 0.0333333 0.0333333 0.0333333 0.0333333 0.0333333 0.0333333 0.0333333 0.0333333 0.0333333 0.0333333;
   (4, 17) 0.0333333 0.0333333 0.0333333 0.0333333 0.0333333 0.0333333 0.0333333 0.0333333 0.0333333 0.0333333 0.0333333 0.0333333 0.0333333 0.0333333 0.0333333 0.0333333 0.0333333 0.0333333 0.0333333 0.0333333 0.0333333 0.0333333 0.0333333 0.0333333 0.0333333 0.0333333 0.0333333 0.0333333 0.0333333 0.0333333;
   (5, 17) 0.0322581 0.0322581 0.0322581 0.0322581 0.0322581 0.0322581 0.0645161 0.0322581 0.0322581 0.0322581 0.0322581 0.0322581 0.0322581 0.0322581 0.0322581 0.0322581 0.0322581 0.0322581 0.0322581 0.0322581 0.0322581 0.0322581 0.0322581 0.0322581 0.0322581 0.0322581 0.0322581 0.0322581 0.0322581 0.0322581;
   (6, 17) 0.0333333 0.0333333 0.0333333 0.0333333 0.0333333 0.0333333 0.0333333 0.0333333 0.0333333 0.0333333 0.0333333 0.0333333 0.0333333 0.0333333 0.0333333 0.0333333 0.0333333 0.0333333 0.0333333 0.0333333 0.0333333 0.0333333 0.0333333 0.0333333 0.0333333 0.0333333 0.0333333 0.0333333 0.0333333 0.0333333;
   (7, 17) 0.0322581 0.0322581 0.0322581 0.0322581 0.0322581 0.0322581 0.0322581 0.0645161 0.0322581 0.0322581 0.0322581 0.0322581 0.0322581 0.0322581 0.0322581 0.0322581 0.0322581 0.0322581 0.0322581 0.0322581 0.0322581 0.0322581 0.0322581 0.0322581 0.0322581 0.0322581 0.0322581 0.0322581 0.0322581 0.0322581;
   (8, 17) 0.030303 0.030303 0.030303 0.030303 0.030303 0.030303 0.030303 0.030303 0.030303 0.0909091 0.0606061 0.030303 0.030303 0.030303 0.030303 0.030303 0.030303 0.030303 0.030303 0.030303 0.030303 0.030303 0.030303 0.030303 0.030303 0.030303 0.030303 0.030303 0.030303 0.030303;
   (9, 17) 0.0322581 0.0322581 0.0322581 0.0322581 0.0322581 0.0322581 0.0322581 0.0322581 0.0322581 0.0645161 0.0322581 0.0322581 0.0322581 0.0322581 0.0322581 0.0322581 0.0322581 0.0322581 0.0322581 0.0322581 0.0322581 0.0322581 0.0322581 0.0322581 0.0322581 0.0322581 0.0322581 0.0322581 0.0322581 0.0322581;
   (10, 17) 0.030303 0.030303 0.030303 0.030303 0.030303 0.030303 0.030303 0.030303 0.030303 0.030303 0.030303 0.0606061 0.0909091 0.030303 0.030303 0.030303 0.030303 0.030303 0.030303 0.030303 0.030303 0.030303 0.030303 0.030303 0.030303 0.030303 0.030303 0.030303 0.030303 0.030303;
   (11, 17) 0.0322581 0.0322581 0.0322581 0.0322581 0.0322581 0.0322581 0.0322581 0.0322581 0.0322581 0.0322581 0.0322581 0.0645161 0.0322581 0.0322581 0.0322581 0.0322581 0.0322581 0.0322581 0.0322581 0.0322581 0.0322581 0.0322581 0.0322581 0.0322581 0.0322581 0.0322581 0.0322581 0.0322581 0.0322581 0.0322581;
   (12, 17) 0.0322581 0.0322581 0.0322581 0.0322581 0.0322581 0.0322581 0.0322581 0.0322581 0.0322581 0.0322581 0.0322581 0.0322581 0.0645161 0.0322581 0.0322581 0.0322581 0.0322581 0.0322581 0.0322581 0.0322581 0.0322581 0.0322581 0.0322581 0.0322581 0.0322581 0.0322581 0.0322581 0.0322581 0.0322581 0.0322581;
   (13, 17) 0.0333333 0.0333333 0.0333333 0.0333333 0.0333333 0.0333333 0.0333333 0.0333333 0.0333333 0.0333333 0.0333333 0.0333333 0.0333333 0.0333333 0.0333333 0.0333333 0.0333333 0.0333333 0.0333333 0.0333333 0.0333333 0.0333333 0.0333333 0.0333333 0.0333333 0.0333333 0.0333333 0.0333333 0.0333333 0.0333333;
   (14, 17) 0.03125 0.03125 0.03125 0.03125 0.03125 0.03125 0.03125 0.03125 0.03125 0.03125 0.03125 0.03125 0.03125 0.03125 0.03125 0.03125 0.0625 0.03125 0.0625 0.03125 0.03125 0.03125 0.03125 0.03125 0.03125 0.03125 0.03125 0.03125 0.03125 0.03125;
   (15, 17) 0.0333333 0.0333333 0.0333333 0.0333333 0.0333333 0.0333333 0.0333333 0.0333333 0.0333333 0.0333333 0.0333333 0.0333333 0.0333333 0.0333333 0.0333333 0.0333333 0.0333333 0.0333333 0.0333333 0.0333333 0.0333333 0.0333333 0.0333333 0.0333333 0.0333333 0.0333333 0.0333333 0.0333333 0.0333333 0.0333333;
   (16, 17) 0.0333333 0.0333333 0.0333333 0.0333333 0.0333333 0.0333333 0.0333333 0.0333333 0.0333333 0.0333333 0.0333333 0.0333333 0.0333333 0.0333333 0.0333333 0.0333333 0.0333333 0.0333333 0.0333333 0.0333333 0.0333333 0.0333333 0.0333333 0.0333333 0.0333333 0.0333333 0.0333333 0.0333333 0.0333333 0.0333333;
   (17, 17) 0.0322581 0.0322581 0.0322581 0.0322581 0.0322581 0.0322581 0.0322581 0.0322581 0.0322581 0.0322581 0.0322581 0.0322581 0.0322581 0.0322581 0.0322581 0.0322581 0.0322581 0.0645161 0.0322581 0.0322581 0.0322581 0.0322581 0.0322581 0.0322581 0.0322581 0.0322581 0.0322581 0.0322581 0.0322581 0.0322581;
   (4, 18) 0.0333333 0.0333333 0.0333333 0.0333333 0.0333333 0.0333333 0.0333333 0.0333333 0.0333333 0.0333333 0.0333333 0.0333333 0.0333333 0.0333333 0.0333333 0.0333333 0.0333333 0.0333333 0.0333333 0.0333333 0.0333333 0.0333333 0.0333333 0.0333333 0.0333333 0.0333333 0.0333333 0.0333333 0.0333333 0.0333333;
   (5, 18) 0.0333333 0.0333333 0.0333333 0.0333333 0.0333333 0.0333333 0.0333333 0.0333333 0.0333333 0.0333333 0.0333333 0.0333333 0.0333333 0.0333333 0.0333333 0.0333333 0.0333333 0.0333333 0.0333333 0.0333333 0.0333333 0.0333333 0.0333333 0.0333333 0.0333333 0.0333333 0.0333333 0.0333333 0.0333333 0.0333333;
   (6, 18) 0.03125 0.03125 0.03125 0.03125 0.03125 0.03125 0.03125 0.03125 0.09375 0.03125 0.03125 0.03125 0.03125 0.03125 0.03125 0.03125 0.03125 0.03125 0.03125 0.03125 0.03125 0.03125 0.03125 0.03125 0.03125 0.03125 0.03125 0.03125 0.03125 0.03125;
   (7, 18) 0.0322581 0.0322581 0.0322581 0.0322581 0.0322581 0.0322581 0.0322581 0.0322581 0.0322581 0.0645161 0.0322581 0.0322581 0.0322581 0.0322581 0.0322581 0.0322581 0.0322581 0.0322581 0.0322581 0.0322581 0.0322581 0.0322581 0.0322581 0.0322581 0.0322581 0.0322581 0.0322581 0.0322581 0.0322581 0.0322581;
   (8, 18) 0.0333333 0.0333333 0.0333333 0.0333333 0.0333333 0.0333333 0.0333333 0.0333333 0.0333333 0.0333333 0.0333333 0.0333333 0.0333333 0.0333333 0.0333333 0.0333333 0.0333333 0.0333333 0.0333333 0.0333333 0.0333333 0.0333333 0.0333333 0.0333333 0.0333333 0.0333333 0.0333333 0.0333333 0.0333333 0.0333333;
   (9, 18) 0.0333333 0.0333333 0.0333333 0.0333333 0.0333333 0.0333333 0.0333333 0.0333333 0.0333333 0.0333333 0.0333333 0.0333333 0.0333333 0.0333333 0.0333333 0.0333333 0.0333333 0.0333333 0.0333333 0.0333333 0.0333333 0.0333333 0.0333333 0.0333333 0.0333333 0.0333333 0.0333333 0.0333333 0.0333333 0.0333333;
   (10, 18) 0.0322581 0.0322581 0.0322581 0.0322581 0.0322581 0.0322581 0.0322581 0.0322581 0.0322581 0.0322581 0.0322581 0.0322581 0.0645161 0.0322581 0.0322581 0.0322581 0.0322581 0.0322581 0.0322581 0.0322581 0.0322581 0.0322581 0.0322581 0.0322581 0.0322581 0.0322581 0.0322581 0.0322581 0.0322581 0.0322581;
   (11, 18) 0.0333333 0.0333333 0.0333333 0.0333333 0.0333333 0.0333333 0.0333333 0.0333333 0.0333333 0.0333333 0.0333333 0.0333333 0.0333333 0.0333333 0.0333333 0.0333333 0.0333333 0.0333333 0.0333333 0.0333333 0.0333333 0.0333333 0.0333333 0.0333333 0.0333333 0.0333333 0.0333333 0.0333333 0.0333333 0.0333333;
   (12, 18) 0.0333333 0.0333333 0.0333333 0.0333333 0.0333333 0.0333333 0.0333333 0.0333333 0.0333333 0.0333333 0.0333333 0.0333333 0.0333333 0.0333333 0.0333333 0.0333333 0.0333333 0.0333333 0.0333333 0.0333333 0.0333333 0.0333333 0.0333333 0.0333333 0.0333333 0.0333333 0.0333333 0.0333333 0.0333333 0.0333333;
   (13, 18) 0.0333333 0.0333333 0.0333333 0.0333333 0.0333333 0.0333333 0.0333333 0.0333333 0.0333333 0.0333333 0.0333333 0.0333333 0.0333333 0.0333333 0.0333333 0.0333333 0.0333333 0.0333333 0.0333333 0.0333333 0.0333333 0.0333333 0.0333333 0.0333333 0.0333333 0.0333333 0.0333333 0.0333333 0.0333333 0.0333333;
   (14, 18) 0.0322581 0.0322581 0.0322581 0.0322581 0.0322581 0.0322581 0.0322581 0.0322581 0.0322581 0.0322581 0.0322581 0.0322581 0.0322581 0.0322581 0.0322581 0.0645161 0.0322581 0.0322581 0.0322581 0.0322581 0.0322581 0.0322581 0.0322581 0.0322581 0.0322581 0.0322581 0.0322581 0.0322581 0.0322581 0.0322581;
   (15, 18) 0.0333333 0.0333333 0.0333333 0.0333333 0.0333333 0.0333333 0.0333333 0.0333333 0.0333333 0.0333333 0.0333333 0.0333333 0.0333333 0.0333333 0.0333333 0.0333333 0.0333333 0.0333333 0.0333333 0.0333333 0.0333333 0.0333333 0.0333333 0.0333333 0.0333333 0.0333333 0.0333333 0.0333333 0.0333333 0.0333333;
   (16, 18) 0.0333333 0.0333333 0.0333333 0.0333333 0.0333333 0.0333333 0.0333333 0.0333333 0.0333333 0.0333333 0.0333333 0.0333333 0.0333333 0.0333333 0.0333333 0.0333333 0.0333333 0.0333333 0.0333333 0.0333333 0.0333333 0.0333333 0.0333333 0.0333333 0.0333333 0.0333333 0.0333333 0.0333333 0.0333333 0.0333333;
   (17, 18) 0.0333333 0.0333333 0.0333333 0.0333333 0.0333333 0.0333333 0.0333333 0.0333333 0.0333333 0.0333333 0.0333333 0.0333333 0.0333333 0.0333333 0.0333333 0.0333333 0.0333333 0.0333333 0.0333333 0.0333333 0.0333333 0.0333333 0.0333333 0.0333333 0.0333333 0.0333333 0.0333333 0.0333333 0.0333333 0.0333333;
   (4, 19) 0.0333333 0.0333333 0.0333333 0.0333333 0.0333333 0.0333333 0.0333333 0.0333333 0.0333333 0.0333333 0.0333333 0.0333333 0.0333333 0.0333333 0.0333333 0.0333333 0.0333333 0.0333333 0.0333333 0.0333333 0.0333333 0.0333333 0.0333333 0.0333333 0.0333333 0.0333333 0.0333333 0.0333333 0.0333333 0.0333333;
   (5, 19) 0.0333333 0.0333333 0.0333333 0.0333333 0.0333333 0.0333333 0.0333333 0.0333333 0.0333333 0.0333333 0.0333333 0.0333333 0.0333333 0.0333333 0.0333333 0.0333333 0.0333333 0.0333333 0.0333333 0.0333333 0.0333333 0.0333333 0.0333333 0.0333333 0.0333333 0.0333333 0.0333333 0.0333333 0.0333333 0.0333333;
   (6, 19) 0.0333333 0.0333333 0.0333333 0.0333333 0.0333333 0.0333333 0.0333333 0.0333333 0.0333333 0.0333333 0.0333333 0.0333333 0.0333333 0.0333333 0.0333333 0.0333333 0.0333333 0.0333333 0.0333333 0.0333333 0.0333333 0.0333333 0.0333333 0.0333333 0.0333333 0.0333333 0.0333333 0.0333333 0.0333333 0.0333333;
   (7, 19) 0.0322581 0.0322581 0.0322581 0.0322581 0.0322581 0.0322581 0.0322581 0.0322581 0.0322581 0.0645161 0.0322581 0.0322581 0.0322581 0.0322581 0.0322581 0.0322581 0.0322581 0.0322581 0.0322581 0.0322581 0.0322581 0.0322581 0.0322581 0.0322581 0.0322581 0.0322581 0.0322581 0.0322581 0.0322581 0.0322581;
   (8, 19) 0.0333333 0.0333333 0.0333333 0.0333333 0.0333333 0.0333333 0.0333333 0.0333333 0.0333333 0.0333333 0.0333333 0.0333333 0.0333333 0.0333333 0.0333333 0.0333333 0.0333333 0.0333333 0.0333333 0.0333333 0.0333333 0.0333333 0.0333333 0.0333333 0.0333333 0.0333333 0.0333333 0.0333333 0.0333333 0.0333333;
   (9, 19) 0.0322581 0.0322581 0.0322581 0.0322581 0.0322581 0.0322581 0.0322581 0.0322581 0.0322581 0.0322581 0.0322581 0.0322581 0.0322581 0.0645161 0.0322581 0.0322581 0.0322581 0.0322581 0.0322581 0.0322581 0.0322581 0.0322581 0.0322581 0.0322581 0.0322581 0.0322581 0.0322581 0.0322581 0.0322581 0.0322581;
   (10, 19) 0.0333333 0.0333333 0.0333333 0.0333333 0.0333333 0.0333333 0.0333333 0.0333333 0.0333333 0.0333333 0.0333333 0.0333333 0.0333333 0.0333333 0.0333333 0.0333333 0.0333333 0.0333333 0.0333333 0.0333333 0.0333333 0.0333333 0.0333333 0.0333333 0.0333333 0.0333333 0.0333333 0.0333333 0.0333333 0.0333333;
   (11, 19) 0.0322581 0.0322581 0.0322581 0.0322581 0.0322581 0.0322581 0.0322581 0.0322581 0.0322581 0.0322581 0.0322581 0.0322581 0.0322581 0.0322581 0.0645161 0.0322581 0.0322581 0.0322581 0.0322581 0.0322581 0.0322581 0.0322581 0.0322581 0.0322581 0.0322581 0.0322581 0.0322581 0.0322581 0.0322581 0.0322581;
   (12, 19) 0.0333333 0.0333333 0.0333333 0.0333333 0.0333333 0.0333333 0.0333333 0.0333333 0.0333333 0.0333333 0.0333333 0.0333333 0.0333333 0.0333333 0.0333333 0.0333333 0.0333333 0.0333333 0.0333333 0.0333333 0.0333333 0.0333333 0.0333333 0.0333333 0.0333333 0.0333333 0.0333333 0.0333333 0.0333333 0.0333333;
   (13, 19) 0.0322581 0.0322581 0.0322581 0.0322581 0.0322581 0.0322581 0.0322581 0.0322581 0.0322581 0.0322581 0.0322581 0.0645161 0.0322581 0.0322581 0.0322581 0.0322581 0.0322581 0.0322581 0.0322581 0.0322581 0.0322581 0.0322581 0.0322581 0.0322581 0.0322581 0.0322581 0.0322581 0.0322581 0.0322581 0.0322581;
   (14, 19) 0.0333333 0.0333333 0.0333333 0.0333333 0.0333333 0.0333333 0.0333333 0.0333333 0.0333333 0.0333333 0.0333333 0.0333333 0.0333333 0.0333333 0.0333333 0.0333333 0.0333333 0.0333333 0.0333333 0.0333333 0.0333333 0.0333333 0.0333333 0.0333333 0.0333333 0.0333333 0.0333333 0.0333333 0.0333333 0.0333333;
   (15, 19) 0.0333333 0.0333333 0.0333333 0.0333333 0.0333333 0.0333333 0.0333333 0.0333333 0.0333333 0.0333333 0.0333333 0.0333333 0.0333333 0.0333333 0.0333333 0.0333333 0.0333333 0.0333333 0.0333333 0.0333333 0.0333333 0.0333333 0.0333333 0.0333333 0.0333333 0.0333333 0.0333333 0.0333333 0.0333333 0.0333333;
   (16, 19) 0.0333333 0.0333333 0.0333333 0.0333333 0.0333333 0.0333333 0.0333333 0.0333333 0.0333333 0.0333333 0.0333333 0.0333333 0.0333333 0.0333333 0.0333333 0.0333333 0.0333333 0.0333333 0.0333333 0.0333333 0.0333333 0.0333333 0.0333333 0.0333333 0.0333333 0.0333333 0.0333333 0.0333333 0.0333333 0.0333333;
   (17, 19) 0.0333333 0.0333333 0.0333333 0.0333333 0.0333333 0.0333333 0.0333333 0.0333333 0.0333333 0.0333333 0.0333333 0.0333333 0.0333333 0.0333333 0.0333333 0.0333333 0.0333333 0.0333333 0.0333333 0.0333333 0.0333333 0.0333333 0.0333333 0.0333333 0.0333333 0.0333333 0.0333333 0.0333333 0.0333333 0.0333333;
   (4, 20) 0.0333333 0.0333333 0.0333333 0.0333333 0.0333333 0.0333333 0.0333333 0.0333333 0.0333333 0.0333333 0.0333333 0.0333333 0.0333333 0.0333333 0.0333333 0.0333333 0.0333333 0.0333333 0.0333333 0.0333333 0.0333333 0.0333333 0.0333333 0.0333333 0.0333333 0.0333333 0.0333333 0.0333333 0.0333333 0.0333333;
   (5, 20) 0.0333333 0.0333333 0.0333333 0.0333333 0.0333333 0.0333333 0.0333333 0.0333333 0.0333333 0.0333333 0.0333333 0.0333333 0.0333333 0.0333333 0.0333333 0.0333333 0.0333333 0.0333333 0.0333333 0.0333333 0.0333333 0.0333333 0.0333333 0.0333333 0.0333333 0.0333333 0.0333333 0.0333333 0.0333333 0.0333333;
   (6, 20) 0.0333333 0.0333333 0.0333333 0.0333333 0.0333333 0.0333333 0.0333333 0.0333333 0.0333333 0.0333333 0.0333333 0.0333333 0.0333333 0.0333333 0.0333333 0.0333333 0.0333333 0.0333333 0.0333333 0.0333333 0.0333333 0.0333333 0.0333333 0.0333333 0.0333333 0.0333333 0.0333333 0.0333333 0.0333333 0.0333333;
   (7, 20) 0.0333333 0.0333333 0.0333333 0.0333333 0.0333333 0.0333333 0.0333333 0.0333333 0.0333333 0.0333333 0.0333333 0.0333333 0.0333333 0.0333333 0.0333333 0.0333333 0.0333333 0.0333333 0.0333333 0.0333333 0.0333333 0.0333333 0.0333333 0.0333333 0.0333333 0.0333333 0.0333333 0.0333333 0.0333333 0.0333333;
   (8, 20) 0.0333333 0.0333333 0.0333333 0.0333333 0.0333333 0.0333333 0.0333333 0.0333333 0.0333333 0.0333333 0.0333333 0.0333333 0.0333333 0.0333333 0.0333333 0.0333333 0.0333333 0.0333333 0.0333333 0.0333333 0.0333333 0.0333333 0.0333333 0.0333333 0.0333333 0.0333333 0.0333333 0.0333333 0.0333333 0.0333333;
   (9, 20) 0.0333333 0.0333333 0.0333333 0.0333333 0.0333333 0.0333333 0.0333333 0.0333333 0.0333333 0.0333333 0.0333333 0.0333333 0.0333333 0.0333333 0.0333333 0.0333333 0.0333333 0.0333333 0.0333333 0.0333333 0.0333333 0.0333333 0.0333333 0.0333333 0.0333333 0.0333333 0.0333333 0.0333333 0.0333333 0.0333333;
   (10, 20) 0.0322581 0.0322581 0.0322581 0.0322581 0.0322581 0.0322581 0.0322581 0.0322581 0.0322581 0.0322581 0.0322581 0.0322581 0.0322581 0.0322581 0.0645161 0.0322581 0.0322581 0.0322581 0.0322581 0.0322581 0.0322581 0.0322581 0.0322581 0.0322581 0.0322581 0.0322581 0.0322581 0.0322581 0.0322581 0.0322581;
   (11, 20) 0.0333333 0.0333333 0.0333333 0.0333333 0.0333333 0.0333333 0.0333333 0.0333333 0.0333333 0.0333333 0.0333333 0.0333333 0.0333333 0.0333333 0.0333333 0.0333333 0.0333333 0.0333333 0.0333333 0.0333333 0.0333333 0.0333333 0.0333333 0.0333333 0.0333333 0.0333333 0.0333333 0.0333333 0.0333333 0.0333333;
   (12, 20) 0.0333333 0.0333333 0.0333333 0.0333333 0.0333333 0.0333333 0.0333333 0.0333333 0.0333333 0.0333333 0.0333333 0.0333333 0.0333333 0.0333333 0.0333333 0.0333333 0.0333333 0.0333333 0.0333333 0.0333333 0.0333333 0.0333333 0.0333333 0.0333333 0.0333333 0.0333333 0.0333333 0.0333333 0.0333333 0.0333333;
   (13, 20) 0.0333333 0.0333333 0.0333333 0.0333333 0.0333333 0.0333333 0.0333333 0.0333333 0.0333333 0.0333333 0.0333333 0.0333333 0.0333333 0.0333333 0.0333333 0.0333333 0.0333333 0.0333333 0.0333333 0.0333333 0.0333333 0.0333333 0.0333333 0.0333333 0.0333333 0.0333333 0.0333333 0.0333333 0.0333333 0.0333333;
   (14, 20) 0.0333333 0.0333333 0.0333333 0.0333333 0.0333333 0.0333333 0.0333333 0.0333333 0.0333333 0.0333333 0.0333333 0.0333333 0.0333333 0.0333333 0.0333333 0.0333333 0.0333333 0.0333333 0.0333333 0.0333333 0.0333333 0.0333333 0.0333333 0.0333333 0.0333333 0.0333333 0.0333333 0.0333333 0.0333333 0.0333333;
   (15, 20) 0.0333333 0.0333333 0.0333333 0.0333333 0.0333333 0.0333333 0.0333333 0.0333333 0.0333333 0.0333333 0.0333333 0.0333333 0.0333333 0.0333333 0.0333333 0.0333333 0.0333333 0.0333333 0.0333333 0.0333333 0.0333333 0.0333333 0.0333333 0.0333333 0.0333333 0.0333333 0.0333333 0.0333333 0.0333333 0.0333333;
   (16, 20) 0.0333333 0.0333333 0.0333333 0.0333333 0.0333333 0.0333333 0.0333333 0.0333333 0.0333333 0.0333333 0.0333333 0.0333333 0.0333333 0.0333333 0.0333333 0.0333333 0.0333333 0.0333333 0.0333333 0.0333333 0.0333333 0.0333333 0.0333333 0.0333333 0.0333333 0.0333333 0.0333333 0.0333333 0.0333333 0.0333333;
   (17, 20) 0.0333333 0.0333333 0.0333333 0.0333333 0.0333333 0.0333333 0.0333333 0.0333333 0.0333333 0.0333333 0.0333333 0.0333333 0.0333333 0.0333333 0.0333333 0.0333333 0.0333333 0.0333333 0.0333333 0.0333333 0.0333333 0.0333333 0.0333333 0.0333333 0.0333333 0.0333333 0.0333333 0.0333333 0.0333333 0.0333333;
   (4, 21) 0.0333333 0.0333333 0.0333333 0.0333333 0.0333333 0.0333333 0.0333333 0.0333333 0.0333333 0.0333333 0.0333333 0.0333333 0.0333333 0.0333333 0.0333333 0.0333333 0.0333333 0.0333333 0.0333333 0.0333333 0.0333333 0.0333333 0.0333333 0.0333333 0.0333333 0.0333333 0.0333333 0.0333333 0.0333333 0.0333333;
   (5, 21) 0.0333333 0.0333333 0.0333333 0.0333333 0.0333333 0.0333333 0.0333333 0.0333333 0.0333333 0.0333333 0.0333333 0.0333333 0.0333333 0.0333333 0.0333333 0.0333333 0.0333333 0.0333333 0.0333333 0.0333333 0.0333333 0.0333333 0.0333333 0.0333333 0.0333333 0.0333333 0.0333333 0.0333333 0.0333333 0.0333333;
   (6, 21) 0.0333333 0.0333333 0.0333333 0.0333333 0.0333333 0.0333333 0.0333333 0.0333333 0.0333333 0.0333333 0.0333333 0.0333333 0.0333333 0.0333333 0.0333333 0.0333333 0.0333333 0.0333333 0.0333333 0.0333333 0.0333333 0.0333333 0.0333333 0.0333333 0.0333333 0.0333333 0.0333333 0.0333333 0.0333333 0.0333333;
   (7, 21) 0.0333333 0.0333333 0.0333333 0.0333333 0.0333333 0.0333333 0.0333333 0.0333333 0.0333333 0.0333333 0.0333333 0.0333333 0.0333333 0.0333333 0.0333333 0.0333333 0.0333333 0.0333333 0.0333333 0.0333333 0.0333333 0.0333333 0.0333333 0.0333333 0.0333333 0.0333333 0.0333333 0.0333333 0.0333333 0.0333333;
   (8, 21) 0.0333333 0.0333333 0.0333333 0.0333333 0.0333333 0.0333333 0.0333333 0.0333333 0.0333333 0.0333333 0.0333333 0.0333333 0.0333333 0.0333333 0.0333333 0.0333333 0.0333333 0.0333333 0.0333333 0.0333333 0.0333333 0.0333333 0.0333333 0.0333333 0.0333333 0.0333333 0.0333333 0.0333333 0.0333333 0.0333333;
   (9, 21) 0.0333333 0.0333333 0.0333333 0.0333333 0.0333333 0.0333333 0.0333333 0.0333333 0.0333333 0.0333333 0.0333333 0.0333333 0.0333333 0.0333333 0.0333333 0.0333333 0.0333333 0.0333333 0.0333333 0.0333333 0.0333333 0.0333333 0.0333333 0.0333333 0.0333333 0.0333333 0.0333333 0.0333333 0.0333333 0.0333333;
   (10, 21) 0.0333333 0.0333333 0.0333333 0.0333333 0.0333333 0.0333333 0.0333333 0.0333333 0.0333333 0.0333333 0.0333333 0.0333333 0.0333333 0.0333333 0.0333333 0.0333333 0.0333333 0.0333333 0.0333333 0.0333333 0.0333333 0.0333333 0.0333333 0.0333333 0.0333333 0.0333333 0.0333333 0.0333333 0.0333333 0.0333333;
   (11, 21) 0.0333333 0.0333333 0.0333333 0.0333333 0.0333333 0.0333333 0.0333333 0.0333333 0.0333333 0.0333333 0.0333333 0.0333333 0.0333333 0.0333333 0.0333333 0.0333333 0.0333333 0.0333333 0.0333333 0.0333333 0.0333333 0.0333333 0.0333333 0.0333333 0.0333333 0.0333333 0.0333333 0.0333333 0.0333333 0.0333333;
   (12, 21) 0.0333333 0.0333333 0.0333333 0.0333333 0.0333333 0.0333333 0.0333333 0.0333333 0.0333333 0.0333333 0.0333333 0.0333333 0.0333333 0.0333333 0.0333333 0.0333333 0.0333333 0.0333333 0.0333333 0.0333333 0.0333333 0.0333333 0.0333333 0.0333333 0.0333333 0.0333333 0.0333333 0.0333333 0.0333333 0.0333333;
   (13, 21) 0.0333333 0.0333333 0.0333333 0.0333333 0.0333333 0.0333333 0.0333333 0.0333333 0.0333333 0.0333333 0.0333333 0.0333333 0.0333333 0.0333333 0.0333333 0.0333333 0.0333333 0.0333333 0.0333333 0.0333333 0.0333333 0.0333333 0.0333333 0.0333333 0.0333333 0.0333333 0.0333333 0.0333333 0.0333333 0.0333333;
   (14, 21) 0.0333333 0.0333333 0.0333333 0.0333333 0.0333333 0.0333333 0.0333333 0.0333333 0.0333333 0.0333333 0.0333333 0.0333333 0.0333333 0.0333333 0.0333333 0.0333333 0.0333333 0.0333333 0.0333333 0.0333333 0.0333333 0.0333333 0.0333333 0.0333333 0.0333333 0.0333333 0.0333333 0.0333333 0.0333333 0.0333333;
   (15, 21) 0.0333333 0.0333333 0.0333333 0.0333333 0.0333333 0.0333333 0.0333333 0.0333333 0.0333333 0.0333333 0.0333333 0.0333333 0.0333333 0.0333333 0.0333333 0.0333333 0.0333333 0.0333333 0.0333333 0.0333333 0.0333333 0.0333333 0.0333333 0.0333333 0.0333333 0.0333333 0.0333333 0.0333333 0.0333333 0.0333333;
   (16, 21) 0.0333333 0.0333333 0.0333333 0.0333333 0.0333333 0.0333333 0.0333333 0.0333333 0.0333333 0.0333333 0.0333333 0.0333333 0.0333333 0.0333333 0.0333333 0.0333333 0.0333333 0.0333333 0.0333333 0.0333333 0.0333333 0.0333333 0.0333333 0.0333333 0.0333333 0.0333333 0.0333333 0.0333333 0.0333333 0.0333333;
   (17, 21) 0.0333333 0.0333333 0.0333333 0.0333333 0.0333333 0.0333333 0.0333333 0.0333333 0.0333333 0.0333333 0.0333333 0.0333333 0.0333333 0.0333333 0.0333333 0.0333333 0.0333333 0.0333333 0.0333333 0.0333333 0.0333333 0.0333333 0.0333333 0.0333333 0.0333333 0.0333333 0.0333333 0.0333333 0.0333333 0.0333333;
   (4, 22) 0.0333333 0.0333333 0.0333333 0.0333333 0.0333333 0.0333333 0.0333333 0.0333333 0.0333333 0.0333333 0.0333333 0.0333333 0.0333333 0.0333333 0.0333333 0.0333333 0.0333333 0.0333333 0.0333333 0.0333333 0.0333333 0.0333333 0.0333333 0.0333333 0.0333333 0.0333333 0.0333333 0.0333333 0.0333333 0.0333333;
   (5, 22) 0.0322581 0.0322581 0.0322581 0.0322581 0.0322581 0.0322581 0.0322581 0.0322581 0.0322581 0.0322581 0.0645161 0.0322581 0.0322581 0.0322581 0.0322581 0.0322581 0.0322581 0.0322581 0.0322581 0.0322581 0.0322581 0.0322581 0.0322581 0.0322581 0.0322581 0.0322581 0.0322581 0.0322581 0.0322581 0.0322581;
   (6, 22) 0.0333333 0.0333333 0.0333333 0.0333333 0.0333333 0.0333333 0.0333333 0.0333333 0.0333333 0.0333333 0.0333333 0.0333333 0.0333333 0.0333333 0.0333333 0.0333333 0.0333333 0.0333333 0.0333333 0.0333333 0.0333333 0.0333333 0.0333333 0.0333333 0.0333333 0.0333333 0.0333333 0.0333333 0.0333333 0.0333333;
   (7, 22) 0.0333333 0.0333333 0.0333333 0.0333333 0.0333333 0.0333333 0.0333333 0.0333333 0.0333333 0.0333333 0.0333333 0.0333333 0.0333333 0.0333333 0.0333333 0.0333333 0.0333333 0.0333333 0.0333333 0.0333333 0.0333333 0.0333333 0.0333333 0.0333333 0.0333333 0.0333333 0.0333333 0.0333333 0.0333333 0.0333333;
   (8, 22) 0.0333333 0.0333333 0.0333333 0.0333333 0.0333333 0.0333333 0.0333333 0.0333333 0.0333333 0.0333333 0.0333333 0.0333333 0.0333333 0.0333333 0.0333333 0.0333333 0.0333333 0.0333333 0.0333333 0.0333333 0.0333333 0.0333333 0.0333333 0.0333333 0.0333333 0.0333333 0.0333333 0.0333333 0.0333333 0.0333333;
   (9, 22) 0.0333333 0.0333333 0.0333333 0.0333333 0.0333333 0.0333333 0.0333333 0.0333333 0.0333333 0.0333333 0.0333333 0.0333333 0.0333333 0.0333333 0.0333333 0.0333333 0.0333333 0.0333333 0.0333333 0.0333333 0.0333333 0.0333333 0.0333333 0.0333333 0.0333333 0.0333333 0.0333333 0.0333333 0.0333333 0.0333333;
   (10, 22) 0.0333333 0.0333333 0.0333333 0.0333333 0.0333333 0.0333333 0.0333333 0.0333333 0.0333333 0.0333333 0.0333333 0.0333333 0.0333333 0.0333333 0.0333333 0.0333333 0.0333333 0.0333333 0.0333333 0.0333333 0.0333333 0.0333333 0.0333333 0.0333333 0.0333333 0.0333333 0.0333333 0.0333333 0.0333333 0.0333333;
   (11, 22) 0.0333333 0.0333333 0.0333333 0.0333333 0.0333333 0.0333333 0.0333333 0.0333333 0.0333333 0.0333333 0.0333333 0.0333333 0.0333333 0.0333333 0.0333333 0.0333333 0.0333333 0.0333333 0.0333333 0.0333333 0.0333333 0.0333333 0.0333333 0.0333333 0.0333333 0.0333333 0.0333333 0.0333333 0.0333333 0.0333333;
   (12, 22) 0.0333333 0.0333333 0.0333333 0.0333333 0.0333333 0.0333333 0.0333333 0.0333333 0.0333333 0.0333333 0.0333333 0.0333333 0.0333333 0.0333333 0.0333333 0.0333333 0.0333333 0.0333333 0.0333333 0.0333333 0.0333333 0.0333333 0.0333333 0.0333333 0.0333333 0.0333333 0.0333333 0.0333333 0.0333333 0.0333333;
   (13, 22) 0.0333333 0.0333333 0.0333333 0.0333333 0.0333333 0.0333333 0.0333333 0.0333333 0.0333333 0.0333333 0.0333333 0.0333333 0.0333333 0.0333333 0.0333333 0.0333333 0.0333333 0.0333333 0.0333333 0.0333333 0.0333333 0.0333333 0.0333333 0.0333333 0.0333333 0.0333333 0.0333333 0.0333333 0.0333333 0.0333333;
   (14, 22) 0.0333333 0.0333333 0.0333333 0.0333333 0.0333333 0.0333333 0.0333333 0.0333333 0.0333333 0.0333333 0.0333333 0.0333333 0.0333333 0.0333333 0.0333333 0.0333333 0.0333333 0.0333333 0.0333333 0.0333333 0.0333333 0.0333333 0.0333333 0.0333333 0.0333333 0.0333333 0.0333333 0.0333333 0.0333333 0.0333333;
   (15, 22) 0.0333333 0.0333333 0.0333333 0.0333333 0.0333333 0.0333333 0.0333333 0.0333333 0.0333333 0.0333333 0.0333333 0.0333333 0.0333333 0.0333333 0.0333333 0.0333333 0.0333333 0.0333333 0.0333333 0.0333333 0.0333333 0.0333333 0.0333333 0.0333333 0.0333333 0.0333333 0.0333333 0.0333333 0.0333333 0.0333333;
   (16, 22) 0.0333333 0.0333333 0.0333333 0.0333333 0.0333333 0.0333333 0.0333333 0.0333333 0.0333333 0.0333333 0.0333333 0.0333333 0.0333333 0.0333333 0.0333333 0.0333333 0.0333333 0.0333333 0.0333333 0.0333333 0.0333333 0.0333333 0.0333333 0.0333333 0.0333333 0.0333333 0.0333333 0.0333333 0.0333333 0.0333333;
   (17, 22) 0.0333333 0.0333333 0.0333333 0.0333333 0.0333333 0.0333333 0.0333333 0.0333333 0.0333333 0.0333333 0.0333333 0.0333333 0.0333333 0.0333333 0.0333333 0.0333333 0.0333333 0.0333333 0.0333333 0.0333333 0.0333333 0.0333333 0.0333333 0.0333333 0.0333333 0.0333333 0.0333333 0.0333333 0.0333333 0.0333333;
   (4, 23) 0.0333333 0.0333333 0.0333333 0.0333333 0.0333333 0.0333333 0.0333333 0.0333333 0.0333333 0.0333333 0.0333333 0.0333333 0.0333333 0.0333333 0.0333333 0.0333333 0.0333333 0.0333333 0.0333333 0.0333333 0.0333333 0.0333333 0.0333333 0.0333333 0.0333333 0.0333333 0.0333333 0.0333333 0.0333333 0.0333333;
   (5, 23) 0.0333333 0.0333333 0.0333333 0.0333333 0.0333333 0.0333333 0.0333333 0.0333333 0.0333333 0.0333333 0.0333333 0.0333333 0.0333333 0.0333333 0.0333333 0.0333333 0.0333333 0.0333333 0.0333333 0.0333333 0.0333333 0.0333333 0.0333333 0.0333333 0.0333333 0.0333333 0.0333333 0.0333333 0.0333333 0.0333333;
   (6, 23) 0.0333333 0.0333333 0.0333333 0.0333333 0.0333333 0.0333333 0.0333333 0.0333333 0.0333333 0.0333333 0.0333333 0.0333333 0.0333333 0.0333333 0.0333333 0.0333333 0.0333333 0.0333333 0.0333333 0.0333333 0.0333333 0.0333333 0.0333333 0.0333333 0.0333333 0.0333333 0.0333333 0.0333333 0.0333333 0.0333333;
   (7, 23) 0.0333333 0.0333333 0.0333333 0.0333333 0.0333333 0.0333333 0.0333333 0.0333333 0.0333333 0.0333333 0.0333333 0.0333333 0.0333333 0.0333333 0.0333333 0.0333333 0.0333333 0.0333333 0.0333333 0.0333333 0.0333333 0.0333333 0.0333333 0.0333333 0.0333333 0.0333333 0.0333333 0.0333333 0.0333333 0.0333333;
   (8, 23) 0.0333333 0.0333333 0.0333333 0.0333333 0.0333333 0.0333333 0.0333333 0.0333333 0.0333333 0.0333333 0.0333333 0.0333333 0.0333333 0.0333333 0.0333333 0.0333333 0.0333333 0.0333333 0.0333333 0.0333333 0.0333333 0.0333333 0.0333333 0.0333333 0.0333333 0.0333333 0.0333333 0.0333333 0.0333333 0.0333333;
   (9, 23) 0.0333333 0.0333333 0.0333333 0.0333333 0.0333333 0.0333333 0.0333333 0.0333333 0.0333333 0.0333333 0.0333333 0.0333333 0.0333333 0.0333333 0.0333333 0.0333333 0.0333333 0.0333333 0.0333333 0.0333333 0.0333333 0.0333333 0.0333333 0.0333333 0.0333333 0.0333333 0.0333333 0.0333333 0.0333333 0.0333333;
   (10, 23) 0.0333333 0.0333333 0.0333333 0.0333333 0.0333333 0.0333333 0.0333333 0.0333333 0.0333333 0.0333333 0.0333333 0.0333333 0.0333333 0.0333333 0.0333333 0.0333333 0.0333333 0.0333333 0.0333333 0.0333333 0.0333333 0.0333333 0.0333333 0.0333333 0.0333333 0.0333333 0.0333333 0.0333333 0.0333333 0.0333333;
   (11, 23) 0.0333333 0.0333333 0.0333333 0.0333333 0.0333333 0.0333333 0.0333333 0.0333333 0.0333333 0.0333333 0.0333333 0.0333333 0.0333333 0.0333333 0.0333333 0.0333333 0.0333333 0.0333333 0.0333333 0.0333333 0.0333333 0.0333333 0.0333333 0.0333333 0.0333333 0.0333333 0.0333333 0.0333333 0.0333333 0.0333333;
   (12, 23) 0.0333333 0.0333333 0.0333333 0.0333333 0.0333333 0.0333333 0.0333333 0.0333333 0.0333333 0.0333333 0.0333333 0.0333333 0.0333333 0.0333333 0.0333333 0.0333333 0.0333333 0.0333333 0.0333333 0.0333333 0.0333333 0.0333333 0.0333333 0.0333333 0.0333333 0.0333333 0.0333333 0.0333333 0.0333333 0.0333333;
   (13, 23) 0.0333333 0.0333333 0.0333333 0.0333333 0.0333333 0.0333333 0.0333333 0.0333333 0.0333333 0.0333333 0.0333333 0.0333333 0.0333333 0.0333333 0.0333333 0.0333333 0.0333333 0.0333333 0.0333333 0.0333333 0.0333333 0.0333333 0.0333333 0.0333333 0.0333333 0.0333333 0.0333333 0.0333333 0.0333333 0.0333333;
   (14, 23) 0.0322581 0.0322581 0.0322581 0.0322581 0.0322581 0.0322581 0.0322581 0.0322581 0.0322581 0.0322581 0.0322581 0.0322581 0.0322581 0.0322581 0.0322581 0.0322581 0.0322581 0.0322581 0.0322581 0.0322581 0.0322581 0.0322581 0.0322581 0.0322581 0.0322581 0.0322581 0.0322581 0.0322581 0.0322581 0.0645161;
   (15, 23) 0.0333333 0.0333333 0.0333333 0.0333333 0.0333333 0.0333333 0.0333333 0.0333333 0.0333333 0.0333333 0.0333333 0.0333333 0.0333333 0.0333333 0.0333333 0.0333333 0.0333333 0.0333333 0.0333333 0.0333333 0.0333333 0.0333333 0.0333333 0.0333333 0.0333333 0.0333333 0.0333333 0.0333333 0.0333333 0.0333333;
   (16, 23) 0.0333333 0.0333333 0.0333333 0.0333333 0.0333333 0.0333333 0.0333333 0.0333333 0.0333333 0.0333333 0.0333333 0.0333333 0.0333333 0.0333333 0.0333333 0.0333333 0.0333333 0.0333333 0.0333333 0.0333333 0.0333333 0.0333333 0.0333333 0.0333333 0.0333333 0.0333333 0.0333333 0.0333333 0.0333333 0.0333333;
   (17, 23) 0.0333333 0.0333333 0.0333333 0.0333333 0.0333333 0.0333333 0.0333333 0.0333333 0.0333333 0.0333333 0.0333333 0.0333333 0.0333333 0.0333333 0.0333333 0.0333333 0.0333333 0.0333333 0.0333333 0.0333333 0.0333333 0.0333333 0.0333333 0.0333333 0.0333333 0.0333333 0.0333333 0.0333333 0.0333333 0.0333333;
}
probability (score1_c | score1_p) {
   (18) 0.222222 0.222222 0.222222 0.111111 0.111111 0.111111;
   (19) 0.111111 0.222222 0.333333 0.111111 0.111111 0.111111;
   (20) 0.1 0.3 0.3 0.1 0.1 0.1;
   (21) 0.125 0.3125 0.25 0.1875 0.0625 0.0625;
   (22) 0.166667 0.166667 0.25 0.0833333 0.25 0.0833333;
   (23) 0.111111 0.222222 0.222222 0.222222 0.111111 0.111111;
   (24) 0.0833333 0.25 0.0833333 0.333333 0.0833333 0.166667;
   (25) 0.117647 0.235294 0.235294 0.294118 0.0588235 0.0588235;
   (26) 0.0666667 0.266667 0.266667 0.266667 0.0666667 0.0666667;
   (27) 0.0588235 0.176471 0.294118 0.235294 0.176471 0.0588235;
   (28) 0.230769 0.0769231 0.230769 0.230769 0.153846 0.0769231;
   (29) 0.0769231 0.230769 0.307692 0.153846 0.0769231 0.153846;
   (30) 0.285714 0.142857 0.285714 0.142857 0.0714286 0.0714286;
   (31) 0.1 0.3 0.1 0.2 0.1 0.2;
   (32) 0.111111 0.333333 0.111111 0.111111 0.222222 0.111111;
   (33) 0.142857 0.285714 0.142857 0.142857 0.142857 0.142857;
   (34) 0.142857 0.285714 0.142857 0.142857 0.142857 0.142857;
   (35) 0.142857 0.285714 0.142857 0.142857 0.142857 0.142857;
   (36) 0.142857 0.285714 0.142857 0.142857 0.142857 0.142857;
   (37) 0.166667 0.166667 0.166667 0.166667 0.166667 0.166667;
   (38) 0.166667 0.166667 0.166667 0.166667 0.166667 0.166667;
   (39) 0.166667 0.166667 0.166667 0.166667 0.166667 0.166667;
   (40) 0.166667 0.166667 0.166667 0.166667 0.166667 0.166667;
   (41) 0.166667 0.166667 0.166667 0.166667 0.166667 0.166667;
   (42) 0.166667 0.166667 0.166667 0.166667 0.166667 0.166667;
   (43) 0.166667 0.166667 0.166667 0.166667 0.166667 0.166667;
   (44) 0.166667 0.166667 0.166667 0.166667 0.166667 0.166667;
   (45) 0.166667 0.166667 0.166667 0.166667 0.166667 0.166667;
   (46) 0.166667 0.166667 0.166667 0.166667 0.166667 0.166667;
   (47) 0.285714 0.142857 0.142857 0.142857 0.142857 0.142857;
}
probability (aggregate_p | score1_c, score1_p) {
   (2, 18) 0.0333333 0.0666667 0.0333333 0.0333333 0.0333333 0.0333333 0.0333333 0.0333333 0.0333333 0.0333333 0.0333333 0.0333333 0.0333333 0.0333333 0.0333333 0.0333333 0.0333333 0.0333333 0.0333333 0.0333333 0.0333333 0.0333333 0.0333333 0.0333333 0.0333333 0.0333333 0.0333333 0.0333333 0.0333333;
   (3, 18) 0.0333333 0.0333333 0.0333333 0.0333333 0.0333333 0.0333333 0.0666667 0.0333333 0.0333333 0.0333333 0.0333333 0.0333333 0.0333333 0.0333333 0.0333333 0.0333333 0.0333333 0.0333333 0.0333333 0.0333333 0.0333333 0.0333333 0.0333333 0.0333333 0.0333333 0.0333333 0.0333333 0.0333333 0.0333333;
   (4, 18) 0.0333333 0.0333333 0.0333333 0.0666667 0.0333333 0.0333333 0.0333333 0.0333333 0.0333333 0.0333333 0.0333333 0.0333333 0.0333333 0.0333333 0.0333333 0.0333333 0.0333333 0.0333333 0.0333333 0.0333333 0.0333333 0.0333333 0.0333333 0.0333333 0.0333333 0.0333333 0.0333333 0.0333333 0.0333333;
   (5, 18) 0.0344828 0.0344828 0.0344828 0.0344828 0.0344828 0.0344828 0.0344828 0.0344828 0.0344828 0.0344828 0.0344828 0.0344828 0.0344828 0.0344828 0.0344828 0.0344828 0.0344828 0.0344828 0.0344828 0.0344828 0.0344828 0.0344828 0.0344828 0.0344828 0.0344828 0.0344828 0.0344828 0.0344828 0.0344828;
   (6, 18) 0.0344828 0.0344828 0.0344828 0.0344828 0.0344828 0.0344828 0.0344828 0.0344828 0.0344828 0.0344828 0.0344828 0.0344828 0.0344828 0.0344828 0.0344828 0.0344828 0.0344828 0.0344828 0.0344828 0.0344828 0.0344828 0.0344828 0.0344828 0.0344828 0.0344828 0.0344828 0.0344828 0.0344828 0.0344828;
   (7, 18) 0.0344828 0.0344828 0.0344828 0.0344828 0.0344828 0.0344828 0.0344828 0.0344828 0.0344828 0.0344828 0.0344828 0.0344828 0.0344828 0.0344828 0.0344828 0.0344828 0.0344828 0.0344828 0.0344828 0.0344828 0.0344828 0.0344828 0.0344828 0.0344828 0.0344828 0.0344828 0.0344828 0.0344828 0.0344828;
   (2, 19) 0.0344828 0.0344828 0.0344828 0.0344828 0.0344828 0.0344828 0.0344828 0.0344828 0.0344828 0.0344828 0.0344828 0.0344828 0.0344828 0.0344828 0.0344828 0.0344828 0.0344828 0.0344828 0.0344828 0.0344828 0.0344828 0.0344828 0.0344828 0.0344828 0.0344828 0.0344828 0.0344828 0.0344828 0.0344828;
   (3, 19) 0.0333333 0.0666667 0.0333333 0.0333333 0.0333333 0.0333333 0.0333333 0.0333333 0.0333333 0.0333333 0.0333333 0.0333333 0.0333333 0.0333333 0.0333333 0.0333333 0.0333333 0.0333333 0.0333333 0.0333333 0.0333333 0.0333333 0.0333333 0.0333333 0.0333333 0.0333333 0.0333333 0.0333333 0.0333333;
   (4, 19) 0.0645161 0.0322581 0.0322581 0.0645161 0.0322581 0.0322581 0.0322581 0.0322581 0.0322581 0.0322581 0.0322581 0.0322581 0.0322581 0.0322581 0.0322581 0.0322581 0.0322581 0.0322581 0.0322581 0.0322581 0.0322581 0.0322581 0.0322581 0.0322581 0.0322581 0.0322581 0.0322581 0.0322581 0.0322581;
   (5, 19) 0.0344828 0.0344828 0.0344828 0.0344828 0.0344828 0.0344828 0.0344828 0.0344828 0.0344828 0.0344828 0.0344828 0.0344828 0.0344828 0.0344828 0.0344828 0.0344828 0.0344828 0.0344828 0.0344828 0.0344828 0.0344828 0.0344828 0.0344828 0.0344828 0.0344828 0.0344828 0.0344828 0.0344828 0.0344828;
   (6, 19) 0.0344828 0.0344828 0.0344828 0.0344828 0.0344828 0.0344828 0.0344828 0.0344828 0.0344828 0.0344828 0.0344828 0.0344828 0.0344828 0.0344828 0.0344828 0.0344828 0.0344828 0.0344828 0.0344828 0.0344828 0.0344828 0.0344828 0.0344828 0.0344828 0.0344828 0.0344828 0.0344828 0.0344828 0.0344828;
   (7, 19) 0.0344828 0.0344828 0.0344828 0.0344828 0.0344828 0.0344828 0.0344828 0.0344828 0.0344828 0.0344828 0.0344828 0.0344828 0.0344828 0.0344828 0.0344828 0.0344828 0.0344828 0.0344828 0.0344828 0.0344828 0.0344828 0.0344828 0.0344828 0.0344828 0.0344828 0.0344828 0.0344828 0.0344828 0.0344828;
   (2, 20) 0.0344828 0.0344828 0.0344828 0.0344828 0.0344828 0.0344828 0.0344828 0.0344828 0.0344828 0.0344828 0.0344828 0.0344828 0.0344828 0.0344828 0.0344828 0.0344828 0.0344828 0.0344828 0.0344828 0.0344828 0.0344828 0.0344828 0.0344828 0.0344828 0.0344828 0.0344828 0.0344828 0.0344828 0.0344828;
   (3, 20) 0.0322581 0.0645161 0.0645161 0.0322581 0.0322581 0.0322581 0.0322581 0.0322581 0.0322581 0.0322581 0.0322581 0.0322581 0.0322581 0.0322581 0.0322581 0.0322581 0.0322581 0.0322581 0.0322581 0.0322581 0.0322581 0.0322581 0.0322581 0.0322581 0.0322581 0.0322581 0.0322581 0.0322581 0.0322581;
   (4, 20) 0.0322581 0.0645161 0.0645161 0.0322581 0.0322581 0.0322581 0.0322581 0.0322581 0.0322581 0.0322581 0.0322581 0.0322581 0.0322581 0.0322581 0.0322581 0.0322581 0.0322581 0.0322581 0.0322581 0.0322581 0.0322581 0.0322581 0.0322581 0.0322581 0.0322581 0.0322581 0.0322581 0.0322581 0.0322581;
   (5, 20) 0.0344828 0.0344828 0.0344828 0.0344828 0.0344828 0.0344828 0.0344828 0.0344828 0.0344828 0.0344828 0.0344828 0.0344828 0.0344828 0.0344828 0.0344828 0.0344828 0.0344828 0.0344828 0.0344828 0.0344828 0.0344828 0.0344828 0.0344828 0.0344828 0.0344828 0.0344828 0.0344828 0.0344828 0.0344828;
   (6, 20) 0.0344828 0.0344828 0.0344828 0.0344828 0.0344828 0.0344828 0.0344828 0.0344828 0.0344828 0.0344828 0.0344828 0.0344828 0.0344828 0.0344828 0.0344828 0.0344828 0.0344828 0.0344828 0.0344828 0.0344828 0.0344828 0.0344828 0.0344828 0.0344828 0.0344828 0.0344828 0.0344828 0.0344828 0.0344828;
   (7, 20) 0.0344828 0.0344828 0.0344828 0.0344828 0.0344828 0.0344828 0.0344828 0.0344828 0.0344828 0.0344828 0.0344828 0.0344828 0.0344828 0.0344828 0.0344828 0.0344828 0.0344828 0.0344828 0.0344828 0.0344828 0.0344828 0.0344828 0.0344828 0.0344828 0.0344828 0.0344828 0.0344828 0.0344828 0.0344828;
   (2, 21) 0.0333333 0.0333333 0.0666667 0.0333333 0.0333333 0.0333333 0.0333333 0.0333333 0.0333333 0.0333333 0.0333333 0.0333333 0.0333333 0.0333333 0.0333333 0.0333333 0.0333333 0.0333333 0.0333333 0.0333333 0.0333333 0.0333333 0.0333333 0.0333333 0.0333333 0.0333333 0.0333333 0.0333333 0.0333333;
   (3, 21) 0.030303 0.030303 0.0606061 0.0606061 0.0606061 0.0606061 0.030303 0.030303 0.030303 0.030303 0.030303 0.030303 0.030303 0.030303 0.030303 0.030303 0.030303 0.030303 0.030303 0.030303 0.030303 0.030303 0.030303 0.030303 0.030303 0.030303 0.030303 0.030303 0.030303;
   (4, 21) 0.03125 0.03125 0.03125 0.0625 0.09375 0.03125 0.03125 0.03125 0.03125 0.03125 0.03125 0.03125 0.03125 0.03125 0.03125 0.03125 0.03125 0.03125 0.03125 0.03125 0.03125 0.03125 0.03125 0.03125 0.03125 0.03125 0.03125 0.03125 0.03125;
   (5, 21) 0.0322581 0.0322581 0.0322581 0.0645161 0.0645161 0.0322581 0.0322581 0.0322581 0.0322581 0.0322581 0.0322581 0.0322581 0.0322581 0.0322581 0.0322581 0.0322581 0.0322581 0.0322581 0.0322581 0.0322581 0.0322581 0.0322581 0.0322581 0.0322581 0.0322581 0.0322581 0.0322581 0.0322581 0.0322581;
   (6, 21) 0.0344828 0.0344828 0.0344828 0.0344828 0.0344828 0.0344828 0.0344828 0.0344828 0.0344828 0.0344828 0.0344828 0.0344828 0.0344828 0.0344828 0.0344828 0.0344828 0.0344828 0.0344828 0.0344828 0.0344828 0.0344828 0.0344828 0.0344828 0.0344828 0.0344828 0.0344828 0.0344828 0.0344828 0.0344828;
   (7, 21) 0.0344828 0.0344828 0.0344828 0.0344828 0.0344828 0.0344828 0.0344828 0.0344828 0.0344828 0.0344828 0.0344828 0.0344828 0.0344828 0.0344828 0.0344828 0.0344828 0.0344828 0.0344828 0.0344828 0.0344828 0.0344828 0.0344828 0.0344828 0.0344828 0.0344828 0.0344828 0.0344828 0.0344828 0.0344828;
   (2, 22) 0.0333333 0.0333333 0.0333333 0.0333333 0.0333333 0.0333333 0.0333333 0.0333333 0.0666667 0.0333333 0.0333333 0.0333333 0.0333333 0.0333333 0.0333333 0.0333333 0.0333333 0.0333333 0.0333333 0.0333333 0.0333333 0.0333333 0.0333333 0.0333333 0.0333333 0.0333333 0.0333333 0.0333333 0.0333333;
   (3, 22) 0.0333333 0.0333333 0.0333333 0.0333333 0.0333333 0.0333333 0.0333333 0.0333333 0.0666667 0.0333333 0.0333333 0.0333333 0.0333333 0.0333333 0.0333333 0.0333333 0.0333333 0.0333333 0.0333333 0.0333333 0.0333333 0.0333333 0.0333333 0.0333333 0.0333333 0.0333333 0.0333333 0.0333333 0.0333333;
   (4, 22) 0.0322581 0.0322581 0.0322581 0.0322581 0.0322581 0.0645161 0.0322581 0.0645161 0.0322581 0.0322581 0.0322581 0.0322581 0.0322581 0.0322581 0.0322581 0.0322581 0.0322581 0.0322581 0.0322581 0.0322581 0.0322581 0.0322581 0.0322581 0.0322581 0.0322581 0.0322581 0.0322581 0.0322581 0.0322581;
   (5, 22) 0.0344828 0.0344828 0.0344828 0.0344828 0.0344828 0.0344828 0.0344828 0.0344828 0.0344828 0.0344828 0.0344828 0.0344828 0.0344828 0.0344828 0.0344828 0.0344828 0.0344828 0.0344828 0.0344828 0.0344828 0.0344828 0.0344828 0.0344828 0.0344828 0.0344828 0.0344828 0.0344828 0.0344828 0.0344828;
   (6, 22) 0.0322581 0.0322581 0.0322581 0.0322581 0.0322581 0.0322581 0.0967742 0.0322581 0.0322581 0.0322581 0.0322581 0.0322581 0.0322581 0.0322581 0.0322581 0.0322581 0.0322581 0.0322581 0.0322581 0.0322581 0.0322581 0.0322581 0.0322581 0.0322581 0.0322581 0.0322581 0.0322581 0.0322581 0.0322581;
   (7, 22) 0.0344828 0.0344828 0.0344828 0.0344828 0.0344828 0.0344828 0.0344828 0.0344828 0.0344828 0.0344828 0.0344828 0.0344828 0.0344828 0.0344828 0.0344828 0.0344828 0.0344828 0.0344828 0.0344828 0.0344828 0.0344828 0.0344828 0.0344828 0.0344828 0.0344828 0.0344828 0.0344828 0.0344828 0.0344828;
   (2, 23) 0.0344828 0.0344828 0.0344828 0.0344828 0.0344828 0.0344828 0.0344828 0.0344828 0.0344828 0.0344828 0.0344828 0.0344828 0.0344828 0.0344828 0.0344828 0.0344828 0.0344828 0.0344828 0.0344828 0.0344828 0.0344828 0.0344828 0.0344828 0.0344828 0.0344828 0.0344828 0.0344828 0.0344828 0.0344828;
   (3, 23) 0.0333333 0.0333333 0.0333333 0.0333333 0.0333333 0.0333333 0.0666667 0.0333333 0.0333333 0.0333333 0.0333333 0.0333333 0.0333333 0.0333333 0.0333333 0.0333333 0.0333333 0.0333333 0.0333333 0.0333333 0.0333333 0.0333333 0.0333333 0.0333333 0.0333333 0.0333333 0.0333333 0.0333333 0.0333333;
   (4, 23) 0.0333333 0.0333333 0.0333333 0.0333333 0.0666667 0.0333333 0.0333333 0.0333333 0.0333333 0.0333333 0.0333333 0.0333333 0.0333333 0.0333333 0.0333333 0.0333333 0.0333333 0.0333333 0.0333333 0.0333333 0.0333333 0.0333333 0.0333333 0.0333333 0.0333333 0.0333333 0.0333333 0.0333333 0.0333333;
   (5, 23) 0.0333333 0.0333333 0.0333333 0.0333333 0.0333333 0.0666667 0.0333333 0.0333333 0.0333333 0.0333333 0.0333333 0.0333333 0.0333333 0.0333333 0.0333333 0.0333333 0.0333333 0.0333333 0.0333333 0.0333333 0.0333333 0.0333333 0.0333333 0.0333333 0.0333333 0.0333333 0.0333333 0.0333333 0.0333333;
   (6, 23) 0.0344828 0.0344828 0.0344828 0.0344828 0.0344828 0.0344828 0.0344828 0.0344828 0.0344828 0.0344828 0.0344828 0.0344828 0.0344828 0.0344828 0.0344828 0.0344828 0.0344828 0.0344828 0.0344828 0.0344828 0.0344828 0.0344828 0.0344828 0.0344828 0.0344828 0.0344828 0.0344828 0.0344828 0.0344828;
   (7, 23) 0.0344828 0.0344828 0.0344828 0.0344828 0.0344828 0.0344828 0.0344828 0.0344828 0.0344828 0.0344828 0.0344828 0.0344828 0.0344828 0.0344828 0.0344828 0.0344828 0.0344828 0.0344828 0.0344828 0.0344828 0.0344828 0.0344828 0.0344828 0.0344828 0.0344828 0.0344828 0.0344828 0.0344828 0.0344828;
   (2, 24) 0.0344828 0.0344828 0.0344828 0.0344828 0.0344828 0.0344828 0.0344828 0.0344828 0.0344828 0.0344828 0.0344828 0.0344828 0.0344828 0.0344828 0.0344828 0.0344828 0.0344828 0.0344828 0.0344828 0.0344828 0.0344828 0.0344828 0.0344828 0.0344828 0.0344828 0.0344828 0.0344828 0.0344828 0.0344828;
   (3, 24) 0.0322581 0.0322581 0.0322581 0.0322581 0.0322581 0.0322581 0.0322581 0.0322581 0.0645161 0.0322581 0.0322581 0.0645161 0.0322581 0.0322581 0.0322581 0.0322581 0.0322581 0.0322581 0.0322581 0.0322581 0.0322581 0.0322581 0.0322581 0.0322581 0.0322581 0.0322581 0.0322581 0.0322581 0.0322581;
   (4, 24) 0.0344828 0.0344828 0.0344828 0.0344828 0.0344828 0.0344828 0.0344828 0.0344828 0.0344828 0.0344828 0.0344828 0.0344828 0.0344828 0.0344828 0.0344828 0.0344828 0.0344828 0.0344828 0.0344828 0.0344828 0.0344828 0.0344828 0.0344828 0.0344828 0.0344828 0.0344828 0.0344828 0.0344828 0.0344828;
   (5, 24) 0.03125 0.03125 0.03125 0.03125 0.03125 0.0625 0.03125 0.0625 0.03125 0.0625 0.03125 0.03125 0.03125 0.03125 0.03125 0.03125 0.03125 0.03125 0.03125 0.03125 0.03125 0.03125 0.03125 0.03125 0.03125 0.03125 0.03125 0.03125 0.03125;
   (6, 24) 0.0344828 0.0344828 0.0344828 0.0344828 0.0344828 0.0344828 0.0344828 0.0344828 0.0344828 0.0344828 0.0344828 0.0344828 0.0344828 0.0344828 0.0344828 0.0344828 0.0344828 0.0344828 0.0344828 0.0344828 0.0344828 0.0344828 0.0344828 0.0344828 0.0344828 0.0344828 0.0344828 0.0344828 0.0344828;
   (7, 24) 0.0333333 0.0333333 0.0333333 0.0333333 0.0333333 0.0333333 0.0333333 0.0333333 0.0333333 0.0666667 0.0333333 0.0333333 0.0333333 0.0333333 0.0333333 0.0333333 0.0333333 0.0333333 0.0333333 0.0333333 0.0333333 0.0333333 0.0333333 0.0333333 0.0333333 0.0333333 0.0333333 0.0333333 0.0333333;
   (2, 25) 0.0333333 0.0333333 0.0333333 0.0333333 0.0333333 0.0333333 0.0333333 0.0333333 0.0333333 0.0333333 0.0333333 0.0333333 0.0333333 0.0666667 0.0333333 0.0333333 0.0333333 0.0333333 0.0333333 0.0333333 0.0333333 0.0333333 0.0333333 0.0333333 0.0333333 0.0333333 0.0333333 0.0333333 0.0333333;
   (3, 25) 0.03125 0.03125 0.03125 0.03125 0.03125 0.03125 0.03125 0.03125 0.03125 0.09375 0.03125 0.0625 0.03125 0.03125 0.03125 0.03125 0.03125 0.03125 0.03125 0.03125 0.03125 0.03125 0.03125 0.03125 0.03125 0.03125 0.03125 0.03125 0.03125;
   (4, 25) 0.03125 0.03125 0.03125 0.03125 0.03125 0.03125 0.03125 0.0625 0.03125 0.0625 0.03125 0.0625 0.03125 0.03125 0.03125 0.03125 0.03125 0.03125 0.03125 0.03125 0.03125 0.03125 0.03125 0.03125 0.03125 0.03125 0.03125 0.03125 0.03125;
   (5, 25) 0.030303 0.030303 0.030303 0.030303 0.030303 0.030303 0.030303 0.030303 0.0909091 0.030303 0.0606061 0.0606061 0.030303 0.030303 0.030303 0.030303 0.030303 0.030303 0.030303 0.030303 0.030303 0.030303 0.030303 0.030303 0.030303 0.030303 0.030303 0.030303 0.030303;
   (6, 25) 0.0344828 0.0344828 0.0344828 0.0344828 0.0344828 0.0344828 0.0344828 0.0344828 0.0344828 0.0344828 0.0344828 0.0344828 0.0344828 0.0344828 0.0344828 0.0344828 0.0344828 0.0344828 0.0344828 0.0344828 0.0344828 0.0344828 0.0344828 0.0344828 0.0344828 0.0344828 0.0344828 0.0344828 0.0344828;
   (7, 25) 0.0344828 0.0344828 0.0344828 0.0344828 0.0344828 0.0344828 0.0344828 0.0344828 0.0344828 0.0344828 0.0344828 0.0344828 0.0344828 0.0344828 0.0344828 0.0344828 0.0344828 0.0344828 0.0344828 0.0344828 0.0344828 0.0344828 0.0344828 0.0344828 0.0344828 0.0344828 0.0344828 0.0344828 0.0344828;
   (2, 26) 0.0344828 0.0344828 0.0344828 0.0344828 0.0344828 0.0344828 0.0344828 0.0344828 0.0344828 0.0344828 0.0344828 0.0344828 0.0344828 0.0344828 0.0344828 0.0344828 0.0344828 0.0344828 0.0344828 0.0344828 0.0344828 0.0344828 0.0344828 0.0344828 0.0344828 0.0344828 0.0344828 0.0344828 0.0344828;
   (3, 26) 0.03125 0.03125 0.03125 0.03125 0.03125 0.03125 0.03125 0.03125 0.0625 0.03125 0.03125 0.0625 0.03125 0.0625 0.03125 0.03125 0.03125 0.03125 0.03125 0.03125 0.03125 0.03125 0.03125 0.03125 0.03125 0.03125 0.03125 0.03125 0.03125;
   (4, 26) 0.03125 0.03125 0.03125 0.03125 0.03125 0.03125 0.03125 0.0625 0.03125 0.03125 0.03125 0.0625 0.0625 0.03125 0.03125 0.03125 0.03125 0.03125 0.03125 0.03125 0.03125 0.03125 0.03125 0.03125 0.03125 0.03125 0.03125 0.03125 0.03125;
   (5, 26) 0.03125 0.03125 0.03125 0.03125 0.03125 0.03125 0.03125 0.03125 0.03125 0.03125 0.09375 0.03125 0.0625 0.03125 0.03125 0.03125 0.03125 0.03125 0.03125 0.03125 0.03125 0.03125 0.03125 0.03125 0.03125 0.03125 0.03125 0.03125 0.03125;
   (6, 26) 0.0344828 0.0344828 0.0344828 0.0344828 0.0344828 0.0344828 0.0344828 0.0344828 0.0344828 0.0344828 0.0344828 0.0344828 0.0344828 0.0344828 0.0344828 0.0344828 0.0344828 0.0344828 0.0344828 0.0344828 0.0344828 0.0344828 0.0344828 0.0344828 0.0344828 0.0344828 0.0344828 0.0344828 0.0344828;
   (7, 26) 0.0344828 0.0344828 0.0344828 0.0344828 0.0344828 0.0344828 0.0344828 0.0344828 0.0344828 0.0344828 0.0344828 0.0344828 0.0344828 0.0344828 0.0344828 0.0344828 0.0344828 0.0344828 0.0344828 0.0344828 0.0344828 0.0344828 0.0344828 0.0344828 0.0344828 0.0344828 0.0344828 0.0344828 0.0344828;
   (2, 27) 0.0344828 0.0344828 0.0344828 0.0344828 0.0344828 0.0344828 0.0344828 0.0344828 0.0344828 0.0344828 0.0344828 0.0344828 0.0344828 0.0344828 0.0344828 0.0344828 0.0344828 0.0344828 0.0344828 0.0344828 0.0344828 0.0344828 0.0344828 0.0344828 0.0344828 0.0344828 0.0344828 0.0344828 0.0344828;
   (3, 27) 0.0322581 0.0322581 0.0322581 0.0322581 0.0322581 0.0322581 0.0322581 0.0322581 0.0322581 0.0322581 0.0322581 0.0322581 0.0645161 0.0322581 0.0322581 0.0645161 0.0322581 0.0322581 0.0322581 0.0322581 0.0322581 0.0322581 0.0322581 0.0322581 0.0322581 0.0322581 0.0322581 0.0322581 0.0322581;
   (4, 27) 0.030303 0.030303 0.030303 0.030303 0.030303 0.030303 0.030303 0.030303 0.030303 0.030303 0.030303 0.0909091 0.0606061 0.0606061 0.030303 0.030303 0.030303 0.030303 0.030303 0.030303 0.030303 0.030303 0.030303 0.030303 0.030303 0.030303 0.030303 0.030303 0.030303;
   (5, 27) 0.03125 0.03125 0.03125 0.03125 0.03125 0.03125 0.03125 0.03125 0.03125 0.03125 0.03125 0.09375 0.0625 0.03125 0.03125 0.03125 0.03125 0.03125 0.03125 0.03125 0.03125 0.03125 0.03125 0.03125 0.03125 0.03125 0.03125 0.03125 0.03125;
   (6, 27) 0.0322581 0.0322581 0.0322581 0.0322581 0.0322581 0.0322581 0.0322581 0.0322581 0.0322581 0.0322581 0.0322581 0.0322581 0.0322581 0.0967742 0.0322581 0.0322581 0.0322581 0.0322581 0.0322581 0.0322581 0.0322581 0.0322581 0.0322581 0.0322581 0.0322581 0.0322581 0.0322581 0.0322581 0.0322581;
   (7, 27) 0.0344828 0.0344828 0.0344828 0.0344828 0.0344828 0.0344828 0.0344828 0.0344828 0.0344828 0.0344828 0.0344828 0.0344828 0.0344828 0.0344828 0.0344828 0.0344828 0.0344828 0.0344828 0.0344828 0.0344828 0.0344828 0.0344828 0.0344828 0.0344828 0.0344828 0.0344828 0.0344828 0.0344828 0.0344828;
   (2, 28) 0.0322581 0.0322581 0.0322581 0.0322581 0.0322581 0.0322581 0.0322581 0.0322581 0.0322581 0.0645161 0.0322581 0.0322581 0.0322581 0.0322581 0.0322581 0.0645161 0.0322581 0.0322581 0.0322581 0.0322581 0.0322581 0.0322581 0.0322581 0.0322581 0.0322581 0.0322581 0.0322581 0.0322581 0.0322581;
   (3, 28) 0.0344828 0.0344828 0.0344828 0.0344828 0.0344828 0.0344828 0.0344828 0.0344828 0.0344828 0.0344828 0.0344828 0.0344828 0.0344828 0.0344828 0.0344828 0.0344828 0.0344828 0.0344828 0.0344828 0.0344828 0.0344828 0.0344828 0.0344828 0.0344828 0.0344828 0.0344828 0.0344828 0.0344828 0.0344828;
   (4, 28) 0.0322581 0.0322581 0.0322581 0.0322581 0.0322581 0.0322581 0.0322581 0.0322581 0.0322581 0.0322581 0.0322581 0.0322581 0.0322581 0.0322581 0.0645161 0.0645161 0.0322581 0.0322581 0.0322581 0.0322581 0.0322581 0.0322581 0.0322581 0.0322581 0.0322581 0.0322581 0.0322581 0.0322581 0.0322581;
   (5, 28) 0.0322581 0.0322581 0.0322581 0.0322581 0.0322581 0.0322581 0.0322581 0.0322581 0.0322581 0.0322581 0.0322581 0.0967742 0.0322581 0.0322581 0.0322581 0.0322581 0.0322581 0.0322581 0.0322581 0.0322581 0.0322581 0.0322581 0.0322581 0.0322581 0.0322581 0.0322581 0.0322581 0.0322581 0.0322581;
   (6, 28) 0.0333333 0.0333333 0.0333333 0.0333333 0.0333333 0.0333333 0.0333333 0.0333333 0.0333333 0.0333333 0.0333333 0.0666667 0.0333333 0.0333333 0.0333333 0.0333333 0.0333333 0.0333333 0.0333333 0.0333333 0.0333333 0.0333333 0.0333333 0.0333333 0.0333333 0.0333333 0.0333333 0.0333333 0.0333333;
   (7, 28) 0.0344828 0.0344828 0.0344828 0.0344828 0.0344828 0.0344828 0.0344828 0.0344828 0.0344828 0.0344828 0.0344828 0.0344828 0.0344828 0.0344828 0.0344828 0.0344828 0.0344828 0.0344828 0.0344828 0.0344828 0.0344828 0.0344828 0.0344828 0.0344828 0.0344828 0.0344828 0.0344828 0.0344828 0.0344828;
   (2, 29) 0.0344828 0.0344828 0.0344828 0.0344828 0.0344828 0.0344828 0.0344828 0.0344828 0.0344828 0.0344828 0.0344828 0.0344828 0.0344828 0.0344828 0.0344828 0.0344828 0.0344828 0.0344828 0.0344828 0.0344828 0.0344828 0.0344828 0.0344828 0.0344828 0.0344828 0.0344828 0.0344828 0.0344828 0.0344828;
   (3, 29) 0.0322581 0.0322581 0.0322581 0.0322581 0.0322581 0.0322581 0.0322581 0.0322581 0.0322581 0.0645161 0.0322581 0.0322581 0.0322581 0.0322581 0.0645161 0.0322581 0.0322581 0.0322581 0.0322581 0.0322581 0.0322581 0.0322581 0.0322581 0.0322581 0.0322581 0.0322581 0.0322581 0.0322581 0.0322581;
   (4, 29) 0.03125 0.03125 0.03125 0.03125 0.03125 0.03125 0.03125 0.03125 0.03125 0.03125 0.03125 0.03125 0.03125 0.0625 0.03125 0.03125 0.03125 0.03125 0.0625 0.03125 0.03125 0.03125 0.03125 0.0625 0.03125 0.03125 0.03125 0.03125 0.03125;
   (5, 29) 0.0333333 0.0333333 0.0333333 0.0333333 0.0333333 0.0333333 0.0333333 0.0333333 0.0333333 0.0333333 0.0333333 0.0333333 0.0333333 0.0333333 0.0333333 0.0333333 0.0666667 0.0333333 0.0333333 0.0333333 0.0333333 0.0333333 0.0333333 0.0333333 0.0333333 0.0333333 0.0333333 0.0333333 0.0333333;
   (6, 29) 0.0344828 0.0344828 0.0344828 0.0344828 0.0344828 0.0344828 0.0344828 0.0344828 0.0344828 0.0344828 0.0344828 0.0344828 0.0344828 0.0344828 0.0344828 0.0344828 0.0344828 0.0344828 0.0344828 0.0344828 0.0344828 0.0344828 0.0344828 0.0344828 0.0344828 0.0344828 0.0344828 0.0344828 0.0344828;
   (7, 29) 0.0333333 0.0333333 0.0333333 0.0333333 0.0333333 0.0333333 0.0333333 0.0333333 0.0333333 0.0333333 0.0333333 0.0333333 0.0333333 0.0333333 0.0333333 0.0666667 0.0333333 0.0333333 0.0333333 0.0333333 0.0333333 0.0333333 0.0333333 0.0333333 0.0333333 0.0333333 0.0333333 0.0333333 0.0333333;
   (2, 30) 0.03125 0.03125 0.03125 0.03125 0.03125 0.03125 0.03125 0.03125 0.03125 0.03125 0.03125 0.03125 0.03125 0.03125 0.03125 0.0625 0.03125 0.03125 0.03125 0.0625 0.0625 0.03125 0.03125 0.03125 0.03125 0.03125 0.03125 0.03125 0.03125;
   (3, 30) 0.0333333 0.0333333 0.0333333 0.0333333 0.0333333 0.0333333 0.0333333 0.0333333 0.0333333 0.0333333 0.0333333 0.0333333 0.0333333 0.0333333 0.0333333 0.0666667 0.0333333 0.0333333 0.0333333 0.0333333 0.0333333 0.0333333 0.0333333 0.0333333 0.0333333 0.0333333 0.0333333 0.0333333 0.0333333;
   (4, 30) 0.03125 0.03125 0.03125 0.03125 0.03125 0.03125 0.03125 0.03125 0.03125 0.03125 0.03125 0.03125 0.03125 0.0625 0.0625 0.03125 0.03125 0.03125 0.0625 0.03125 0.03125 0.03125 0.03125 0.03125 0.03125 0.03125 0.03125 0.03125 0.03125;
   (5, 30) 0.0333333 0.0333333 0.0333333 0.0333333 0.0333333 0.0333333 0.0333333 0.0333333 0.0333333 0.0333333 0.0333333 0.0333333 0.0333333 0.0333333 0.0333333 0.0333333 0.0666667 0.0333333 0.0333333 0.0333333 0.0333333 0.0333333 0.0333333 0.0333333 0.0333333 0.0333333 0.0333333 0.0333333 0.0333333;
   (6, 30) 0.0344828 0.0344828 0.0344828 0.0344828 0.0344828 0.0344828 0.0344828 0.0344828 0.0344828 0.0344828 0.0344828 0.0344828 0.0344828 0.0344828 0.0344828 0.0344828 0.0344828 0.0344828 0.0344828 0.0344828 0.0344828 0.0344828 0.0344828 0.0344828 0.0344828 0.0344828 0.0344828 0.0344828 0.0344828;
   (7, 30) 0.0344828 0.0344828 0.0344828 0.0344828 0.0344828 0.0344828 0.0344828 0.0344828 0.0344828 0.0344828 0.0344828 0.0344828 0.0344828 0.0344828 0.0344828 0.0344828 0.0344828 0.0344828 0.0344828 0.0344828 0.0344828 0.0344828 0.0344828 0.0344828 0.0344828 0.0344828 0.0344828 0.0344828 0.0344828;
   (2, 31) 0.0344828 0.0344828 0.0344828 0.0344828 0.0344828 0.0344828 0.0344828 0.0344828 0.0344828 0.0344828 0.0344828 0.0344828 0.0344828 0.0344828 0.0344828 0.0344828 0.0344828 0.0344828 0.0344828 0.0344828 0.0344828 0.0344828 0.0344828 0.0344828 0.0344828 0.0344828 0.0344828 0.0344828 0.0344828;
   (3, 31) 0.0322581 0.0322581 0.0322581 0.0322581 0.0322581 0.0322581 0.0322581 0.0322581 0.0322581 0.0322581 0.0322581 0.0322581 0.0322581 0.0322581 0.0322581 0.0322581 0.0322581 0.0322581 0.0322581 0.0322581 0.0322581 0.0967742 0.0322581 0.0322581 0.0322581 0.0322581 0.0322581 0.0322581 0.0322581;
   (4, 31) 0.0344828 0.0344828 0.0344828 0.0344828 0.0344828 0.0344828 0.0344828 0.0344828 0.0344828 0.0344828 0.0344828 0.0344828 0.0344828 0.0344828 0.0344828 0.0344828 0.0344828 0.0344828 0.0344828 0.0344828 0.0344828 0.0344828 0.0344828 0.0344828 0.0344828 0.0344828 0.0344828 0.0344828 0.0344828;
   (5, 31) 0.0333333 0.0333333 0.0333333 0.0333333 0.0333333 0.0333333 0.0333333 0.0333333 0.0333333 0.0333333 0.0333333 0.0333333 0.0333333 0.0333333 0.0333333 0.0333333 0.0666667 0.0333333 0.0333333 0.0333333 0.0333333 0.0333333 0.0333333 0.0333333 0.0333333 0.0333333 0.0333333 0.0333333 0.0333333;
   (6, 31) 0.0344828 0.0344828 0.0344828 0.0344828 0.0344828 0.0344828 0.0344828 0.0344828 0.0344828 0.0344828 0.0344828 0.0344828 0.0344828 0.0344828 0.0344828 0.0344828 0.0344828 0.0344828 0.0344828 0.0344828 0.0344828 0.0344828 0.0344828 0.0344828 0.0344828 0.0344828 0.0344828 0.0344828 0.0344828;
   (7, 31) 0.0333333 0.0333333 0.0333333 0.0333333 0.0333333 0.0333333 0.0333333 0.0333333 0.0333333 0.0333333 0.0333333 0.0333333 0.0333333 0.0333333 0.0333333 0.0666667 0.0333333 0.0333333 0.0333333 0.0333333 0.0333333 0.0333333 0.0333333 0.0333333 0.0333333 0.0333333 0.0333333 0.0333333 0.0333333;
   (2, 32) 0.0344828 0.0344828 0.0344828 0.0344828 0.0344828 0.0344828 0.0344828 0.0344828 0.0344828 0.0344828 0.0344828 0.0344828 0.0344828 0.0344828 0.0344828 0.0344828 0.0344828 0.0344828 0.0344828 0.0344828 0.0344828 0.0344828 0.0344828 0.0344828 0.0344828 0.0344828 0.0344828 0.0344828 0.0344828;
   (3, 32) 0.0322581 0.0322581 0.0322581 0.0322581 0.0322581 0.0322581 0.0322581 0.0322581 0.0322581 0.0322581 0.0322581 0.0322581 0.0322581 0.0322581 0.0322581 0.0322581 0.0322581 0.0322581 0.0645161 0.0322581 0.0322581 0.0322581 0.0322581 0.0645161 0.0322581 0.0322581 0.0322581 0.0322581 0.0322581;
   (4, 32) 0.0344828 0.0344828 0.0344828 0.0344828 0.0344828 0.0344828 0.0344828 0.0344828 0.0344828 0.0344828 0.0344828 0.0344828 0.0344828 0.0344828 0.0344828 0.0344828 0.0344828 0.0344828 0.0344828 0.0344828 0.0344828 0.0344828 0.0344828 0.0344828 0.0344828 0.0344828 0.0344828 0.0344828 0.0344828;
   (5, 32) 0.0344828 0.0344828 0.0344828 0.0344828 0.0344828 0.0344828 0.0344828 0.0344828 0.0344828 0.0344828 0.0344828 0.0344828 0.0344828 0.0344828 0.0344828 0.0344828 0.0344828 0.0344828 0.0344828 0.0344828 0.0344828 0.0344828 0.0344828 0.0344828 0.0344828 0.0344828 0.0344828 0.0344828 0.0344828;
   (6, 32) 0.0333333 0.0333333 0.0333333 0.0333333 0.0333333 0.0333333 0.0333333 0.0333333 0.0333333 0.0333333 0.0333333 0.0333333 0.0333333 0.0333333 0.0333333 0.0333333 0.0333333 0.0333333 0.0333333 0.0666667 0.0333333 0.0333333 0.0333333 0.0333333 0.0333333 0.0333333 0.0333333 0.0333333 0.0333333;
   (7, 32) 0.0344828 0.0344828 0.0344828 0.0344828 0.0344828 0.0344828 0.0344828 0.0344828 0.0344828 0.0344828 0.0344828 0.0344828 0.0344828 0.0344828 0.0344828 0.0344828 0.0344828 0.0344828 0.0344828 0.0344828 0.0344828 0.0344828 0.0344828 0.0344828 0.0344828 0.0344828 0.0344828 0.0344828 0.0344828;
   (2, 33) 0.0344828 0.0344828 0.0344828 0.0344828 0.0344828 0.0344828 0.0344828 0.0344828 0.0344828 0.0344828 0.0344828 0.0344828 0.0344828 0.0344828 0.0344828 0.0344828 0.0344828 0.0344828 0.0344828 0.0344828 0.0344828 0.0344828 0.0344828 0.0344828 0.0344828 0.0344828 0.0344828 0.0344828 0.0344828;
   (3, 33) 0.0333333 0.0333333 0.0333333 0.0333333 0.0333333 0.0333333 0.0333333 0.0333333 0.0333333 0.0333333 0.0333333 0.0333333 0.0333333 0.0333333 0.0333333 0.0333333 0.0333333 0.0333333 0.0333333 0.0333333 0.0333333 0.0333333 0.0666667 0.0333333 0.0333333 0.0333333 0.0333333 0.0333333 0.0333333;
   (4, 33) 0.0344828 0.0344828 0.0344828 0.0344828 0.0344828 0.0344828 0.0344828 0.0344828 0.0344828 0.0344828 0.0344828 0.0344828 0.0344828 0.0344828 0.0344828 0.0344828 0.0344828 0.0344828 0.0344828 0.0344828 0.0344828 0.0344828 0.0344828 0.0344828 0.0344828 0.0344828 0.0344828 0.0344828 0.0344828;
   (5, 33) 0.0344828 0.0344828 0.0344828 0.0344828 0.0344828 0.0344828 0.0344828 0.0344828 0.0344828 0.0344828 0.0344828 0.0344828 0.0344828 0.0344828 0.0344828 0.0344828 0.0344828 0.0344828 0.0344828 0.0344828 0.0344828 0.0344828 0.0344828 0.0344828 0.0344828 0.0344828 0.0344828 0.0344828 0.0344828;
   (6, 33) 0.0344828 0.0344828 0.0344828 0.0344828 0.0344828 0.0344828 0.0344828 0.0344828 0.0344828 0.0344828 0.0344828 0.0344828 0.0344828 0.0344828 0.0344828 0.0344828 0.0344828 0.0344828 0.0344828 0.0344828 0.0344828 0.0344828 0.0344828 0.0344828 0.0344828 0.0344828 0.0344828 0.0344828 0.0344828;
   (7, 33) 0.0344828 0.0344828 0.0344828 0.0344828 0.0344828 0.0344828 0.0344828 0.0344828 0.0344828 0.0344828 0.0344828 0.0344828 0.0344828 0.0344828 0.0344828 0.0344828 0.0344828 0.0344828 0.0344828 0.0344828 0.0344828 0.0344828 0.0344828 0.0344828 0.0344828 0.0344828 0.0344828 0.0344828 0.0344828;
   (2, 34) 0.0344828 0.0344828 0.0344828 0.0344828 0.0344828 0.0344828 0.0344828 0.0344828 0.0344828 0.0344828 0.0344828 0.0344828 0.0344828 0.0344828 0.0344828 0.0344828 0.0344828 0.0344828 0.0344828 0.0344828 0.0344828 0.0344828 0.0344828 0.0344828 0.0344828 0.0344828 0.0344828 0.0344828 0.0344828;
   (3, 34) 0.0333333 0.0333333 0.0333333 0.0333333 0.0333333 0.0333333 0.0333333 0.0333333 0.0333333 0.0333333 0.0333333 0.0333333 0.0333333 0.0333333 0.0333333 0.0333333 0.0333333 0.0333333 0.0333333 0.0333333 0.0333333 0.0666667 0.0333333 0.0333333 0.0333333 0.0333333 0.0333333 0.0333333 0.0333333;
   (4, 34) 0.0344828 0.0344828 0.0344828 0.0344828 0.0344828 0.0344828 0.0344828 0.0344828 0.0344828 0.0344828 0.0344828 0.0344828 0.0344828 0.0344828 0.0344828 0.0344828 0.0344828 0.0344828 0.0344828 0.0344828 0.0344828 0.0344828 0.0344828 0.0344828 0.0344828 0.0344828 0.0344828 0.0344828 0.0344828;
   (5, 34) 0.0344828 0.0344828 0.0344828 0.0344828 0.0344828 0.0344828 0.0344828 0.0344828 0.0344828 0.0344828 0.0344828 0.0344828 0.0344828 0.0344828 0.0344828 0.0344828 0.0344828 0.0344828 0.0344828 0.0344828 0.0344828 0.0344828 0.0344828 0.0344828 0.0344828 0.0344828 0.0344828 0.0344828 0.0344828;
   (6, 34) 0.0344828 0.0344828 0.0344828 0.0344828 0.0344828 0.0344828 0.0344828 0.0344828 0.0344828 0.0344828 0.0344828 0.0344828 0.0344828 0.0344828 0.0344828 0.0344828 0.0344828 0.0344828 0.0344828 0.0344828 0.0344828 0.0344828 0.0344828 0.0344828 0.0344828 0.0344828 0.0344828 0.0344828 0.0344828;
   (7, 34) 0.0344828 0.0344828 0.0344828 0.0344828 0.0344828 0.0344828 0.0344828 0.0344828 0.0344828 0.0344828 0.0344828 0.0344828 0.0344828 0.0344828 0.0344828 0.0344828 0.0344828 0.0344828 0.0344828 0.0344828 0.0344828 0.0344828 0.0344828 0.0344828 0.0344828 0.0344828 0.0344828 0.0344828 0.0344828;
   (2, 35) 0.0344828 0.0344828 0.0344828 0.0344828 0.0344828 0.0344828 0.0344828 0.0344828 0.0344828 0.0344828 0.0344828 0.0344828 0.0344828 0.0344828 0.0344828 0.0344828 0.0344828 0.0344828 0.0344828 0.0344828 0.0344828 0.0344828 0.0344828 0.0344828 0.0344828 0.0344828 0.0344828 0.0344828 0.0344828;
   (3, 35) 0.0333333 0.0333333 0.0333333 0.0333333 0.0333333 0.0333333 0.0333333 0.0333333 0.0333333 0.0333333 0.0333333 0.0333333 0.0333333 0.0333333 0.0333333 0.0333333 0.0333333 0.0333333 0.0333333 0.0333333 0.0333333 0.0333333 0.0333333 0.0333333 0.0333333 0.0333333 0.0333333 0.0666667 0.0333333;
   (4, 35) 0.0344828 0.0344828 0.0344828 0.0344828 0.0344828 0.0344828 0.0344828 0.0344828 0.0344828 0.0344828 0.0344828 0.0344828 0.0344828 0.0344828 0.0344828 0.0344828 0.0344828 0.0344828 0.0344828 0.0344828 0.0344828 0.0344828 0.0344828 0.0344828 0.0344828 0.0344828 0.0344828 0.0344828 0.0344828;
   (5, 35) 0.0344828 0.0344828 0.0344828 0.0344828 0.0344828 0.0344828 0.0344828 0.0344828 0.0344828 0.0344828 0.0344828 0.0344828 0.0344828 0.0344828 0.0344828 0.0344828 0.0344828 0.0344828 0.0344828 0.0344828 0.0344828 0.0344828 0.0344828 0.0344828 0.0344828 0.0344828 0.0344828 0.0344828 0.0344828;
   (6, 35) 0.0344828 0.0344828 0.0344828 0.0344828 0.0344828 0.0344828 0.0344828 0.0344828 0.0344828 0.0344828 0.0344828 0.0344828 0.0344828 0.0344828 0.0344828 0.0344828 0.0344828 0.0344828 0.0344828 0.0344828 0.0344828 0.0344828 0.0344828 0.0344828 0.0344828 0.0344828 0.0344828 0.0344828 0.0344828;
   (7, 35) 0.0344828 0.0344828 0.0344828 0.0344828 0.0344828 0.0344828 0.0344828 0.0344828 0.0344828 0.0344828 0.0344828 0.0344828 0.0344828 0.0344828 0.0344828 0.0344828 0.0344828 0.0344828 0.0344828 0.0344828 0.0344828 0.0344828 0.0344828 0.0344828 0.0344828 0.0344828 0.0344828 0.0344828 0.0344828;
   (2, 36) 0.0344828 0.0344828 0.0344828 0.0344828 0.0344828 0.0344828 0.0344828 0.0344828 0.0344828 0.0344828 0.0344828 0.0344828 0.0344828 0.0344828 0.0344828 0.0344828 0.0344828 0.0344828 0.0344828 0.0344828 0.0344828 0.0344828 0.0344828 0.0344828 0.0344828 0.0344828 0.0344828 0.0344828 0.0344828;
   (3, 36) 0.0333333 0.0333333 0.0333333 0.0333333 0.0333333 0.0333333 0.0333333 0.0333333 0.0333333 0.0333333 0.0333333 0.0333333 0.0333333 0.0333333 0.0333333 0.0333333 0.0333333 0.0333333 0.0333333 0.0333333 0.0333333 0.0333333 0.0666667 0.0333333 0.0333333 0.0333333 0.0333333 0.0333333 0.0333333;
   (4, 36) 0.0344828 0.0344828 0.0344828 0.0344828 0.0344828 0.0344828 0.0344828 0.0344828 0.0344828 0.0344828 0.0344828 0.0344828 0.0344828 0.0344828 0.0344828 0.0344828 0.0344828 0.0344828 0.0344828 0.0344828 0.0344828 0.0344828 0.0344828 0.0344828 0.0344828 0.0344828 0.0344828 0.0344828 0.0344828;
   (5, 36) 0.0344828 0.0344828 0.0344828 0.0344828 0.0344828 0.0344828 0.0344828 0.0344828 0.0344828 0.0344828 0.0344828 0.0344828 0.0344828 0.0344828 0.0344828 0.0344828 0.0344828 0.0344828 0.0344828 0.0344828 0.0344828 0.0344828 0.0344828 0.0344828 0.0344828 0.0344828 0.0344828 0.0344828 0.0344828;
   (6, 36) 0.0344828 0.0344828 0.0344828 0.0344828 0.0344828 0.0344828 0.0344828 0.0344828 0.0344828 0.0344828 0.0344828 0.0344828 0.0344828 0.0344828 0.0344828 0.0344828 0.0344828 0.0344828 0.0344828 0.0344828 0.0344828 0.0344828 0.0344828 0.0344828 0.0344828 0.0344828 0.0344828 0.0344828 0.0344828;
   (7, 36) 0.0344828 0.0344828 0.0344828 0.0344828 0.0344828 0.0344828 0.0344828 0.0344828 0.0344828 0.0344828 0.0344828 0.0344828 0.0344828 0.0344828 0.0344828 0.0344828 0.0344828 0.0344828 0.0344828 0.0344828 0.0344828 0.0344828 0.0344828 0.0344828 0.0344828 0.0344828 0.0344828 0.0344828 0.0344828;
   (2, 37) 0.0344828 0.0344828 0.0344828 0.0344828 0.0344828 0.0344828 0.0344828 0.0344828 0.0344828 0.0344828 0.0344828 0.0344828 0.0344828 0.0344828 0.0344828 0.0344828 0.0344828 0.0344828 0.0344828 0.0344828 0.0344828 0.0344828 0.0344828 0.0344828 0.0344828 0.0344828 0.0344828 0.0344828 0.0344828;
