network "unnamedBN" {
// written by aGrUM 1.15.1
}

variable extract_claims_p {
   type discrete[6] {17, 18, 19, 20, 21, 22};
}

variable extract_claims_c {
   type discrete[12] {1, 2, 3, 4, 5, 6, 7, 8, 9, 10, 11, 12};
}

variable generate_queries_p {
   type discrete[2] {36, 37};
}

variable generate_queries_c {
   type discrete[3] {1, 2, 3};
}

variable verifies_p {
   type discrete[8] {11, 12, 13, 14, 15, 16, 17, 18};
}

variable verifies_c {
   type discrete[14] {11, 12, 13, 14, 15, 16, 17, 18, 19, 20, 21, 22, 23, 24};
}

probability (extract_claims_p) {
   table 0.392857 0.339286 0.107143 0.0714286 0.0535714 0.0357143;
}
probability (extract_claims_c | extract_claims_p) {
   (17) 0.0909091 0.363636 0.272727 0.030303 0.030303 0.030303 0.030303 0.030303 0.030303 0.030303 0.030303 0.030303;
   (18) 0.0333333 0.0333333 0.1 0.266667 0.2 0.133333 0.0666667 0.0333333 0.0333333 0.0333333 0.0333333 0.0333333;
   (19) 0.0588235 0.0588235 0.0588235 0.0588235 0.0588235 0.117647 0.117647 0.117647 0.0588235 0.0588235 0.117647 0.117647;
   (20) 0.0666667 0.0666667 0.0666667 0.0666667 0.0666667 0.0666667 0.133333 0.133333 0.0666667 0.0666667 0.0666667 0.133333;
   (21) 0.0714286 0.0714286 0.0714286 0.0714286 0.0714286 0.0714286 0.0714286 0.0714286 0.142857 0.0714286 0.142857 0.0714286;
   (22) 0.0769231 0.0769231 0.0769231 0.0769231 0.0769231 0.0769231 0.0769231 0.0769231 0.0769231 0.0769231 0.153846 0.0769231;
}
probability (generate_queries_p | extract_claims_c, extract_claims_p) {
   (1, 17) 0.5 0.5;
   (2, 17) 0.461538 0.538462;
   (3, 17) 0.8 0.2;
   (4, 17) 0.5 0.5;
   (5, 17) 0.5 0.5;
   (6, 17) 0.5 0.5;
   (7, 17) 0.5 0.5;
   (8, 17) 0.5 0.5;
   (9, 17) 0.5 0.5;
   (10, 17) 0.5 0.5;
   (11, 17) 0.5 0.5;
   (12, 17) 0.5 0.5;
   (1, 18) 0.5 0.5;
   (2, 18) 0.5 0.5;
   (3, 18) 0.25 0.75;
   (4, 18) 0.444444 0.555556;
   (5, 18) 0.571429 0.428571;
   (6, 18) 0.4 0.6;
   (7, 18) 0.666667 0.333333;
   (8, 18) 0.5 0.5;
   (9, 18) 0.5 0.5;
   (10, 18) 0.5 0.5;
   (11, 18) 0.5 0.5;
   (12, 18) 0.5 0.5;
   (1, 19) 0.5 0.5;
   (2, 19) 0.5 0.5;
   (3, 19) 0.5 0.5;
   (4, 19) 0.5 0.5;
   (5, 19) 0.5 0.5;
   (6, 19) 0.333333 0.666667;
   (7, 19) 0.666667 0.333333;
   (8, 19) 0.666667 0.333333;
   (9, 19) 0.5 0.5;
   (10, 19) 0.5 0.5;
   (11, 19) 0.666667 0.333333;
   (12, 19) 0.333333 0.666667;
   (1, 20) 0.5 0.5;
   (2, 20) 0.5 0.5;
   (3, 20) 0.5 0.5;
   (4, 20) 0.5 0.5;
   (5, 20) 0.5 0.5;
   (6, 20) 0.5 0.5;
   (7, 20) 0.666667 0.333333;
   (8, 20) 0.666667 0.333333;
   (9, 20) 0.5 0.5;
   (10, 20) 0.5 0.5;
   (11, 20) 0.5 0.5;
   (12, 20) 0.666667 0.333333;
   (1, 21) 0.5 0.5;
   (2, 21) 0.5 0.5;
   (3, 21) 0.5 0.5;
   (4, 21) 0.5 0.5;
   (5, 21) 0.5 0.5;
   (6, 21) 0.5 0.5;
   (7, 21) 0.5 0.5;
   (8, 21) 0.5 0.5;
   (9, 21) 0.666667 0.333333;
   (10, 21) 0.5 0.5;
   (11, 21) 0.333333 0.666667;
   (12, 21) 0.5 0.5;
   (1, 22) 0.5 0.5;
   (2, 22) 0.5 0.5;
   (3, 22) 0.5 0.5;
   (4, 22) 0.5 0.5;
   (5, 22) 0.5 0.5;
   (6, 22) 0.5 0.5;
   (7, 22) 0.5 0.5;
   (8, 22) 0.5 0.5;
   (9, 22) 0.5 0.5;
   (10, 22) 0.5 0.5;
   (11, 22) 0.333333 0.666667;
   (12, 22) 0.5 0.5;
}
probability (generate_queries_c | generate_queries_p, extract_claims_c) {
   (36, 1) 0.25 0.5 0.25;
   (37, 1) 0.25 0.25 0.5;
   (36, 2) 0.25 0.625 0.125;
   (37, 2) 0.111111 0.444444 0.444444;
   (36, 3) 0.2 0.7 0.1;
   (37, 3) 0.333333 0.5 0.166667;
   (36, 4) 0.5 0.333333 0.166667;
   (37, 4) 0.285714 0.571429 0.142857;
   (36, 5) 0.5 0.333333 0.166667;
   (37, 5) 0.2 0.6 0.2;
   (36, 6) 0.5 0.25 0.25;
   (37, 6) 0.166667 0.666667 0.166667;
   (36, 7) 0.333333 0.5 0.166667;
   (37, 7) 0.333333 0.333333 0.333333;
   (36, 8) 0.2 0.6 0.2;
   (37, 8) 0.333333 0.333333 0.333333;
   (36, 9) 0.25 0.5 0.25;
   (37, 9) 0.333333 0.333333 0.333333;
   (36, 10) 0.333333 0.333333 0.333333;
   (37, 10) 0.333333 0.333333 0.333333;
   (36, 11) 0.25 0.5 0.25;
   (37, 11) 0.2 0.6 0.2;
   (36, 12) 0.25 0.5 0.25;
   (37, 12) 0.25 0.25 0.5;
}
probability (verifies_p | generate_queries_c, generate_queries_p) {
   (1, 36) 0.125 0.125 0.1875 0.25 0.0625 0.0625 0.125 0.0625;
   (2, 36) 0.0357143 0.178571 0.214286 0.214286 0.142857 0.107143 0.0714286 0.0357143;
   (3, 36) 0.125 0.125 0.125 0.125 0.125 0.125 0.125 0.125;
   (1, 37) 0.2 0.1 0.1 0.2 0.1 0.1 0.1 0.1;
   (2, 37) 0.0434783 0.0869565 0.217391 0.217391 0.130435 0.130435 0.0869565 0.0869565;
   (3, 37) 0.153846 0.153846 0.0769231 0.0769231 0.153846 0.153846 0.0769231 0.153846;
}
probability (verifies_c | verifies_p, generate_queries_c) {
   (11, 1) 0.125 0.0625 0.0625 0.0625 0.0625 0.125 0.0625 0.0625 0.0625 0.0625 0.0625 0.0625 0.0625 0.0625;
   (12, 1) 0.0666667 0.133333 0.0666667 0.0666667 0.0666667 0.0666667 0.0666667 0.0666667 0.0666667 0.0666667 0.0666667 0.0666667 0.0666667 0.0666667;
   (13, 1) 0.0625 0.0625 0.0625 0.0625 0.125 0.125 0.0625 0.0625 0.0625 0.0625 0.0625 0.0625 0.0625 0.0625;
   (14, 1) 0.0555556 0.0555556 0.0555556 0.111111 0.111111 0.166667 0.0555556 0.0555556 0.0555556 0.0555556 0.0555556 0.0555556 0.0555556 0.0555556;
   (15, 1) 0.0714286 0.0714286 0.0714286 0.0714286 0.0714286 0.0714286 0.0714286 0.0714286 0.0714286 0.0714286 0.0714286 0.0714286 0.0714286 0.0714286;
   (16, 1) 0.0714286 0.0714286 0.0714286 0.0714286 0.0714286 0.0714286 0.0714286 0.0714286 0.0714286 0.0714286 0.0714286 0.0714286 0.0714286 0.0714286;
   (17, 1) 0.0666667 0.0666667 0.0666667 0.0666667 0.0666667 0.0666667 0.0666667 0.133333 0.0666667 0.0666667 0.0666667 0.0666667 0.0666667 0.0666667;
   (18, 1) 0.0714286 0.0714286 0.0714286 0.0714286 0.0714286 0.0714286 0.0714286 0.0714286 0.0714286 0.0714286 0.0714286 0.0714286 0.0714286 0.0714286;
   (11, 2) 0.0714286 0.0714286 0.0714286 0.0714286 0.0714286 0.0714286 0.0714286 0.0714286 0.0714286 0.0714286 0.0714286 0.0714286 0.0714286 0.0714286;
   (12, 2) 0.0526316 0.105263 0.0526316 0.105263 0.157895 0.105263 0.0526316 0.0526316 0.0526316 0.0526316 0.0526316 0.0526316 0.0526316 0.0526316;
   (13, 2) 0.0434783 0.173913 0.0869565 0.0434783 0.0434783 0.130435 0.130435 0.0434783 0.0434783 0.0434783 0.0434783 0.0869565 0.0434783 0.0434783;
   (14, 2) 0.0434783 0.0434783 0.0869565 0.0434783 0.130435 0.0869565 0.0869565 0.130435 0.130435 0.0434783 0.0434783 0.0434783 0.0434783 0.0434783;
   (15, 2) 0.0526316 0.0526316 0.0526316 0.0526316 0.105263 0.0526316 0.157895 0.0526316 0.105263 0.0526316 0.105263 0.0526316 0.0526316 0.0526316;
   (16, 2) 0.0555556 0.0555556 0.111111 0.0555556 0.0555556 0.0555556 0.111111 0.111111 0.0555556 0.0555556 0.0555556 0.111111 0.0555556 0.0555556;
   (17, 2) 0.0625 0.0625 0.0625 0.0625 0.0625 0.0625 0.0625 0.125 0.0625 0.125 0.0625 0.0625 0.0625 0.0625;
   (18, 2) 0.0666667 0.0666667 0.0666667 0.0666667 0.0666667 0.133333 0.0666667 0.0666667 0.0666667 0.0666667 0.0666667 0.0666667 0.0666667 0.0666667;
   (11, 3) 0.0666667 0.0666667 0.0666667 0.0666667 0.133333 0.0666667 0.0666667 0.0666667 0.0666667 0.0666667 0.0666667 0.0666667 0.0666667 0.0666667;
   (12, 3) 0.0666667 0.0666667 0.0666667 0.133333 0.0666667 0.0666667 0.0666667 0.0666667 0.0666667 0.0666667 0.0666667 0.0666667 0.0666667 0.0666667;
   (13, 3) 0.0714286 0.0714286 0.0714286 0.0714286 0.0714286 0.0714286 0.0714286 0.0714286 0.0714286 0.0714286 0.0714286 0.0714286 0.0714286 0.0714286;
   (14, 3) 0.0714286 0.0714286 0.0714286 0.0714286 0.0714286 0.0714286 0.0714286 0.0714286 0.0714286 0.0714286 0.0714286 0.0714286 0.0714286 0.0714286;
   (15, 3) 0.0666667 0.0666667 0.0666667 0.0666667 0.0666667 0.0666667 0.0666667 0.0666667 0.0666667 0.0666667 0.133333 0.0666667 0.0666667 0.0666667;
   (16, 3) 0.0666667 0.0666667 0.0666667 0.0666667 0.0666667 0.0666667 0.0666667 0.0666667 0.0666667 0.0666667 0.0666667 0.0666667 0.0666667 0.133333;
   (17, 3) 0.0714286 0.0714286 0.0714286 0.0714286 0.0714286 0.0714286 0.0714286 0.0714286 0.0714286 0.0714286 0.0714286 0.0714286 0.0714286 0.0714286;
   (18, 3) 0.0666667 0.0666667 0.0666667 0.0666667 0.0666667 0.0666667 0.0666667 0.133333 0.0666667 0.0666667 0.0666667 0.0666667 0.0666667 0.0666667;
}

