network "unnamedBN" {
// written by aGrUM 1.15.1
}

variable generate_queries_p {
   type discrete[9] {7, 8, 9, 10, 11, 12, 13, 14, 15};
}

variable generate_queries_c {
   type discrete[13] {0, 1, 2, 3, 4, 5, 6, 7, 8, 9, 10, 11, 12};
}

variable generate_solutions_p {
   type discrete[9] {6, 7, 8, 9, 10, 11, 12, 13, 14};
}

variable generate_solutions_c {
   type discrete[14] {0, 1, 2, 3, 4, 5, 6, 7, 8, 9, 10, 11, 12, 13};
}

probability (generate_queries_p) {
   table 0.127168 0.393064 0.242775 0.109827 0.0635838 0.017341 0.0289017 0.00578035 0.0115607;
}
probability (generate_queries_c | generate_queries_p) {
   (7) 0.0294118 0.0294118 0.323529 0.205882 0.147059 0.0588235 0.0294118 0.0294118 0.0294118 0.0294118 0.0294118 0.0294118 0.0294118;
   (8) 0.025 0.0125 0.2875 0.3375 0.15 0.0875 0.025 0.0125 0.0125 0.0125 0.0125 0.0125 0.0125;
   (9) 0.0185185 0.037037 0.148148 0.277778 0.240741 0.0925926 0.0740741 0.0185185 0.0185185 0.0185185 0.0185185 0.0185185 0.0185185;
   (10) 0.0322581 0.0322581 0.354839 0.0967742 0.16129 0.0322581 0.0967742 0.0322581 0.0322581 0.0322581 0.0322581 0.0322581 0.0322581;
   (11) 0.0869565 0.0434783 0.130435 0.26087 0.0869565 0.0434783 0.0869565 0.0434783 0.0434783 0.0434783 0.0434783 0.0434783 0.0434783;
   (12) 0.0666667 0.133333 0.0666667 0.0666667 0.133333 0.0666667 0.0666667 0.0666667 0.0666667 0.0666667 0.0666667 0.0666667 0.0666667;
   (13) 0.0588235 0.0588235 0.0588235 0.176471 0.0588235 0.117647 0.0588235 0.0588235 0.0588235 0.0588235 0.0588235 0.0588235 0.117647;
   (14) 0.0769231 0.0769231 0.0769231 0.0769231 0.0769231 0.0769231 0.0769231 0.0769231 0.0769231 0.0769231 0.0769231 0.0769231 0.0769231;
   (15) 0.0714286 0.0714286 0.0714286 0.0714286 0.142857 0.0714286 0.0714286 0.0714286 0.0714286 0.0714286 0.0714286 0.0714286 0.0714286;
}
probability (generate_solutions_p | generate_queries_c, generate_queries_p) {
   (0, 7) 0.111111 0.111111 0.111111 0.111111 0.111111 0.111111 0.111111 0.111111 0.111111;
   (1, 7) 0.111111 0.111111 0.111111 0.111111 0.111111 0.111111 0.111111 0.111111 0.111111;
   (2, 7) 0.368421 0.263158 0.0526316 0.0526316 0.0526316 0.0526316 0.0526316 0.0526316 0.0526316;
   (3, 7) 0.4 0.133333 0.0666667 0.0666667 0.0666667 0.0666667 0.0666667 0.0666667 0.0666667;
   (4, 7) 0.384615 0.0769231 0.0769231 0.0769231 0.0769231 0.0769231 0.0769231 0.0769231 0.0769231;
   (5, 7) 0.2 0.1 0.1 0.1 0.1 0.1 0.1 0.1 0.1;
   (6, 7) 0.111111 0.111111 0.111111 0.111111 0.111111 0.111111 0.111111 0.111111 0.111111;
   (7, 7) 0.111111 0.111111 0.111111 0.111111 0.111111 0.111111 0.111111 0.111111 0.111111;
   (8, 7) 0.111111 0.111111 0.111111 0.111111 0.111111 0.111111 0.111111 0.111111 0.111111;
   (9, 7) 0.111111 0.111111 0.111111 0.111111 0.111111 0.111111 0.111111 0.111111 0.111111;
   (10, 7) 0.111111 0.111111 0.111111 0.111111 0.111111 0.111111 0.111111 0.111111 0.111111;
   (11, 7) 0.111111 0.111111 0.111111 0.111111 0.111111 0.111111 0.111111 0.111111 0.111111;
   (12, 7) 0.111111 0.111111 0.111111 0.111111 0.111111 0.111111 0.111111 0.111111 0.111111;
   (0, 8) 0.1 0.2 0.1 0.1 0.1 0.1 0.1 0.1 0.1;
   (1, 8) 0.111111 0.111111 0.111111 0.111111 0.111111 0.111111 0.111111 0.111111 0.111111;
   (2, 8) 0.0322581 0.709677 0.0645161 0.0322581 0.0322581 0.0322581 0.0322581 0.0322581 0.0322581;
   (3, 8) 0.0285714 0.742857 0.0571429 0.0285714 0.0285714 0.0285714 0.0285714 0.0285714 0.0285714;
   (4, 8) 0.05 0.55 0.1 0.05 0.05 0.05 0.05 0.05 0.05;
   (5, 8) 0.0666667 0.4 0.133333 0.0666667 0.0666667 0.0666667 0.0666667 0.0666667 0.0666667;
   (6, 8) 0.1 0.2 0.1 0.1 0.1 0.1 0.1 0.1 0.1;
   (7, 8) 0.111111 0.111111 0.111111 0.111111 0.111111 0.111111 0.111111 0.111111 0.111111;
   (8, 8) 0.111111 0.111111 0.111111 0.111111 0.111111 0.111111 0.111111 0.111111 0.111111;
   (9, 8) 0.111111 0.111111 0.111111 0.111111 0.111111 0.111111 0.111111 0.111111 0.111111;
   (10, 8) 0.111111 0.111111 0.111111 0.111111 0.111111 0.111111 0.111111 0.111111 0.111111;
   (11, 8) 0.111111 0.111111 0.111111 0.111111 0.111111 0.111111 0.111111 0.111111 0.111111;
   (12, 8) 0.111111 0.111111 0.111111 0.111111 0.111111 0.111111 0.111111 0.111111 0.111111;
   (0, 9) 0.111111 0.111111 0.111111 0.111111 0.111111 0.111111 0.111111 0.111111 0.111111;
   (1, 9) 0.1 0.1 0.2 0.1 0.1 0.1 0.1 0.1 0.1;
   (2, 9) 0.0625 0.0625 0.5 0.0625 0.0625 0.0625 0.0625 0.0625 0.0625;
   (3, 9) 0.0434783 0.0434783 0.565217 0.130435 0.0434783 0.0434783 0.0434783 0.0434783 0.0434783;
   (4, 9) 0.047619 0.0952381 0.571429 0.047619 0.047619 0.047619 0.047619 0.047619 0.047619;
   (5, 9) 0.0769231 0.153846 0.307692 0.0769231 0.0769231 0.0769231 0.0769231 0.0769231 0.0769231;
   (6, 9) 0.0833333 0.0833333 0.333333 0.0833333 0.0833333 0.0833333 0.0833333 0.0833333 0.0833333;
   (7, 9) 0.111111 0.111111 0.111111 0.111111 0.111111 0.111111 0.111111 0.111111 0.111111;
   (8, 9) 0.111111 0.111111 0.111111 0.111111 0.111111 0.111111 0.111111 0.111111 0.111111;
   (9, 9) 0.111111 0.111111 0.111111 0.111111 0.111111 0.111111 0.111111 0.111111 0.111111;
   (10, 9) 0.111111 0.111111 0.111111 0.111111 0.111111 0.111111 0.111111 0.111111 0.111111;
   (11, 9) 0.111111 0.111111 0.111111 0.111111 0.111111 0.111111 0.111111 0.111111 0.111111;
   (12, 9) 0.111111 0.111111 0.111111 0.111111 0.111111 0.111111 0.111111 0.111111 0.111111;
   (0, 10) 0.111111 0.111111 0.111111 0.111111 0.111111 0.111111 0.111111 0.111111 0.111111;
   (1, 10) 0.111111 0.111111 0.111111 0.111111 0.111111 0.111111 0.111111 0.111111 0.111111;
   (2, 10) 0.0526316 0.0526316 0.0526316 0.526316 0.105263 0.0526316 0.0526316 0.0526316 0.0526316;
   (3, 10) 0.0909091 0.0909091 0.0909091 0.272727 0.0909091 0.0909091 0.0909091 0.0909091 0.0909091;
   (4, 10) 0.0769231 0.0769231 0.153846 0.230769 0.153846 0.0769231 0.0769231 0.0769231 0.0769231;
   (5, 10) 0.111111 0.111111 0.111111 0.111111 0.111111 0.111111 0.111111 0.111111 0.111111;
   (6, 10) 0.0909091 0.0909091 0.0909091 0.272727 0.0909091 0.0909091 0.0909091 0.0909091 0.0909091;
   (7, 10) 0.111111 0.111111 0.111111 0.111111 0.111111 0.111111 0.111111 0.111111 0.111111;
   (8, 10) 0.111111 0.111111 0.111111 0.111111 0.111111 0.111111 0.111111 0.111111 0.111111;
   (9, 10) 0.111111 0.111111 0.111111 0.111111 0.111111 0.111111 0.111111 0.111111 0.111111;
   (10, 10) 0.111111 0.111111 0.111111 0.111111 0.111111 0.111111 0.111111 0.111111 0.111111;
   (11, 10) 0.111111 0.111111 0.111111 0.111111 0.111111 0.111111 0.111111 0.111111 0.111111;
   (12, 10) 0.111111 0.111111 0.111111 0.111111 0.111111 0.111111 0.111111 0.111111 0.111111;
   (0, 11) 0.1 0.1 0.1 0.1 0.2 0.1 0.1 0.1 0.1;
   (1, 11) 0.111111 0.111111 0.111111 0.111111 0.111111 0.111111 0.111111 0.111111 0.111111;
   (2, 11) 0.0909091 0.0909091 0.0909091 0.0909091 0.272727 0.0909091 0.0909091 0.0909091 0.0909091;
   (3, 11) 0.0714286 0.0714286 0.0714286 0.0714286 0.285714 0.214286 0.0714286 0.0714286 0.0714286;
   (4, 11) 0.1 0.1 0.1 0.1 0.2 0.1 0.1 0.1 0.1;
   (5, 11) 0.111111 0.111111 0.111111 0.111111 0.111111 0.111111 0.111111 0.111111 0.111111;
   (6, 11) 0.1 0.1 0.1 0.1 0.2 0.1 0.1 0.1 0.1;
   (7, 11) 0.111111 0.111111 0.111111 0.111111 0.111111 0.111111 0.111111 0.111111 0.111111;
   (8, 11) 0.111111 0.111111 0.111111 0.111111 0.111111 0.111111 0.111111 0.111111 0.111111;
   (9, 11) 0.111111 0.111111 0.111111 0.111111 0.111111 0.111111 0.111111 0.111111 0.111111;
   (10, 11) 0.111111 0.111111 0.111111 0.111111 0.111111 0.111111 0.111111 0.111111 0.111111;
   (11, 11) 0.111111 0.111111 0.111111 0.111111 0.111111 0.111111 0.111111 0.111111 0.111111;
   (12, 11) 0.111111 0.111111 0.111111 0.111111 0.111111 0.111111 0.111111 0.111111 0.111111;
   (0, 12) 0.111111 0.111111 0.111111 0.111111 0.111111 0.111111 0.111111 0.111111 0.111111;
   (1, 12) 0.1 0.1 0.1 0.1 0.1 0.2 0.1 0.1 0.1;
   (2, 12) 0.111111 0.111111 0.111111 0.111111 0.111111 0.111111 0.111111 0.111111 0.111111;
   (3, 12) 0.111111 0.111111 0.111111 0.111111 0.111111 0.111111 0.111111 0.111111 0.111111;
   (4, 12) 0.1 0.1 0.1 0.1 0.1 0.2 0.1 0.1 0.1;
   (5, 12) 0.111111 0.111111 0.111111 0.111111 0.111111 0.111111 0.111111 0.111111 0.111111;
   (6, 12) 0.111111 0.111111 0.111111 0.111111 0.111111 0.111111 0.111111 0.111111 0.111111;
   (7, 12) 0.111111 0.111111 0.111111 0.111111 0.111111 0.111111 0.111111 0.111111 0.111111;
   (8, 12) 0.111111 0.111111 0.111111 0.111111 0.111111 0.111111 0.111111 0.111111 0.111111;
   (9, 12) 0.111111 0.111111 0.111111 0.111111 0.111111 0.111111 0.111111 0.111111 0.111111;
   (10, 12) 0.111111 0.111111 0.111111 0.111111 0.111111 0.111111 0.111111 0.111111 0.111111;
   (11, 12) 0.111111 0.111111 0.111111 0.111111 0.111111 0.111111 0.111111 0.111111 0.111111;
   (12, 12) 0.111111 0.111111 0.111111 0.111111 0.111111 0.111111 0.111111 0.111111 0.111111;
   (0, 13) 0.111111 0.111111 0.111111 0.111111 0.111111 0.111111 0.111111 0.111111 0.111111;
   (1, 13) 0.111111 0.111111 0.111111 0.111111 0.111111 0.111111 0.111111 0.111111 0.111111;
   (2, 13) 0.111111 0.111111 0.111111 0.111111 0.111111 0.111111 0.111111 0.111111 0.111111;
   (3, 13) 0.0909091 0.0909091 0.0909091 0.0909091 0.0909091 0.0909091 0.272727 0.0909091 0.0909091;
   (4, 13) 0.111111 0.111111 0.111111 0.111111 0.111111 0.111111 0.111111 0.111111 0.111111;
   (5, 13) 0.1 0.1 0.1 0.1 0.1 0.1 0.2 0.1 0.1;
   (6, 13) 0.111111 0.111111 0.111111 0.111111 0.111111 0.111111 0.111111 0.111111 0.111111;
   (7, 13) 0.111111 0.111111 0.111111 0.111111 0.111111 0.111111 0.111111 0.111111 0.111111;
   (8, 13) 0.111111 0.111111 0.111111 0.111111 0.111111 0.111111 0.111111 0.111111 0.111111;
   (9, 13) 0.111111 0.111111 0.111111 0.111111 0.111111 0.111111 0.111111 0.111111 0.111111;
   (10, 13) 0.111111 0.111111 0.111111 0.111111 0.111111 0.111111 0.111111 0.111111 0.111111;
   (11, 13) 0.111111 0.111111 0.111111 0.111111 0.111111 0.111111 0.111111 0.111111 0.111111;
   (12, 13) 0.1 0.1 0.1 0.1 0.1 0.1 0.2 0.1 0.1;
   (0, 14) 0.111111 0.111111 0.111111 0.111111 0.111111 0.111111 0.111111 0.111111 0.111111;
   (1, 14) 0.111111 0.111111 0.111111 0.111111 0.111111 0.111111 0.111111 0.111111 0.111111;
   (2, 14) 0.111111 0.111111 0.111111 0.111111 0.111111 0.111111 0.111111 0.111111 0.111111;
   (3, 14) 0.111111 0.111111 0.111111 0.111111 0.111111 0.111111 0.111111 0.111111 0.111111;
   (4, 14) 0.111111 0.111111 0.111111 0.111111 0.111111 0.111111 0.111111 0.111111 0.111111;
   (5, 14) 0.111111 0.111111 0.111111 0.111111 0.111111 0.111111 0.111111 0.111111 0.111111;
   (6, 14) 0.111111 0.111111 0.111111 0.111111 0.111111 0.111111 0.111111 0.111111 0.111111;
   (7, 14) 0.111111 0.111111 0.111111 0.111111 0.111111 0.111111 0.111111 0.111111 0.111111;
   (8, 14) 0.111111 0.111111 0.111111 0.111111 0.111111 0.111111 0.111111 0.111111 0.111111;
   (9, 14) 0.111111 0.111111 0.111111 0.111111 0.111111 0.111111 0.111111 0.111111 0.111111;
   (10, 14) 0.111111 0.111111 0.111111 0.111111 0.111111 0.111111 0.111111 0.111111 0.111111;
   (11, 14) 0.111111 0.111111 0.111111 0.111111 0.111111 0.111111 0.111111 0.111111 0.111111;
   (12, 14) 0.111111 0.111111 0.111111 0.111111 0.111111 0.111111 0.111111 0.111111 0.111111;
   (0, 15) 0.111111 0.111111 0.111111 0.111111 0.111111 0.111111 0.111111 0.111111 0.111111;
   (1, 15) 0.111111 0.111111 0.111111 0.111111 0.111111 0.111111 0.111111 0.111111 0.111111;
   (2, 15) 0.111111 0.111111 0.111111 0.111111 0.111111 0.111111 0.111111 0.111111 0.111111;
   (3, 15) 0.111111 0.111111 0.111111 0.111111 0.111111 0.111111 0.111111 0.111111 0.111111;
   (4, 15) 0.1 0.1 0.1 0.1 0.1 0.1 0.1 0.1 0.2;
   (5, 15) 0.111111 0.111111 0.111111 0.111111 0.111111 0.111111 0.111111 0.111111 0.111111;
   (6, 15) 0.111111 0.111111 0.111111 0.111111 0.111111 0.111111 0.111111 0.111111 0.111111;
   (7, 15) 0.111111 0.111111 0.111111 0.111111 0.111111 0.111111 0.111111 0.111111 0.111111;
   (8, 15) 0.111111 0.111111 0.111111 0.111111 0.111111 0.111111 0.111111 0.111111 0.111111;
   (9, 15) 0.111111 0.111111 0.111111 0.111111 0.111111 0.111111 0.111111 0.111111 0.111111;
   (10, 15) 0.111111 0.111111 0.111111 0.111111 0.111111 0.111111 0.111111 0.111111 0.111111;
   (11, 15) 0.111111 0.111111 0.111111 0.111111 0.111111 0.111111 0.111111 0.111111 0.111111;
   (12, 15) 0.111111 0.111111 0.111111 0.111111 0.111111 0.111111 0.111111 0.111111 0.111111;
}
probability (generate_solutions_c | generate_solutions_p, generate_queries_c) {
   (6, 0) 0.0714286 0.0714286 0.0714286 0.0714286 0.0714286 0.0714286 0.0714286 0.0714286 0.0714286 0.0714286 0.0714286 0.0714286 0.0714286 0.0714286;
   (7, 0) 0.0666667 0.0666667 0.0666667 0.0666667 0.0666667 0.133333 0.0666667 0.0666667 0.0666667 0.0666667 0.0666667 0.0666667 0.0666667 0.0666667;
   (8, 0) 0.0714286 0.0714286 0.0714286 0.0714286 0.0714286 0.0714286 0.0714286 0.0714286 0.0714286 0.0714286 0.0714286 0.0714286 0.0714286 0.0714286;
   (9, 0) 0.0714286 0.0714286 0.0714286 0.0714286 0.0714286 0.0714286 0.0714286 0.0714286 0.0714286 0.0714286 0.0714286 0.0714286 0.0714286 0.0714286;
   (10, 0) 0.0666667 0.0666667 0.0666667 0.133333 0.0666667 0.0666667 0.0666667 0.0666667 0.0666667 0.0666667 0.0666667 0.0666667 0.0666667 0.0666667;
   (11, 0) 0.0714286 0.0714286 0.0714286 0.0714286 0.0714286 0.0714286 0.0714286 0.0714286 0.0714286 0.0714286 0.0714286 0.0714286 0.0714286 0.0714286;
   (12, 0) 0.0714286 0.0714286 0.0714286 0.0714286 0.0714286 0.0714286 0.0714286 0.0714286 0.0714286 0.0714286 0.0714286 0.0714286 0.0714286 0.0714286;
   (13, 0) 0.0714286 0.0714286 0.0714286 0.0714286 0.0714286 0.0714286 0.0714286 0.0714286 0.0714286 0.0714286 0.0714286 0.0714286 0.0714286 0.0714286;
   (14, 0) 0.0714286 0.0714286 0.0714286 0.0714286 0.0714286 0.0714286 0.0714286 0.0714286 0.0714286 0.0714286 0.0714286 0.0714286 0.0714286 0.0714286;
   (6, 1) 0.0714286 0.0714286 0.0714286 0.0714286 0.0714286 0.0714286 0.0714286 0.0714286 0.0714286 0.0714286 0.0714286 0.0714286 0.0714286 0.0714286;
   (7, 1) 0.0714286 0.0714286 0.0714286 0.0714286 0.0714286 0.0714286 0.0714286 0.0714286 0.0714286 0.0714286 0.0714286 0.0714286 0.0714286 0.0714286;
   (8, 1) 0.0666667 0.0666667 0.0666667 0.0666667 0.0666667 0.0666667 0.133333 0.0666667 0.0666667 0.0666667 0.0666667 0.0666667 0.0666667 0.0666667;
   (9, 1) 0.0714286 0.0714286 0.0714286 0.0714286 0.0714286 0.0714286 0.0714286 0.0714286 0.0714286 0.0714286 0.0714286 0.0714286 0.0714286 0.0714286;
   (10, 1) 0.0714286 0.0714286 0.0714286 0.0714286 0.0714286 0.0714286 0.0714286 0.0714286 0.0714286 0.0714286 0.0714286 0.0714286 0.0714286 0.0714286;
   (11, 1) 0.0666667 0.0666667 0.0666667 0.0666667 0.0666667 0.0666667 0.0666667 0.133333 0.0666667 0.0666667 0.0666667 0.0666667 0.0666667 0.0666667;
   (12, 1) 0.0714286 0.0714286 0.0714286 0.0714286 0.0714286 0.0714286 0.0714286 0.0714286 0.0714286 0.0714286 0.0714286 0.0714286 0.0714286 0.0714286;
   (13, 1) 0.0714286 0.0714286 0.0714286 0.0714286 0.0714286 0.0714286 0.0714286 0.0714286 0.0714286 0.0714286 0.0714286 0.0714286 0.0714286 0.0714286;
   (14, 1) 0.0714286 0.0714286 0.0714286 0.0714286 0.0714286 0.0714286 0.0714286 0.0714286 0.0714286 0.0714286 0.0714286 0.0714286 0.0714286 0.0714286;
   (6, 2) 0.1 0.05 0.15 0.1 0.1 0.1 0.05 0.05 0.05 0.05 0.05 0.05 0.05 0.05;
   (7, 2) 0.025641 0.025641 0.102564 0.230769 0.179487 0.128205 0.102564 0.025641 0.025641 0.0512821 0.025641 0.025641 0.025641 0.025641;
   (8, 2) 0.0454545 0.0909091 0.0454545 0.136364 0.0909091 0.227273 0.0454545 0.0454545 0.0454545 0.0454545 0.0454545 0.0454545 0.0454545 0.0454545;
   (9, 2) 0.0869565 0.0869565 0.0434783 0.0869565 0.0869565 0.173913 0.0434783 0.0869565 0.0434783 0.0434783 0.0434783 0.0434783 0.0434783 0.0869565;
   (10, 2) 0.0588235 0.0588235 0.117647 0.0588235 0.0588235 0.0588235 0.0588235 0.117647 0.117647 0.0588235 0.0588235 0.0588235 0.0588235 0.0588235;
   (11, 2) 0.0714286 0.0714286 0.0714286 0.0714286 0.0714286 0.0714286 0.0714286 0.0714286 0.0714286 0.0714286 0.0714286 0.0714286 0.0714286 0.0714286;
   (12, 2) 0.0714286 0.0714286 0.0714286 0.0714286 0.0714286 0.0714286 0.0714286 0.0714286 0.0714286 0.0714286 0.0714286 0.0714286 0.0714286 0.0714286;
   (13, 2) 0.0714286 0.0714286 0.0714286 0.0714286 0.0714286 0.0714286 0.0714286 0.0714286 0.0714286 0.0714286 0.0714286 0.0714286 0.0714286 0.0714286;
   (14, 2) 0.0714286 0.0714286 0.0714286 0.0714286 0.0714286 0.0714286 0.0714286 0.0714286 0.0714286 0.0714286 0.0714286 0.0714286 0.0714286 0.0714286;
   (6, 3) 0.0526316 0.0526316 0.105263 0.210526 0.0526316 0.105263 0.0526316 0.0526316 0.0526316 0.0526316 0.0526316 0.0526316 0.0526316 0.0526316;
   (7, 3) 0.025 0.025 0.075 0.2 0.3 0.15 0.05 0.025 0.025 0.025 0.025 0.025 0.025 0.025;
   (8, 3) 0.037037 0.037037 0.037037 0.0740741 0.185185 0.148148 0.185185 0.0740741 0.037037 0.037037 0.037037 0.037037 0.037037 0.037037;
   (9, 3) 0.0555556 0.0555556 0.0555556 0.0555556 0.166667 0.166667 0.0555556 0.0555556 0.0555556 0.0555556 0.0555556 0.0555556 0.0555556 0.0555556;
   (10, 3) 0.0588235 0.0588235 0.117647 0.0588235 0.0588235 0.0588235 0.176471 0.0588235 0.0588235 0.0588235 0.0588235 0.0588235 0.0588235 0.0588235;
   (11, 3) 0.0625 0.0625 0.125 0.0625 0.0625 0.0625 0.0625 0.0625 0.125 0.0625 0.0625 0.0625 0.0625 0.0625;
   (12, 3) 0.0625 0.0625 0.0625 0.0625 0.125 0.0625 0.125 0.0625 0.0625 0.0625 0.0625 0.0625 0.0625 0.0625;
   (13, 3) 0.0714286 0.0714286 0.0714286 0.0714286 0.0714286 0.0714286 0.0714286 0.0714286 0.0714286 0.0714286 0.0714286 0.0714286 0.0714286 0.0714286;
   (14, 3) 0.0714286 0.0714286 0.0714286 0.0714286 0.0714286 0.0714286 0.0714286 0.0714286 0.0714286 0.0714286 0.0714286 0.0714286 0.0714286 0.0714286;
   (6, 4) 0.0555556 0.0555556 0.166667 0.111111 0.111111 0.0555556 0.0555556 0.0555556 0.0555556 0.0555556 0.0555556 0.0555556 0.0555556 0.0555556;
   (7, 4) 0.04 0.04 0.12 0.12 0.12 0.16 0.08 0.04 0.08 0.04 0.04 0.04 0.04 0.04;
   (8, 4) 0.037037 0.037037 0.037037 0.111111 0.296296 0.111111 0.0740741 0.0740741 0.037037 0.037037 0.037037 0.037037 0.037037 0.037037;
   (9, 4) 0.0625 0.0625 0.0625 0.125 0.0625 0.125 0.0625 0.0625 0.0625 0.0625 0.0625 0.0625 0.0625 0.0625;
   (10, 4) 0.0625 0.0625 0.0625 0.0625 0.0625 0.125 0.125 0.0625 0.0625 0.0625 0.0625 0.0625 0.0625 0.0625;
   (11, 4) 0.0666667 0.0666667 0.0666667 0.0666667 0.0666667 0.133333 0.0666667 0.0666667 0.0666667 0.0666667 0.0666667 0.0666667 0.0666667 0.0666667;
   (12, 4) 0.0714286 0.0714286 0.0714286 0.0714286 0.0714286 0.0714286 0.0714286 0.0714286 0.0714286 0.0714286 0.0714286 0.0714286 0.0714286 0.0714286;
   (13, 4) 0.0714286 0.0714286 0.0714286 0.0714286 0.0714286 0.0714286 0.0714286 0.0714286 0.0714286 0.0714286 0.0714286 0.0714286 0.0714286 0.0714286;
   (14, 4) 0.0666667 0.0666667 0.0666667 0.0666667 0.0666667 0.0666667 0.0666667 0.0666667 0.0666667 0.0666667 0.133333 0.0666667 0.0666667 0.0666667;
   (6, 5) 0.0666667 0.0666667 0.0666667 0.133333 0.0666667 0.0666667 0.0666667 0.0666667 0.0666667 0.0666667 0.0666667 0.0666667 0.0666667 0.0666667;
   (7, 5) 0.1 0.05 0.1 0.1 0.2 0.05 0.05 0.05 0.05 0.05 0.05 0.05 0.05 0.05;
   (8, 5) 0.0555556 0.0555556 0.0555556 0.111111 0.111111 0.166667 0.0555556 0.0555556 0.0555556 0.0555556 0.0555556 0.0555556 0.0555556 0.0555556;
   (9, 5) 0.0714286 0.0714286 0.0714286 0.0714286 0.0714286 0.0714286 0.0714286 0.0714286 0.0714286 0.0714286 0.0714286 0.0714286 0.0714286 0.0714286;
   (10, 5) 0.0714286 0.0714286 0.0714286 0.0714286 0.0714286 0.0714286 0.0714286 0.0714286 0.0714286 0.0714286 0.0714286 0.0714286 0.0714286 0.0714286;
   (11, 5) 0.0714286 0.0714286 0.0714286 0.0714286 0.0714286 0.0714286 0.0714286 0.0714286 0.0714286 0.0714286 0.0714286 0.0714286 0.0714286 0.0714286;
   (12, 5) 0.0666667 0.0666667 0.0666667 0.0666667 0.0666667 0.133333 0.0666667 0.0666667 0.0666667 0.0666667 0.0666667 0.0666667 0.0666667 0.0666667;
   (13, 5) 0.0714286 0.0714286 0.0714286 0.0714286 0.0714286 0.0714286 0.0714286 0.0714286 0.0714286 0.0714286 0.0714286 0.0714286 0.0714286 0.0714286;
   (14, 5) 0.0714286 0.0714286 0.0714286 0.0714286 0.0714286 0.0714286 0.0714286 0.0714286 0.0714286 0.0714286 0.0714286 0.0714286 0.0714286 0.0714286;
   (6, 6) 0.0714286 0.0714286 0.0714286 0.0714286 0.0714286 0.0714286 0.0714286 0.0714286 0.0714286 0.0714286 0.0714286 0.0714286 0.0714286 0.0714286;
   (7, 6) 0.0666667 0.0666667 0.0666667 0.0666667 0.0666667 0.133333 0.0666667 0.0666667 0.0666667 0.0666667 0.0666667 0.0666667 0.0666667 0.0666667;
   (8, 6) 0.0588235 0.0588235 0.0588235 0.0588235 0.117647 0.176471 0.0588235 0.0588235 0.0588235 0.0588235 0.0588235 0.0588235 0.0588235 0.0588235;
   (9, 6) 0.0625 0.0625 0.0625 0.0625 0.1875 0.0625 0.0625 0.0625 0.0625 0.0625 0.0625 0.0625 0.0625 0.0625;
   (10, 6) 0.0666667 0.0666667 0.0666667 0.0666667 0.0666667 0.133333 0.0666667 0.0666667 0.0666667 0.0666667 0.0666667 0.0666667 0.0666667 0.0666667;
   (11, 6) 0.0714286 0.0714286 0.0714286 0.0714286 0.0714286 0.0714286 0.0714286 0.0714286 0.0714286 0.0714286 0.0714286 0.0714286 0.0714286 0.0714286;
   (12, 6) 0.0714286 0.0714286 0.0714286 0.0714286 0.0714286 0.0714286 0.0714286 0.0714286 0.0714286 0.0714286 0.0714286 0.0714286 0.0714286 0.0714286;
   (13, 6) 0.0714286 0.0714286 0.0714286 0.0714286 0.0714286 0.0714286 0.0714286 0.0714286 0.0714286 0.0714286 0.0714286 0.0714286 0.0714286 0.0714286;
   (14, 6) 0.0714286 0.0714286 0.0714286 0.0714286 0.0714286 0.0714286 0.0714286 0.0714286 0.0714286 0.0714286 0.0714286 0.0714286 0.0714286 0.0714286;
   (6, 7) 0.0714286 0.0714286 0.0714286 0.0714286 0.0714286 0.0714286 0.0714286 0.0714286 0.0714286 0.0714286 0.0714286 0.0714286 0.0714286 0.0714286;
   (7, 7) 0.0714286 0.0714286 0.0714286 0.0714286 0.0714286 0.0714286 0.0714286 0.0714286 0.0714286 0.0714286 0.0714286 0.0714286 0.0714286 0.0714286;
   (8, 7) 0.0714286 0.0714286 0.0714286 0.0714286 0.0714286 0.0714286 0.0714286 0.0714286 0.0714286 0.0714286 0.0714286 0.0714286 0.0714286 0.0714286;
   (9, 7) 0.0714286 0.0714286 0.0714286 0.0714286 0.0714286 0.0714286 0.0714286 0.0714286 0.0714286 0.0714286 0.0714286 0.0714286 0.0714286 0.0714286;
   (10, 7) 0.0714286 0.0714286 0.0714286 0.0714286 0.0714286 0.0714286 0.0714286 0.0714286 0.0714286 0.0714286 0.0714286 0.0714286 0.0714286 0.0714286;
   (11, 7) 0.0714286 0.0714286 0.0714286 0.0714286 0.0714286 0.0714286 0.0714286 0.0714286 0.0714286 0.0714286 0.0714286 0.0714286 0.0714286 0.0714286;
   (12, 7) 0.0714286 0.0714286 0.0714286 0.0714286 0.0714286 0.0714286 0.0714286 0.0714286 0.0714286 0.0714286 0.0714286 0.0714286 0.0714286 0.0714286;
   (13, 7) 0.0714286 0.0714286 0.0714286 0.0714286 0.0714286 0.0714286 0.0714286 0.0714286 0.0714286 0.0714286 0.0714286 0.0714286 0.0714286 0.0714286;
   (14, 7) 0.0714286 0.0714286 0.0714286 0.0714286 0.0714286 0.0714286 0.0714286 0.0714286 0.0714286 0.0714286 0.0714286 0.0714286 0.0714286 0.0714286;
   (6, 8) 0.0714286 0.0714286 0.0714286 0.0714286 0.0714286 0.0714286 0.0714286 0.0714286 0.0714286 0.0714286 0.0714286 0.0714286 0.0714286 0.0714286;
   (7, 8) 0.0714286 0.0714286 0.0714286 0.0714286 0.0714286 0.0714286 0.0714286 0.0714286 0.0714286 0.0714286 0.0714286 0.0714286 0.0714286 0.0714286;
   (8, 8) 0.0714286 0.0714286 0.0714286 0.0714286 0.0714286 0.0714286 0.0714286 0.0714286 0.0714286 0.0714286 0.0714286 0.0714286 0.0714286 0.0714286;
   (9, 8) 0.0714286 0.0714286 0.0714286 0.0714286 0.0714286 0.0714286 0.0714286 0.0714286 0.0714286 0.0714286 0.0714286 0.0714286 0.0714286 0.0714286;
   (10, 8) 0.0714286 0.0714286 0.0714286 0.0714286 0.0714286 0.0714286 0.0714286 0.0714286 0.0714286 0.0714286 0.0714286 0.0714286 0.0714286 0.0714286;
   (11, 8) 0.0714286 0.0714286 0.0714286 0.0714286 0.0714286 0.0714286 0.0714286 0.0714286 0.0714286 0.0714286 0.0714286 0.0714286 0.0714286 0.0714286;
   (12, 8) 0.0714286 0.0714286 0.0714286 0.0714286 0.0714286 0.0714286 0.0714286 0.0714286 0.0714286 0.0714286 0.0714286 0.0714286 0.0714286 0.0714286;
   (13, 8) 0.0714286 0.0714286 0.0714286 0.0714286 0.0714286 0.0714286 0.0714286 0.0714286 0.0714286 0.0714286 0.0714286 0.0714286 0.0714286 0.0714286;
   (14, 8) 0.0714286 0.0714286 0.0714286 0.0714286 0.0714286 0.0714286 0.0714286 0.0714286 0.0714286 0.0714286 0.0714286 0.0714286 0.0714286 0.0714286;
   (6, 9) 0.0714286 0.0714286 0.0714286 0.0714286 0.0714286 0.0714286 0.0714286 0.0714286 0.0714286 0.0714286 0.0714286 0.0714286 0.0714286 0.0714286;
   (7, 9) 0.0714286 0.0714286 0.0714286 0.0714286 0.0714286 0.0714286 0.0714286 0.0714286 0.0714286 0.0714286 0.0714286 0.0714286 0.0714286 0.0714286;
   (8, 9) 0.0714286 0.0714286 0.0714286 0.0714286 0.0714286 0.0714286 0.0714286 0.0714286 0.0714286 0.0714286 0.0714286 0.0714286 0.0714286 0.0714286;
   (9, 9) 0.0714286 0.0714286 0.0714286 0.0714286 0.0714286 0.0714286 0.0714286 0.0714286 0.0714286 0.0714286 0.0714286 0.0714286 0.0714286 0.0714286;
   (10, 9) 0.0714286 0.0714286 0.0714286 0.0714286 0.0714286 0.0714286 0.0714286 0.0714286 0.0714286 0.0714286 0.0714286 0.0714286 0.0714286 0.0714286;
   (11, 9) 0.0714286 0.0714286 0.0714286 0.0714286 0.0714286 0.0714286 0.0714286 0.0714286 0.0714286 0.0714286 0.0714286 0.0714286 0.0714286 0.0714286;
   (12, 9) 0.0714286 0.0714286 0.0714286 0.0714286 0.0714286 0.0714286 0.0714286 0.0714286 0.0714286 0.0714286 0.0714286 0.0714286 0.0714286 0.0714286;
   (13, 9) 0.0714286 0.0714286 0.0714286 0.0714286 0.0714286 0.0714286 0.0714286 0.0714286 0.0714286 0.0714286 0.0714286 0.0714286 0.0714286 0.0714286;
   (14, 9) 0.0714286 0.0714286 0.0714286 0.0714286 0.0714286 0.0714286 0.0714286 0.0714286 0.0714286 0.0714286 0.0714286 0.0714286 0.0714286 0.0714286;
   (6, 10) 0.0714286 0.0714286 0.0714286 0.0714286 0.0714286 0.0714286 0.0714286 0.0714286 0.0714286 0.0714286 0.0714286 0.0714286 0.0714286 0.0714286;
   (7, 10) 0.0714286 0.0714286 0.0714286 0.0714286 0.0714286 0.0714286 0.0714286 0.0714286 0.0714286 0.0714286 0.0714286 0.0714286 0.0714286 0.0714286;
   (8, 10) 0.0714286 0.0714286 0.0714286 0.0714286 0.0714286 0.0714286 0.0714286 0.0714286 0.0714286 0.0714286 0.0714286 0.0714286 0.0714286 0.0714286;
   (9, 10) 0.0714286 0.0714286 0.0714286 0.0714286 0.0714286 0.0714286 0.0714286 0.0714286 0.0714286 0.0714286 0.0714286 0.0714286 0.0714286 0.0714286;
   (10, 10) 0.0714286 0.0714286 0.0714286 0.0714286 0.0714286 0.0714286 0.0714286 0.0714286 0.0714286 0.0714286 0.0714286 0.0714286 0.0714286 0.0714286;
   (11, 10) 0.0714286 0.0714286 0.0714286 0.0714286 0.0714286 0.0714286 0.0714286 0.0714286 0.0714286 0.0714286 0.0714286 0.0714286 0.0714286 0.0714286;
   (12, 10) 0.0714286 0.0714286 0.0714286 0.0714286 0.0714286 0.0714286 0.0714286 0.0714286 0.0714286 0.0714286 0.0714286 0.0714286 0.0714286 0.0714286;
   (13, 10) 0.0714286 0.0714286 0.0714286 0.0714286 0.0714286 0.0714286 0.0714286 0.0714286 0.0714286 0.0714286 0.0714286 0.0714286 0.0714286 0.0714286;
   (14, 10) 0.0714286 0.0714286 0.0714286 0.0714286 0.0714286 0.0714286 0.0714286 0.0714286 0.0714286 0.0714286 0.0714286 0.0714286 0.0714286 0.0714286;
   (6, 11) 0.0714286 0.0714286 0.0714286 0.0714286 0.0714286 0.0714286 0.0714286 0.0714286 0.0714286 0.0714286 0.0714286 0.0714286 0.0714286 0.0714286;
   (7, 11) 0.0714286 0.0714286 0.0714286 0.0714286 0.0714286 0.0714286 0.0714286 0.0714286 0.0714286 0.0714286 0.0714286 0.0714286 0.0714286 0.0714286;
   (8, 11) 0.0714286 0.0714286 0.0714286 0.0714286 0.0714286 0.0714286 0.0714286 0.0714286 0.0714286 0.0714286 0.0714286 0.0714286 0.0714286 0.0714286;
   (9, 11) 0.0714286 0.0714286 0.0714286 0.0714286 0.0714286 0.0714286 0.0714286 0.0714286 0.0714286 0.0714286 0.0714286 0.0714286 0.0714286 0.0714286;
   (10, 11) 0.0714286 0.0714286 0.0714286 0.0714286 0.0714286 0.0714286 0.0714286 0.0714286 0.0714286 0.0714286 0.0714286 0.0714286 0.0714286 0.0714286;
   (11, 11) 0.0714286 0.0714286 0.0714286 0.0714286 0.0714286 0.0714286 0.0714286 0.0714286 0.0714286 0.0714286 0.0714286 0.0714286 0.0714286 0.0714286;
   (12, 11) 0.0714286 0.0714286 0.0714286 0.0714286 0.0714286 0.0714286 0.0714286 0.0714286 0.0714286 0.0714286 0.0714286 0.0714286 0.0714286 0.0714286;
   (13, 11) 0.0714286 0.0714286 0.0714286 0.0714286 0.0714286 0.0714286 0.0714286 0.0714286 0.0714286 0.0714286 0.0714286 0.0714286 0.0714286 0.0714286;
   (14, 11) 0.0714286 0.0714286 0.0714286 0.0714286 0.0714286 0.0714286 0.0714286 0.0714286 0.0714286 0.0714286 0.0714286 0.0714286 0.0714286 0.0714286;
   (6, 12) 0.0714286 0.0714286 0.0714286 0.0714286 0.0714286 0.0714286 0.0714286 0.0714286 0.0714286 0.0714286 0.0714286 0.0714286 0.0714286 0.0714286;
   (7, 12) 0.0714286 0.0714286 0.0714286 0.0714286 0.0714286 0.0714286 0.0714286 0.0714286 0.0714286 0.0714286 0.0714286 0.0714286 0.0714286 0.0714286;
   (8, 12) 0.0714286 0.0714286 0.0714286 0.0714286 0.0714286 0.0714286 0.0714286 0.0714286 0.0714286 0.0714286 0.0714286 0.0714286 0.0714286 0.0714286;
   (9, 12) 0.0714286 0.0714286 0.0714286 0.0714286 0.0714286 0.0714286 0.0714286 0.0714286 0.0714286 0.0714286 0.0714286 0.0714286 0.0714286 0.0714286;
   (10, 12) 0.0714286 0.0714286 0.0714286 0.0714286 0.0714286 0.0714286 0.0714286 0.0714286 0.0714286 0.0714286 0.0714286 0.0714286 0.0714286 0.0714286;
   (11, 12) 0.0714286 0.0714286 0.0714286 0.0714286 0.0714286 0.0714286 0.0714286 0.0714286 0.0714286 0.0714286 0.0714286 0.0714286 0.0714286 0.0714286;
   (12, 12) 0.0666667 0.0666667 0.0666667 0.0666667 0.0666667 0.0666667 0.0666667 0.0666667 0.0666667 0.0666667 0.133333 0.0666667 0.0666667 0.0666667;
   (13, 12) 0.0714286 0.0714286 0.0714286 0.0714286 0.0714286 0.0714286 0.0714286 0.0714286 0.0714286 0.0714286 0.0714286 0.0714286 0.0714286 0.0714286;
   (14, 12) 0.0714286 0.0714286 0.0714286 0.0714286 0.0714286 0.0714286 0.0714286 0.0714286 0.0714286 0.0714286 0.0714286 0.0714286 0.0714286 0.0714286;
}

